noun -0.525734 0.335102 -0.002565 0.281305 -0.697553 1.010999 0.151069 -0.048991 -0.001504 -0.367936 0.016630 -0.608136 0.144414 -0.451593 -0.440146 0.157061 -0.629179 0.547760 -0.319039 -0.267370 0.429806 -0.788724 0.924995 0.484214 -0.124436
punct -0.346187 0.197219 0.223729 0.161275 -0.474385 0.720865 0.244122 -0.030216 -0.155849 -0.209144 -0.005848 -0.487145 -0.051917 -0.408782 -0.362223 -0.116355 -0.429956 0.405624 -0.117670 -0.219002 0.283356 -0.487523 0.537876 0.508995 -0.173556
verb 0.036553 0.587164 0.028344 -0.072625 -1.012382 1.020041 0.394439 -0.476059 -0.080984 -0.028650 0.300866 -0.853597 0.152278 -0.663065 -0.181270 0.168578 -0.427355 0.584617 -0.388831 -0.315657 0.436948 -0.610091 0.955507 0.522428 -0.256435
pron 0.134741 0.617504 0.062767 -0.121366 -1.005323 0.968627 0.443922 -0.536686 -0.130109 0.054096 0.359377 -0.894164 0.112777 -0.714621 -0.134166 0.123377 -0.392179 0.566495 -0.361196 -0.326147 0.449071 -0.557321 0.890484 0.525316 -0.310599
adp -0.508462 0.338604 -0.056974 0.262345 -0.700240 1.092850 0.081501 -0.051382 0.098791 -0.416229 -0.054562 -0.533687 0.278629 -0.350906 -0.439190 0.264670 -0.639791 0.556712 -0.413500 -0.252159 0.391441 -0.853609 0.994241 0.447003 -0.047012
det -0.418774 0.445665 -0.021621 0.205096 -0.882114 1.120888 0.242423 -0.175634 0.009366 -0.328585 0.066361 -0.713055 0.211908 -0.528247 -0.416880 0.227961 -0.639546 0.633192 -0.411978 -0.308926 0.447632 -0.831782 1.058319 0.547855 -0.133149
propn -0.633239 0.101925 0.172474 0.252828 -0.455682 0.975723 0.141806 0.169078 0.010234 -0.505494 -0.285293 -0.370278 0.174923 -0.206826 -0.567243 0.047882 -0.625627 0.473519 -0.283893 -0.241083 0.208766 -0.708961 0.766712 0.568337 0.002265
<root> -0.125827 0.167571 0.221666 0.062951 -0.364524 0.486356 0.236334 -0.091825 -0.171367 -0.062344 0.064436 -0.398948 -0.093413 -0.358342 -0.205807 -0.147861 -0.274012 0.293342 -0.059342 -0.178676 0.212465 -0.297514 0.332052 0.397916 -0.169956
adj -0.413759 0.472848 -0.041647 0.164421 -0.937856 1.064056 0.304695 -0.207338 -0.024970 -0.303130 0.094024 -0.760062 0.168498 -0.589714 -0.402308 0.251797 -0.619898 0.636555 -0.387528 -0.319634 0.434810 -0.792317 1.078152 0.525418 -0.171333
aux 0.009234 0.568813 0.005594 -0.066698 -1.028916 1.027615 0.429329 -0.445780 -0.080638 -0.053989 0.279077 -0.867415 0.147969 -0.679631 -0.211261 0.195685 -0.459872 0.603660 -0.409306 -0.340053 0.441827 -0.642833 0.976946 0.511880 -0.271292
adv -0.013457 0.602930 -0.065140 -0.063557 -1.002314 0.948190 0.367499 -0.472204 -0.044290 -0.059543 0.269095 -0.800540 0.192232 -0.643615 -0.162345 0.265123 -0.427506 0.572987 -0.406634 -0.320281 0.402751 -0.632043 0.970298 0.421692 -0.277373
cconj -0.254027 0.473734 0.007924 0.064009 -0.881456 1.019308 0.312084 -0.271104 -0.030571 -0.222593 0.124951 -0.736043 0.191731 -0.554205 -0.336545 0.209464 -0.522984 0.565221 -0.382646 -0.302170 0.395641 -0.689785 0.977429 0.523947 -0.185427
part 0.023340 0.593023 -0.020144 -0.088877 -1.081341 1.069515 0.407516 -0.463633 -0.055211 -0.060192 0.290905 -0.873200 0.191410 -0.665672 -0.190635 0.234731 -0.443108 0.609169 -0.439351 -0.323656 0.432373 -0.654713 1.040191 0.503729 -0.251652
num -0.520338 -0.082306 -0.285476 0.255528 0.160379 0.455068 -0.515454 0.246543 0.375490 -0.422082 -0.300613 0.273990 0.404096 0.379658 -0.199585 0.359567 -0.270555 0.035021 -0.303753 0.070808 0.065890 -0.535620 0.321985 -0.249755 0.229622
sconj -0.042801 0.625195 0.023095 -0.054591 -1.075545 1.004972 0.503499 -0.462044 -0.114166 -0.062075 0.277732 -0.931795 0.127123 -0.737356 -0.232865 0.174918 -0.499846 0.634638 -0.360154 -0.369492 0.437606 -0.615886 1.003861 0.589100 -0.280113
x -0.643717 -0.504533 0.587650 0.539680 0.293012 -0.682353 0.517283 0.691167 -0.619859 -0.192263 -0.267723 -0.099658 -0.958306 -0.310270 -0.474374 -0.834552 -0.285740 0.033824 0.850330 -0.155096 -0.086848 0.523694 -0.445107 0.668285 -0.031136
intj 0.618608 0.342112 0.292515 -0.386582 -0.367480 0.417783 0.252660 -0.559583 -0.169983 0.389593 0.388825 -0.394904 0.007401 -0.370558 0.195577 -0.185886 0.160357 0.138141 -0.160938 -0.082223 0.175500 -0.082158 0.035726 0.221143 -0.327265
sym -0.085621 -0.025317 -0.516527 0.000682 0.340737 0.232842 -0.805221 0.002101 0.564616 -0.154243 -0.129300 0.524619 0.628176 0.611020 0.178350 0.561497 0.098555 -0.207731 -0.440938 0.261315 -0.002194 -0.416107 0.105148 -0.734494 0.262628
