punct 0.353351 -0.179775 -0.117914 0.087087 -0.286387 -0.355063 -0.191179 -0.463566 0.013398 -0.124323 -0.084995 0.039228 0.560887 0.254400 0.191119 -0.260976 0.025394 0.397394 0.244665 0.247660 -0.011530 -0.177134 0.177268 -0.133554 -0.143023
case -0.390205 -0.125223 -0.062978 0.660420 -0.566635 -0.524877 -0.475893 0.093611 0.318179 0.165844 0.308026 -0.248784 -0.078166 -0.132838 0.031484 0.151278 -0.046215 0.339332 0.402290 -0.054613 -0.056891 -0.428696 0.065399 -0.539352 -0.544962
nsubj -0.106945 -0.187113 0.696951 -0.351449 -0.299294 -0.480239 -0.401185 -0.655214 0.463415 -0.236950 -0.094236 0.068984 0.342683 0.074430 0.002020 -0.005905 -0.103108 0.263682 0.193659 -0.249850 0.029023 -0.320827 0.288359 -0.159089 -0.721098
det -0.423882 -0.146586 0.375247 0.304655 -0.541514 -0.476777 -0.417621 0.006564 0.529574 -0.126130 0.003550 -0.329573 0.001633 -0.036158 -0.062317 0.132114 -0.174950 0.236993 0.301938 -0.372061 0.058957 -0.329948 0.038059 -0.522930 -0.598443
root 0.386498 -0.397044 0.184746 -0.432446 -0.038116 -0.328350 -0.157090 -0.518239 0.196518 -0.098160 -0.526703 0.508209 0.556199 -0.115690 0.040243 -0.576293 0.113495 0.143344 0.490559 0.264418 0.092412 -0.060775 0.351561 -0.320262 -0.600758
advmod -0.296574 -0.099252 0.801878 -0.129519 -0.545088 -0.215922 -0.233987 -0.849943 0.370729 -0.035712 0.340607 -0.003859 0.529595 0.096995 -0.209958 0.069509 -0.172480 0.318267 0.385601 -0.130729 0.156509 -0.130365 0.067652 0.094498 -0.602908
obj -0.238211 -0.278236 0.559263 -0.374120 -0.293368 -0.417376 -0.621589 -0.390677 0.635057 -0.392628 -0.105562 -0.089017 0.265942 0.108010 -0.227841 0.096146 -0.398204 0.193193 0.113945 -0.045349 0.001172 -0.286266 -0.055999 -0.556865 -0.521020
amod -0.178667 -0.133291 0.071373 0.392844 -0.590540 -0.423294 -0.458090 -0.045988 0.360630 -0.021535 0.198982 -0.489147 0.095986 0.115570 0.142159 0.213167 -0.125255 0.422557 0.219198 -0.245888 0.010011 -0.320763 0.000922 -0.361855 -0.349278
obl -0.417442 -0.185303 0.122667 0.378091 -0.480060 -0.394742 -0.449091 -0.135046 0.301085 0.205055 0.257173 -0.084681 0.002769 -0.134387 -0.020033 0.045478 -0.089020 0.364847 0.474346 0.014984 -0.004213 -0.329951 0.037244 -0.451662 -0.577742
compound 0.049036 -0.395132 -0.306076 0.642641 -0.543940 -0.606400 -0.436857 0.015863 0.090045 0.026636 -0.125670 -0.347064 0.323959 0.191622 0.435285 -0.174144 -0.100872 0.682097 0.573012 0.209203 -0.093753 -0.453544 0.021258 -0.623216 -0.200211
conj -0.316668 -0.146218 0.370100 0.323996 -0.691458 -0.561831 -0.332255 -0.667078 0.103512 -0.355653 0.821951 -0.250208 0.296397 0.545381 -0.525003 0.293398 -0.391927 0.530770 -0.041739 0.156194 -0.216692 -0.613589 -0.127222 0.027975 0.188692
mark -0.553363 -0.461540 0.992222 -0.499039 -0.468682 0.177035 -0.471832 -0.595481 0.544042 -0.048445 -0.060965 -0.121806 -0.146734 -0.002251 -0.257661 0.253268 -0.537878 0.082038 0.708907 0.309686 0.228597 0.161715 -0.324874 -0.516884 -0.556789
nmod -0.269540 -0.165878 -0.222699 0.806439 -0.569891 -0.622859 -0.389996 0.190887 0.214213 0.204647 0.150561 -0.267411 -0.103130 -0.117741 0.291689 0.038786 0.076437 0.422806 0.528893 -0.114793 -0.048631 -0.473832 0.184872 -0.537171 -0.552092
cc -0.390583 -0.143545 0.406537 0.267419 -0.653893 -0.554941 -0.408644 -0.672831 0.170035 -0.240521 0.732473 -0.240964 0.233140 0.430717 -0.393796 0.275023 -0.367315 0.537140 0.064873 0.097750 -0.175586 -0.592376 -0.063687 -0.060934 -0.040458
aux -0.070975 -0.512723 1.027679 -0.481372 -0.345559 -0.202367 -0.292436 -0.534471 0.293626 0.133221 -0.115855 0.413352 0.278489 -0.163696 -0.121284 0.039433 -0.180521 0.282607 0.705095 -0.191477 0.034233 -0.294339 0.067674 0.018508 -0.773268
cop -0.187798 0.019033 0.701318 -0.159862 -0.525471 -0.438376 -0.270495 -0.890445 0.497273 -0.343941 0.016226 -0.058064 0.356653 0.234701 -0.000092 -0.021835 0.031608 0.221288 0.261826 -0.198675 0.163646 -0.111087 0.327130 -0.200971 -0.640634
advcl -0.375893 -0.449803 0.871054 -0.387278 -0.439283 -0.078017 -0.436690 -0.528342 0.458929 -0.078808 0.058345 0.027737 0.182336 -0.073551 -0.332640 0.183359 -0.479068 0.172572 0.587931 0.130097 0.110703 -0.127712 -0.172992 -0.343492 -0.563529
nmod:poss -0.261956 -0.197375 0.194654 -0.075038 -0.296275 -0.460876 -0.662933 -0.238058 0.378391 -0.140123 0.211681 -0.154226 -0.022487 0.115567 -0.122377 0.288979 -0.267740 0.338960 0.117362 -0.003901 -0.175100 -0.421576 -0.000510 -0.463396 -0.404260
xcomp -0.297769 -0.351799 0.853975 -0.594936 -0.284437 -0.060381 -0.535038 -0.526715 0.520030 -0.129095 -0.085077 -0.068603 0.172646 0.056605 -0.178008 0.183364 -0.554263 0.223905 0.344519 0.049402 0.086213 -0.063467 -0.172931 -0.344360 -0.597650
nummod -0.333037 -0.345222 -0.799051 0.981992 -0.165520 -0.323773 0.299962 0.145671 0.046114 -0.004539 -0.320730 0.068972 0.661398 -0.315724 0.165475 -1.278499 0.356082 0.263884 0.230303 0.376704 0.121782 -0.023257 0.212665 -0.717102 -0.166431
ccomp -0.223016 -0.420167 1.075724 -0.465910 -0.492489 -0.147057 -0.348934 -0.694495 0.513375 0.004976 -0.105713 0.119720 0.196509 -0.050446 -0.092823 0.159623 -0.265790 0.221041 0.699645 -0.108279 0.164925 -0.091159 0.013743 -0.180566 -0.804829
acl:relcl -0.237953 -0.438289 0.789484 0.115259 -0.578200 -0.347061 -0.331385 0.003886 0.301480 0.063196 0.095332 0.036961 0.082509 -0.235917 -0.249400 0.274349 -0.254708 0.286580 0.586953 -0.400095 -0.051990 -0.489062 -0.043311 -0.147472 -0.591802
appos 1.062037 -0.524986 -1.021166 0.962248 -0.376442 -0.371685 0.029197 0.676859 -0.483370 -0.083324 -0.485321 -0.180448 0.718005 -0.099992 0.623996 -0.443246 0.118595 0.358711 0.565301 0.393072 -0.083616 -0.284780 0.142872 -0.458312 0.363677
flat 0.845980 -0.999488 -0.542034 0.036242 -0.093239 -0.460044 -0.479809 0.015288 -0.675408 0.069861 -0.392713 0.225623 0.163750 0.112197 0.719209 -0.423707 -0.286771 0.722568 0.689606 1.033749 -0.451122 -0.651106 0.326255 -0.517405 0.190830
parataxis 0.037312 0.279260 0.400311 -0.504337 0.021767 0.004141 -0.281374 -0.565753 0.200074 0.054907 0.002869 -0.246096 0.158964 0.418411 0.458846 0.245931 0.028935 0.329178 -0.208693 -0.474721 0.091448 0.084680 0.077364 0.388061 -0.370143
acl -0.328335 -0.449798 0.256277 0.212818 -0.500651 -0.302443 -0.552178 0.215103 0.375085 -0.015361 0.003655 -0.280975 -0.191995 -0.091704 -0.122103 0.272837 -0.369033 0.242071 0.534996 -0.023146 -0.002425 -0.319498 -0.209024 -0.654587 -0.430886
aux:pass -0.287912 -1.007069 0.853608 0.082623 -0.604831 0.336915 -0.148551 0.262948 -0.269838 0.868591 0.187916 0.206695 -0.331314 -0.413536 -0.184133 0.410505 -0.432455 0.505700 1.430203 0.059564 -0.037342 -0.285904 -0.538972 0.123678 -0.337737
nsubj:pass -0.244456 -0.974631 0.603865 0.277198 -0.593860 0.171752 -0.190107 0.323608 -0.294243 0.893803 0.208477 0.196669 -0.257934 -0.409716 -0.090194 0.287944 -0.356703 0.569804 1.373341 0.095049 -0.094409 -0.403058 -0.444575 0.046024 -0.348951
discourse -0.076019 0.233853 0.033582 -0.771111 0.547786 -0.344282 -0.222254 -1.152275 0.178994 0.055596 -0.433191 0.580371 0.349866 0.318894 0.557078 -0.879148 0.276575 0.343663 -0.422210 0.247425 0.005093 0.078296 0.637226 0.112561 -0.780012
compound:prt -0.263679 -0.293107 0.792961 -0.553467 -0.314227 -0.013123 -0.457517 -0.458400 0.555862 -0.194343 -0.017202 -0.008546 0.146591 0.033023 -0.405351 0.298991 -0.389487 0.083301 0.384983 -0.024144 0.107018 -0.017028 -0.280702 -0.345459 -0.450249
list 2.104433 -0.875752 -1.310191 0.180628 -0.057591 -0.232930 -0.015654 -0.128187 -0.830925 -0.430944 -0.960346 0.055826 1.706458 0.369060 1.061279 -0.996448 -0.141389 0.598595 0.589102 1.401634 -0.132429 -0.077984 0.247351 -0.428535 0.896189
expl -0.455650 0.205730 0.873929 -0.360647 -0.506613 -0.106244 -0.238494 -1.014692 0.589462 -0.139917 -0.033266 -0.108038 -0.227716 0.275758 0.049398 0.208434 0.073493 0.065560 0.462191 -0.118798 0.317832 0.288692 0.118167 -0.212264 -0.718618
obl:tmod -0.385690 -0.283396 0.252544 -0.126889 -0.138727 -0.247199 -0.156404 -0.040639 0.250500 -0.078168 -0.363957 0.077592 -0.133150 -0.018381 -0.120047 -0.321038 -0.001103 0.181073 0.061466 -0.247224 -0.024375 -0.232555 0.065529 -0.317353 -0.455160
fixed -1.320127 0.194859 0.203400 0.831727 -0.715290 -0.510658 -0.627030 -1.228831 0.486766 0.386371 0.783145 -0.271503 0.004740 0.072437 0.421218 -0.267219 -0.266836 0.677019 0.631989 0.813908 0.091765 -0.007242 0.255494 -0.760220 -0.900538
obl:npmod -0.616074 0.013046 0.282072 0.363745 -0.451947 -0.362230 -0.152931 -0.364269 0.716790 -0.295335 0.279181 -0.335289 0.705486 -0.031719 -0.350160 -0.298201 0.033661 0.216477 -0.140070 -0.498234 0.194916 -0.139527 0.087673 -0.363708 -0.530391
iobj -0.223731 -0.083888 0.642880 -0.645565 0.080520 -0.354099 -0.389183 -0.410732 0.584044 -0.513985 -0.256383 0.028729 0.128204 0.160125 -0.168217 -0.019330 -0.345560 -0.017046 -0.343200 -0.197452 -0.035205 -0.133554 0.090064 -0.271555 -0.427943
nmod:tmod 0.094944 -0.205745 -1.039279 0.133639 0.747878 -0.002997 0.415900 0.300145 -0.363022 0.404328 -0.833991 0.748002 -0.022044 -0.446437 0.544003 -1.407015 0.657417 -0.049624 0.027533 0.616981 -0.008609 0.178847 0.495117 -0.355280 -0.222363
csubj -0.753060 0.310799 0.896427 -0.433675 -0.330021 0.112459 -0.160790 -0.834958 0.695567 -0.151004 -0.059276 -0.099293 -0.502407 0.191144 -0.163081 0.252953 0.037832 -0.183753 0.307118 -0.065245 0.321263 0.483163 -0.056030 -0.344160 -0.588316
goeswith 1.575683 0.420837 -0.734711 -0.520761 1.024748 0.956727 1.118362 0.999857 -0.555458 -0.142914 -0.407871 0.747436 0.521470 -0.780993 -0.496812 -0.020527 0.484197 -1.430271 -0.488074 0.015913 0.290902 0.811534 -0.072573 0.792558 0.959406
det:predet -0.513895 0.227438 0.616606 -0.258747 -0.125471 -0.243243 -0.353353 0.100493 0.579756 -0.330169 0.075139 -0.262428 -0.439511 0.084490 -0.473042 0.565779 -0.156275 -0.173433 -0.356033 -0.765734 -0.069739 -0.235680 -0.071889 -0.171625 -0.341192
nmod:npmod -0.514853 0.007638 -0.609050 0.982651 -0.049545 -0.354407 0.361373 0.376147 0.009235 -0.009447 -0.301401 0.046518 0.102651 -0.295534 0.112366 -0.951528 0.436459 0.036121 -0.012562 0.051320 0.084983 -0.057299 0.303384 -0.509953 -0.212533
vocative 0.190401 0.134461 -0.360958 -0.661433 0.791369 -0.145111 0.001548 -0.425256 -0.173924 0.123216 -0.519029 0.583829 -0.042874 0.186562 0.454648 -0.731966 0.428739 0.122490 -0.485832 0.215361 -0.161280 0.006055 0.527078 0.144490 -0.239970
cc:preconj -0.361404 -0.471615 0.561114 0.408909 -0.777196 -0.472422 -0.417164 -0.330499 0.133114 0.075019 0.495388 -0.185086 0.162887 0.021755 -0.214470 0.244784 -0.434252 0.524145 0.661447 0.120145 -0.106187 -0.585970 -0.027696 -0.260278 -0.343350
reparandum -0.208050 0.832772 0.287886 -0.644079 0.852313 0.805287 0.583409 0.844132 -0.154283 -0.089458 0.118926 0.042672 -1.245943 -0.135516 -0.547494 0.965621 0.113893 -1.082806 -0.967414 -0.863973 -0.017796 0.493672 -0.306409 0.737851 0.706093
flat:foreign 0.680165 1.441471 -1.035017 -0.194778 1.347517 1.260865 1.066733 1.439311 -0.747426 0.363066 0.043996 -0.252691 -0.919549 -0.143433 0.352787 0.772327 0.617472 -1.180092 -1.468957 -0.875774 0.111436 0.908822 -0.194206 1.448698 1.229859
orphan -0.070645 1.165351 -0.648215 0.165215 0.704732 0.793831 0.846082 0.774280 -0.611900 -0.086232 0.946532 -0.374413 -0.875450 0.268879 -0.658954 0.887535 0.224423 -0.874148 -1.540874 -0.433422 -0.128717 0.373978 -0.423921 1.201660 1.520982
_ -0.145750 1.088360 -0.668512 0.227270 0.689468 0.817954 0.885865 0.776841 -0.708335 -0.090378 1.051069 -0.384568 -0.870410 0.305378 -0.737070 0.881796 0.119294 -0.802351 -1.500909 -0.316106 -0.161755 0.352356 -0.536625 1.210770 1.683296
dep 0.316498 0.523819 -0.410147 -0.097307 0.538747 0.394596 0.604103 0.230013 -0.286111 -0.161669 -0.099039 0.131440 -0.103351 0.098868 -0.127125 -0.097413 0.335782 -0.500416 -0.655272 -0.067054 0.030939 0.462358 -0.010136 0.466283 0.653793
csubj:pass -0.168050 0.084962 0.236810 -0.391065 0.375122 0.867584 0.271565 0.581383 -0.258039 0.294132 0.104495 -0.042541 -0.857273 -0.214532 -0.172889 0.615256 -0.177087 -0.477549 -0.082723 -0.099126 0.058505 0.488345 -0.464247 0.406632 0.501150
dislocated 0.599974 0.597076 -0.879050 -0.026908 0.978097 0.935057 0.935146 1.083792 -0.865988 0.225611 -0.012859 0.060905 -0.531401 -0.188508 0.077285 0.194997 0.336770 -0.805505 -0.844626 -0.119225 -0.089032 0.591790 -0.238688 0.909384 1.248825
