noun -0.510508 0.302462 -0.002266 0.276905 -0.651371 0.941298 0.156714 -0.008101 -0.003579 -0.354873 0.006786 -0.576282 0.127309 -0.423428 -0.425557 0.139547 -0.589828 0.512669 -0.301534 -0.249546 0.407664 -0.732943 0.865442 0.466898 -0.107793
punct -0.285562 0.185778 0.204974 0.135759 -0.421466 0.637072 0.230819 -0.030335 -0.142755 -0.172194 0.006945 -0.445925 -0.046637 -0.374706 -0.314059 -0.110947 -0.370808 0.357945 -0.106014 -0.193546 0.258956 -0.417557 0.467528 0.465505 -0.157377
verb 0.039593 0.566644 0.032766 -0.061763 -0.962738 0.983433 0.369778 -0.446656 -0.084045 -0.016681 0.294762 -0.819593 0.138196 -0.637417 -0.166483 0.144395 -0.402578 0.555718 -0.372821 -0.300358 0.425673 -0.580908 0.896286 0.509323 -0.245732
pron 0.142189 0.603701 0.072037 -0.107688 -0.959887 0.934551 0.423446 -0.516044 -0.139834 0.070879 0.360078 -0.868697 0.092134 -0.700006 -0.118003 0.093420 -0.373515 0.542465 -0.338657 -0.317976 0.442140 -0.526778 0.829250 0.521683 -0.306890
adp -0.496244 0.309805 -0.067691 0.250646 -0.654231 1.036586 0.068430 -0.011975 0.107736 -0.404297 -0.063904 -0.493319 0.278981 -0.310433 -0.420829 0.260768 -0.591226 0.516668 -0.416453 -0.224215 0.371551 -0.814613 0.944318 0.410061 -0.027609
det -0.423363 0.405538 -0.017441 0.213156 -0.820482 1.056523 0.232556 -0.119068 0.007164 -0.323804 0.047478 -0.670834 0.192822 -0.490807 -0.410257 0.202195 -0.604034 0.594211 -0.393101 -0.285832 0.427371 -0.785509 0.992617 0.529127 -0.111971
propn -0.611078 0.068291 0.151191 0.239972 -0.393122 0.877303 0.134878 0.214206 0.024244 -0.492037 -0.293221 -0.322364 0.173622 -0.159947 -0.541970 0.051648 -0.565633 0.419401 -0.274621 -0.200900 0.180687 -0.636715 0.706875 0.523781 0.037052
<root> -0.082557 0.151654 0.217113 0.052888 -0.314009 0.403574 0.234093 -0.085361 -0.171940 -0.033395 0.071420 -0.366028 -0.107894 -0.336740 -0.171921 -0.159628 -0.232839 0.255159 -0.028694 -0.162957 0.189034 -0.225105 0.260220 0.377460 -0.157738
adj -0.416381 0.445054 -0.051938 0.170890 -0.890558 1.024841 0.286461 -0.161036 -0.013018 -0.303488 0.075718 -0.722635 0.170455 -0.549419 -0.394651 0.246276 -0.593587 0.605297 -0.385875 -0.300258 0.419730 -0.766630 1.035092 0.501335 -0.147877
aux 0.002554 0.541700 0.008929 -0.047230 -0.974642 0.983405 0.407671 -0.405350 -0.084283 -0.047830 0.268110 -0.832959 0.128719 -0.653577 -0.202563 0.169115 -0.440838 0.574508 -0.387349 -0.325573 0.430358 -0.610323 0.916813 0.501308 -0.257102
adv -0.019876 0.584415 -0.068248 -0.050237 -0.952534 0.919320 0.334869 -0.441003 -0.040733 -0.053625 0.258312 -0.763889 0.187236 -0.611150 -0.150468 0.248348 -0.408056 0.544636 -0.396742 -0.305882 0.393071 -0.615691 0.920283 0.401496 -0.265231
cconj -0.242720 0.453891 0.014897 0.063246 -0.836854 0.990533 0.296300 -0.241416 -0.030292 -0.211044 0.118540 -0.707161 0.186389 -0.526224 -0.323817 0.189037 -0.492396 0.536513 -0.378219 -0.284061 0.385497 -0.664361 0.927277 0.510924 -0.174424
part -0.005641 0.559797 -0.015504 -0.059590 -1.027257 1.034998 0.382265 -0.409015 -0.058116 -0.067605 0.268912 -0.837259 0.171779 -0.635518 -0.194438 0.207891 -0.434386 0.583804 -0.419907 -0.309562 0.421597 -0.633750 0.991157 0.497302 -0.231634
num -0.454570 -0.093523 -0.317006 0.192507 0.168288 0.374481 -0.514044 0.234115 0.387182 -0.378136 -0.282377 0.309826 0.416350 0.414587 -0.147145 0.385352 -0.185349 -0.010529 -0.321534 0.101141 0.030779 -0.480523 0.285168 -0.322448 0.233624
sconj -0.049787 0.598659 0.034869 -0.032500 -1.014391 0.961451 0.481529 -0.422694 -0.122400 -0.053225 0.267908 -0.897818 0.101547 -0.714380 -0.224531 0.138551 -0.483634 0.605621 -0.333144 -0.356934 0.429140 -0.585164 0.935746 0.581634 -0.269397
x -0.571557 -0.557488 0.583480 0.538618 0.412223 -0.830867 0.518641 0.702174 -0.599750 -0.165735 -0.274178 -0.031614 -0.978651 -0.267276 -0.429415 -0.848666 -0.246032 -0.024976 0.923687 -0.129061 -0.127535 0.645376 -0.569720 0.625137 0.001286
intj 0.684387 0.358756 0.297376 -0.411267 -0.330604 0.376251 0.220714 -0.601193 -0.178857 0.442147 0.422303 -0.368915 0.001680 -0.359905 0.248763 -0.200938 0.208326 0.104750 -0.141797 -0.069354 0.164801 -0.031746 -0.036880 0.201946 -0.336998
sym -0.034818 -0.034461 -0.558259 -0.068994 0.336740 0.172959 -0.828072 -0.018507 0.581032 -0.114824 -0.118810 0.574040 0.653133 0.661641 0.230949 0.599912 0.184556 -0.251541 -0.472757 0.290787 -0.045465 -0.384588 0.082526 -0.824070 0.263591
<unk> -0.185330 0.302815 0.028849 0.071962 -0.571494 0.715428 0.190947 -0.153737 -0.031236 -0.148876 0.079710 -0.491190 0.104843 -0.370817 -0.230911 0.097571 -0.367881 0.390129 -0.252530 -0.201338 0.289169 -0.491529 0.636111 0.359911 -0.125679
