case -0.163950 -0.198095 -0.019881 -0.012792 -0.091760 -0.224021 0.000944 -0.135186 0.000546 -0.085374 -0.031848 -0.054968 -0.010072 0.061844 -0.062801 0.072774 -0.039648 0.112159 0.179548 0.054146 -0.040499 -0.317242 -0.054410 -0.046374 -0.179267 -0.031508 -0.214416 0.005742 -0.096544 -0.185959 -0.085921 -0.296212 0.079312 0.099972 -0.021604 -0.055755 0.453238 0.007196 -0.178008 0.099147 -0.261185 -0.167542 -0.022126 0.092385 -0.059688 -0.068928 -0.075596 0.181107 0.236892 0.022098 -0.177846 -0.315412 0.312780 -0.045533 0.081927 0.116138 0.145975 0.208510 -0.265177 0.046483 0.099320 -0.126011 0.102479 0.104300 -0.212324 -0.054759 0.039202 0.076340 -0.126549 -0.125718 -0.281488 0.040028 0.040615 0.080005 -0.022897 -0.060968 0.046690 -0.282715 0.352259 0.021938 0.110062 -0.049563 -0.098866 0.083259 -0.011632 0.306937 0.425753 -0.060405 -0.018998 -0.037039 0.076931 -0.113230 0.001554 0.021334 -0.217872 0.211035 -0.114950 0.136273 -0.269161 -0.145672
nsubj 0.090871 0.045280 0.180308 0.095124 -0.071301 -0.109611 -0.332538 -0.053309 0.112325 -0.196561 -0.004169 -0.069954 0.190259 0.121739 0.039794 0.119312 0.001117 0.033780 0.059614 -0.114611 0.103302 0.079445 0.072744 -0.193326 -0.134545 -0.104985 -0.084372 0.224334 -0.250388 0.131453 -0.299579 -0.251350 0.209405 0.027009 0.355953 0.217629 0.245103 -0.006062 -0.124749 0.129238 -0.195059 0.063450 -0.086304 -0.353319 -0.024117 0.184503 -0.013238 0.090536 -0.111645 0.097393 0.027190 -0.001130 -0.089395 -0.220503 0.008504 0.272105 0.045036 0.247794 -0.255083 -0.031164 0.244327 0.206284 0.158894 0.214524 -0.056575 0.034115 0.148268 -0.146803 -0.110350 -0.048182 0.217675 0.070293 -0.015059 0.071662 0.133868 0.070841 0.131570 0.002675 0.305191 0.118793 0.066798 -0.066422 0.072019 -0.025069 -0.101269 0.041992 0.162587 -0.002279 0.008660 0.049613 0.474167 -0.168178 -0.028049 -0.051620 0.046473 -0.186410 -0.058991 0.049427 -0.148522 -0.241086
det -0.037768 -0.076421 0.157301 -0.021515 -0.077094 -0.133804 -0.010187 -0.115757 0.119356 -0.193259 0.097166 -0.161440 0.036313 0.148953 -0.063653 0.158714 -0.085265 0.070908 0.138147 -0.038985 0.045423 -0.033129 -0.038096 -0.032928 -0.133685 -0.166620 -0.161160 -0.031583 -0.132556 -0.056092 -0.204325 -0.341970 0.098806 0.099751 0.164170 0.071216 0.325945 0.011155 -0.163836 0.101417 -0.220894 0.030964 -0.045699 0.045760 0.166556 -0.046822 -0.087881 0.113106 0.170524 0.041043 -0.086484 -0.142521 0.136961 -0.164604 0.036951 0.140465 0.213398 0.190107 -0.221618 0.081700 0.026166 -0.020278 0.184583 0.039119 -0.259991 -0.071429 0.104436 -0.073704 -0.311152 -0.145884 -0.132854 0.119436 0.019841 0.099027 0.044011 -0.055793 0.127651 -0.197776 0.371678 -0.005246 0.226483 0.054040 -0.139270 0.030160 -0.143046 0.187256 0.347780 -0.021551 -0.070200 0.050288 0.188862 -0.011061 0.018066 -0.003040 -0.194871 0.113557 -0.075501 0.079305 -0.367591 -0.229695
punct 0.227661 -0.109902 -0.133708 0.254808 -0.130194 -0.041197 -0.186284 -0.079340 0.128934 -0.015205 -0.200004 -0.026854 0.062037 -0.018193 -0.060388 -0.063750 0.067470 -0.030256 0.081523 0.069605 0.150841 0.030743 0.034262 -0.163171 -0.217321 0.142673 0.073321 0.238332 -0.326249 0.126802 -0.155465 0.011641 0.236072 0.072190 0.037907 0.075125 0.064438 0.134619 -0.006679 0.076534 -0.071167 0.032812 -0.152024 -0.182281 -0.213226 0.162409 -0.231860 0.007541 -0.170738 0.082652 0.020117 -0.038000 0.119501 -0.159197 0.043128 0.138583 0.047173 0.404017 -0.203811 -0.046390 0.160607 0.265084 0.219253 0.317962 0.215260 -0.112249 0.068367 0.127962 0.158266 -0.121530 0.097480 -0.184096 -0.019860 0.171144 0.176835 -0.138315 -0.198692 -0.146549 0.171388 -0.051224 -0.171055 -0.203960 0.279226 -0.001682 0.149668 0.110482 0.111642 0.053796 0.171436 -0.204983 0.200889 0.055069 0.077449 -0.028987 0.065301 -0.128147 -0.020954 -0.126560 -0.056839 0.033847
root 0.323981 -0.091561 -0.045445 -0.000312 0.047020 -0.103530 -0.246473 -0.036317 0.051235 0.003063 -0.206560 0.083738 0.159033 0.103498 -0.094556 -0.222698 0.147198 -0.003334 0.034475 0.214151 0.156612 0.158182 0.143300 -0.220708 -0.143457 0.125889 0.158686 0.336040 -0.173068 0.189122 -0.143706 0.028885 0.299345 -0.122845 0.172256 0.140417 0.087515 0.119186 0.070933 0.151852 -0.184329 0.182788 -0.081335 -0.286165 -0.291081 0.200465 -0.177938 0.058957 -0.260529 0.185297 0.199865 0.102612 -0.049288 -0.081228 0.173179 -0.007254 -0.033904 0.372073 -0.282061 -0.048443 0.184686 0.166408 0.195025 0.265592 0.225857 -0.125524 -0.063262 -0.085349 -0.015079 0.013197 0.252416 -0.120410 -0.103331 0.117859 0.154268 -0.090840 -0.030076 0.013056 0.121292 -0.081799 -0.220388 0.009277 0.348989 -0.047578 0.095714 0.149301 0.129794 0.056548 0.065185 -0.050854 0.317149 -0.113827 0.216509 -0.037188 -0.078985 -0.168871 -0.092406 -0.009919 0.093017 0.069997
advmod -0.030211 -0.071367 0.244954 0.255982 -0.403774 -0.010219 -0.235495 -0.105105 0.199354 -0.052677 -0.044552 -0.074868 0.224032 -0.223295 0.102986 0.093533 -0.121305 -0.019813 0.212792 -0.243064 0.020129 -0.040145 0.051331 -0.122495 -0.165044 -0.152028 -0.165163 0.154918 -0.221294 0.113610 -0.286489 -0.174275 0.154315 -0.091422 0.365411 0.121156 0.136714 -0.053553 -0.265947 0.017510 -0.187444 -0.019224 -0.251954 -0.406138 -0.039856 0.162523 0.100678 0.172957 -0.021620 0.004549 -0.127488 -0.018514 -0.115795 -0.305185 -0.013496 0.238626 -0.060922 0.202482 -0.274692 -0.004551 0.113959 0.400428 0.086561 0.227392 -0.014046 0.151086 0.270465 -0.168696 -0.017441 -0.091496 0.158773 0.151399 -0.091984 0.068044 0.099528 0.148315 -0.094285 -0.209991 0.319849 0.322279 -0.199838 -0.168029 0.048375 0.058526 0.021966 0.033626 -0.007094 -0.068025 0.257134 -0.030880 0.530889 0.007548 -0.090715 -0.070476 0.266999 -0.182235 -0.035607 0.165021 -0.214195 -0.337083
obj -0.049684 -0.003784 0.172569 -0.201903 -0.024511 -0.085004 -0.257535 -0.224600 0.174747 -0.178059 0.149647 -0.203070 0.229657 0.172501 0.053270 -0.020146 -0.200363 0.174616 -0.055200 -0.064145 0.174645 0.085356 0.024560 -0.186093 -0.153881 -0.165151 -0.055154 0.042712 -0.145557 0.061337 -0.306191 -0.255975 0.118474 0.170940 0.491192 0.105709 0.294773 0.010306 -0.177720 0.195153 -0.341020 -0.061199 0.089700 -0.217376 0.124047 0.188618 0.102521 -0.015831 -0.001071 0.106528 0.158999 0.084711 0.024369 -0.163623 -0.038058 0.287269 0.068438 0.081854 -0.293552 -0.081381 0.260759 0.087395 0.256756 0.133118 -0.293639 -0.009396 0.134822 -0.171767 -0.238467 -0.204957 0.094695 0.095651 -0.083125 -0.068436 0.174301 0.221076 0.121365 0.088845 0.324236 0.096402 0.322838 0.064677 -0.043613 -0.041547 -0.095190 0.037617 0.300069 -0.061016 -0.174685 0.105476 0.431944 -0.098483 0.167113 0.014377 0.068037 -0.105579 0.038668 0.031684 -0.145169 -0.282900
obl -0.151896 -0.194224 0.063217 0.028308 -0.152052 -0.181215 -0.080985 -0.113814 0.023095 -0.036948 -0.075053 -0.040525 0.046698 -0.018213 0.004242 0.014613 -0.026371 0.086373 0.205694 0.013402 -0.043161 -0.265610 -0.016404 -0.070784 -0.166676 -0.025420 -0.165422 0.038998 -0.104709 -0.091897 -0.142536 -0.217562 0.086530 0.004257 0.107706 -0.000517 0.358945 -0.008854 -0.185653 0.088856 -0.266848 -0.119644 -0.071172 -0.065708 -0.115637 0.001279 -0.029948 0.223233 0.147263 0.058488 -0.160930 -0.207130 0.191339 -0.095428 0.087071 0.117755 0.047255 0.215993 -0.296924 0.003106 0.101252 -0.038144 0.079415 0.141020 -0.167392 -0.005939 0.068092 0.005293 -0.107952 -0.068102 -0.153744 0.067788 -0.006227 0.087107 -0.012908 -0.001338 0.012180 -0.258021 0.303993 0.110048 -0.017849 -0.053584 -0.022612 0.091053 0.018616 0.264203 0.305384 -0.054967 0.048366 -0.038336 0.196615 -0.114532 0.015948 0.017501 -0.129595 0.088886 -0.097484 0.180213 -0.244562 -0.178701
amod -0.077857 -0.095937 0.066383 0.097112 -0.161145 -0.124075 -0.034023 -0.182155 0.075526 -0.098325 0.053813 -0.259143 0.012895 0.109819 0.058741 0.174135 -0.086373 0.114983 0.151215 -0.015990 0.035799 -0.135816 -0.104637 0.006658 -0.189761 -0.069796 -0.090847 -0.013068 -0.202933 -0.125253 -0.158219 -0.257584 0.054921 0.134333 0.105909 0.025792 0.330810 0.018598 -0.138347 0.074857 -0.171462 -0.133656 -0.057393 0.007817 0.087437 -0.043244 -0.123541 0.121071 0.143611 0.020047 -0.188806 -0.190310 0.237149 -0.123014 -0.002836 0.194184 0.167099 0.170380 -0.242149 0.041904 0.017680 -0.053336 0.143077 0.116828 -0.201514 -0.038897 0.147601 0.105886 -0.125251 -0.175486 -0.222621 0.021549 0.078865 0.167270 0.026361 -0.072878 0.034301 -0.279232 0.335838 0.038986 0.187473 -0.082905 -0.116207 0.059604 -0.044909 0.192112 0.300267 -0.000593 -0.038722 -0.081936 0.116830 -0.019388 -0.058721 0.069031 -0.155355 0.090959 -0.047400 0.018102 -0.364549 -0.205353
compound -0.160765 -0.151820 0.020489 0.139946 0.014849 -0.061569 -0.058233 -0.188002 -0.055485 0.006750 -0.013892 -0.258550 -0.069592 0.347367 -0.083462 -0.047219 -0.043344 0.281792 0.099695 0.225100 0.108637 -0.097023 -0.174311 -0.079324 -0.223428 0.181047 -0.098652 -0.036253 -0.248279 -0.258372 -0.068641 -0.129384 -0.042563 0.262391 -0.077305 0.047527 0.366788 0.134216 0.104739 0.084266 -0.137174 -0.146383 0.046909 0.169020 -0.017087 0.008116 -0.316109 0.149066 -0.015800 0.054901 -0.122430 -0.126685 0.527305 -0.064503 0.045865 0.202015 0.266144 0.197870 -0.207748 -0.028250 0.018527 -0.036330 0.298760 0.202329 -0.133491 -0.167410 0.034643 0.318775 0.060595 -0.144676 -0.346121 -0.086152 0.153204 0.396745 0.078131 0.007782 -0.089482 -0.214988 0.236018 -0.146823 0.223072 -0.012543 0.030400 -0.087461 0.101782 0.239330 0.444491 0.043310 -0.066819 -0.247458 0.011345 -0.024069 0.196116 0.123437 -0.234319 0.177218 0.067776 -0.068272 -0.254590 0.055847
conj -0.240989 0.099189 0.065994 0.330102 -0.329438 -0.139940 -0.172772 -0.251110 0.015632 -0.051246 0.057268 -0.347263 0.194310 -0.081335 0.387125 0.268536 -0.134193 0.154966 -0.015605 -0.274164 -0.066098 -0.271225 -0.067734 0.111030 -0.214327 -0.163069 -0.082869 0.051672 -0.166151 -0.112623 -0.090668 -0.130530 -0.017248 0.220404 0.099710 -0.013221 0.331926 -0.049800 -0.216812 0.026243 -0.183451 -0.484525 0.008957 -0.285129 0.022119 0.045436 0.178760 0.154418 0.052480 0.018418 -0.270223 -0.215777 0.029186 -0.044328 -0.207856 0.396530 -0.052675 -0.066960 -0.152611 -0.087798 0.074115 -0.034382 0.019211 0.245184 -0.158189 0.156417 0.367811 0.275964 0.119615 -0.301646 -0.138188 0.101797 0.127780 0.043255 -0.035251 0.094128 -0.057609 -0.210836 0.295356 0.340253 0.170651 -0.376623 -0.182410 0.106622 -0.024564 -0.026344 0.070946 -0.038822 -0.023823 -0.188617 0.210321 -0.153780 -0.393163 0.089435 0.141934 -0.139868 -0.120920 0.063455 -0.312871 -0.499120
mark -0.197041 -0.167697 0.494173 -0.378954 -0.324410 -0.018931 -0.165473 -0.361253 0.138299 -0.054287 0.165146 -0.173744 0.138067 0.001615 0.122165 -0.107397 -0.406536 0.215357 0.268421 0.154110 0.082663 0.128927 -0.014813 -0.245553 -0.047699 -0.090555 -0.026776 0.014209 0.054891 -0.013143 -0.312023 -0.219822 -0.077456 -0.139569 0.592996 0.021412 0.214686 -0.036184 -0.285685 0.156744 -0.457595 0.048795 -0.063974 -0.417926 0.150259 0.198140 0.240372 0.203651 0.158366 0.020840 0.038228 0.147058 -0.060630 -0.168045 0.139096 -0.075679 -0.059518 0.072012 -0.383669 0.100615 0.123356 0.148481 0.090445 -0.028181 -0.339798 0.018577 0.008551 -0.473560 -0.469717 -0.189392 0.014638 0.119582 -0.218971 -0.117756 -0.011002 0.329225 0.055103 0.015556 0.191601 0.227596 0.134139 0.312952 -0.077820 0.047453 0.098745 0.067598 0.214832 -0.066127 -0.065793 0.185287 0.543741 0.027083 0.275245 0.050613 0.052272 -0.124741 0.016289 0.314292 -0.114337 -0.183021
nmod -0.086939 -0.191969 -0.054400 0.056650 -0.044558 -0.251084 0.020614 -0.109634 -0.056363 -0.086239 -0.062497 -0.057246 -0.057895 0.152168 -0.104423 0.080993 0.035480 0.111244 0.218426 0.140681 -0.023674 -0.298857 -0.073470 -0.032992 -0.211342 0.046013 -0.166406 0.058578 -0.160446 -0.209196 -0.058303 -0.283037 0.104249 0.120568 -0.157233 -0.011645 0.470617 0.057826 -0.077748 0.105923 -0.221845 -0.097837 -0.045225 0.159836 -0.088601 -0.117501 -0.218652 0.217890 0.203482 0.045515 -0.191825 -0.349187 0.379115 -0.045843 0.130531 0.075172 0.227393 0.316059 -0.253901 0.096562 0.062315 -0.175710 0.159505 0.138723 -0.136078 -0.140630 -0.006641 0.184915 -0.109540 -0.123662 -0.329495 -0.020837 0.100449 0.233274 -0.034390 -0.180237 0.034090 -0.339865 0.339565 -0.084496 0.118163 -0.042093 -0.054800 0.074874 0.008407 0.373919 0.496965 0.010439 -0.013452 -0.134879 0.001101 -0.107698 0.001062 0.028607 -0.355644 0.262235 -0.161915 0.068842 -0.311549 -0.066350
cc -0.234286 0.056808 0.104271 0.316386 -0.304061 -0.152346 -0.216113 -0.235137 0.023100 -0.034193 0.017247 -0.334539 0.190365 -0.035669 0.345607 0.220322 -0.111368 0.164252 0.031765 -0.222531 -0.056091 -0.260647 -0.061011 0.055937 -0.228630 -0.125708 -0.105854 0.068779 -0.206728 -0.113091 -0.134296 -0.181787 -0.001592 0.161652 0.163034 0.021193 0.337606 -0.044232 -0.218175 0.044077 -0.197881 -0.410594 -0.017970 -0.295311 -0.024819 0.053615 0.119662 0.210509 0.026404 0.027554 -0.267131 -0.194829 0.063174 -0.091878 -0.160139 0.397951 -0.031852 -0.017470 -0.209243 -0.086116 0.090613 -0.010599 0.026619 0.251544 -0.168974 0.170467 0.333260 0.211439 0.081302 -0.224315 -0.110257 0.112809 0.120808 0.093104 -0.040621 0.102488 -0.014660 -0.222362 0.307695 0.336066 0.134047 -0.334992 -0.138042 0.069629 -0.016932 0.034899 0.088279 -0.045623 -0.010404 -0.159158 0.279272 -0.168429 -0.324212 0.098785 0.093680 -0.140311 -0.103503 0.110580 -0.326282 -0.460161
aux 0.057388 -0.138531 0.442319 0.099096 -0.143983 -0.034958 -0.271084 0.027023 0.033015 -0.047259 -0.095941 0.033973 0.123187 -0.003816 0.047095 0.076440 0.042499 0.023526 0.287142 -0.101183 -0.018721 0.186556 0.081582 -0.091407 -0.113561 -0.097697 -0.121530 0.274745 -0.134935 0.217922 -0.329201 0.020253 0.176736 -0.239939 0.539222 0.213707 0.280150 -0.131255 -0.066635 0.020703 -0.245443 0.053163 -0.230866 -0.476318 -0.022000 0.232195 0.067716 0.245122 -0.196729 0.159274 -0.052787 0.135954 -0.187637 -0.223187 0.177663 0.029966 -0.072994 0.286501 -0.311275 -0.142087 0.044788 0.286574 0.144702 0.214843 0.020046 -0.082314 0.214038 -0.269375 -0.198939 0.011003 0.151864 0.169976 -0.039808 0.276737 0.155579 0.087630 0.049681 -0.130213 0.266672 0.205063 -0.220049 0.049726 0.186504 0.060769 -0.033302 0.095728 0.170191 0.001274 0.192128 0.008154 0.562477 -0.224421 0.124887 -0.164036 0.011798 -0.213625 -0.020251 0.253124 -0.047208 -0.183020
cop 0.213701 0.046796 0.139516 0.254215 -0.280351 -0.158643 -0.295022 -0.144126 0.208797 -0.240904 -0.084661 -0.118065 0.150871 -0.015540 0.056408 0.283646 -0.009501 -0.073151 0.165198 -0.081282 0.132405 0.047521 0.065238 -0.229343 -0.159186 -0.078460 -0.043397 0.255361 -0.357720 0.109605 -0.332936 -0.379789 0.256187 -0.047701 0.252995 0.123456 0.164140 0.054532 -0.251993 0.131050 -0.139508 0.122942 -0.225276 -0.431210 -0.029009 0.169076 -0.128845 0.107307 -0.041979 0.001147 -0.119987 -0.148790 -0.063907 -0.284245 0.011932 0.251960 0.071296 0.385463 -0.264609 0.114945 0.227597 0.292064 0.109417 0.205627 0.059418 0.122151 0.170468 -0.158475 -0.134459 -0.115114 0.228177 -0.005213 -0.013512 0.029864 0.058063 -0.076416 0.082462 -0.109668 0.364797 0.128658 -0.064856 -0.195848 0.027578 -0.041263 -0.033005 0.070579 0.052902 0.004786 0.098630 0.036016 0.503148 -0.020359 -0.198117 -0.007634 0.012775 -0.259921 -0.133614 0.089726 -0.270393 -0.293078
advcl -0.186569 -0.162718 0.409809 -0.167803 -0.255134 0.016638 -0.186301 -0.204132 0.158760 -0.051211 0.108039 -0.136126 0.153612 -0.014990 0.068782 -0.095896 -0.282212 0.176977 0.221683 -0.023419 0.062246 0.092550 -0.000722 -0.201262 -0.099368 -0.124050 -0.138783 0.011868 -0.041449 0.061454 -0.304097 -0.171981 -0.009958 -0.043798 0.562908 0.121805 0.209790 -0.050638 -0.220393 0.109494 -0.352785 0.015251 -0.093734 -0.329370 0.111390 0.172914 0.189343 0.171013 0.057766 0.045937 0.026767 0.147793 -0.055524 -0.232178 0.072488 0.089982 -0.023006 0.091976 -0.324945 -0.009456 0.115020 0.228372 0.125944 0.072287 -0.280178 0.014866 0.114036 -0.338215 -0.288072 -0.124001 0.061411 0.176732 -0.137311 -0.003533 0.098633 0.324836 0.003032 -0.032757 0.244809 0.234975 0.071425 0.176694 -0.013089 0.040786 0.036749 0.066137 0.190774 -0.077780 0.021726 0.092829 0.527538 -0.008257 0.242521 -0.033825 0.155317 -0.101065 0.045529 0.209626 -0.128892 -0.211260
nmod:poss -0.230562 -0.025269 0.083532 -0.103623 0.027254 -0.104874 -0.202822 -0.118024 0.030859 -0.125750 0.035676 -0.137053 0.032508 0.143671 0.064403 0.095847 -0.082193 0.156711 0.000309 -0.076728 0.035539 -0.152929 -0.030934 -0.134049 -0.108943 -0.007174 -0.150007 -0.042151 -0.136550 -0.121122 -0.187707 -0.269185 -0.026460 0.140092 0.278914 -0.021757 0.297692 -0.046805 -0.151323 0.121113 -0.192840 -0.236874 0.097332 -0.106062 0.008324 0.123947 0.047833 0.057226 0.073745 0.050401 -0.044043 -0.085392 0.164873 -0.044993 -0.071288 0.257871 0.045770 -0.024683 -0.196438 -0.085808 0.210430 -0.067563 0.052708 0.054336 -0.318358 0.110492 0.072096 -0.053060 -0.064113 -0.021909 -0.066974 0.078696 0.046573 -0.004619 0.011368 0.199697 0.190964 0.055633 0.201502 0.105107 0.235137 -0.006317 -0.098479 -0.064245 -0.094527 0.081263 0.226115 -0.076531 -0.129190 0.074522 0.204201 -0.160450 0.027026 0.052112 -0.038378 -0.058193 0.099352 0.127341 -0.123654 -0.205884
xcomp -0.189855 -0.001097 0.365493 -0.277388 -0.081441 0.045158 -0.212673 -0.221232 0.097583 -0.028782 0.233178 -0.203580 0.236838 0.155451 0.068839 -0.115716 -0.307098 0.254161 0.004532 -0.008251 0.116375 0.136598 -0.002148 -0.159335 -0.043743 -0.175483 -0.095258 -0.025479 0.054620 -0.030929 -0.199048 -0.158923 -0.053322 -0.002366 0.550425 0.110347 0.200896 -0.050221 -0.145571 0.125224 -0.324786 -0.035219 0.082097 -0.261097 0.145484 0.202563 0.226050 0.101180 -0.005594 0.058495 0.142296 0.209535 -0.042806 -0.103979 0.019273 0.150666 -0.023045 -0.127819 -0.261585 -0.049775 0.134366 0.155532 0.148788 0.024022 -0.337621 0.075113 0.082411 -0.324195 -0.250836 -0.113103 0.058419 0.169242 -0.124307 -0.067055 0.085938 0.409223 0.113188 0.113508 0.188605 0.184129 0.229326 0.218873 -0.084137 -0.075357 -0.074415 -0.019514 0.165587 -0.080883 -0.162605 0.175948 0.466430 -0.061174 0.250755 0.057130 0.157666 -0.077968 0.090517 0.166613 -0.030129 -0.205792
nummod 0.014777 -0.272084 -0.462452 0.206060 -0.028906 0.010969 0.162781 0.094142 0.161839 0.160442 -0.098477 0.058012 0.101663 0.018233 -0.273991 -0.787590 0.147143 0.116303 0.029280 0.182896 0.079932 -0.209639 0.046845 -0.181249 -0.205396 0.193088 -0.102984 -0.082928 -0.118911 0.112719 0.103981 -0.184068 0.205839 0.348966 -0.474436 0.401841 -0.171239 0.376039 0.087877 0.137999 -0.047359 0.558078 -0.056633 0.559444 -0.283677 -0.409600 -0.385597 0.113686 0.137736 0.074405 0.246091 -0.027673 0.222665 -0.241982 0.075182 0.123703 0.329756 0.383315 -0.098812 0.249472 -0.024734 0.016501 0.163872 0.246763 0.051822 -0.161245 -0.187053 0.337214 0.193907 0.073442 0.073572 -0.035730 -0.000240 0.137020 0.170968 -0.091495 -0.363645 -0.267488 0.042564 -0.227459 -0.106578 0.011628 0.290812 0.075842 0.167017 0.331606 0.143901 0.116290 0.164926 -0.307379 -0.120402 0.336483 0.293483 0.032516 0.075662 0.439679 -0.210718 -0.360729 -0.310226 0.223498
ccomp 0.075481 -0.135594 0.427035 -0.002773 -0.251372 -0.062958 -0.274756 -0.166832 0.134392 -0.100391 -0.000725 -0.090223 0.169276 0.036615 0.056472 0.092348 -0.111219 0.067325 0.282105 0.006775 0.087044 0.184223 0.047210 -0.189138 -0.129270 -0.126635 -0.071762 0.248626 -0.134248 0.143468 -0.362354 -0.166942 0.191567 -0.201440 0.574140 0.164628 0.317631 -0.057915 -0.183314 0.113580 -0.336123 0.084793 -0.206501 -0.518383 0.037174 0.258268 0.034565 0.222728 -0.090911 0.115570 -0.032974 0.075486 -0.106629 -0.232700 0.175535 0.065368 -0.022371 0.306441 -0.411977 -0.019286 0.123877 0.301917 0.189088 0.189461 -0.056694 -0.022789 0.178028 -0.350690 -0.299362 -0.103077 0.139141 0.102290 -0.104614 0.134965 0.132209 0.115212 0.073865 -0.115684 0.354049 0.181984 -0.116170 0.084518 0.094644 0.022645 -0.008905 0.123751 0.203318 -0.007678 0.087618 0.088390 0.631223 -0.119457 0.137197 -0.052214 0.007182 -0.216797 -0.043162 0.247838 -0.125366 -0.218687
acl:relcl -0.095522 -0.145385 0.349895 0.060399 -0.183283 -0.060243 -0.057012 -0.026424 0.018389 -0.141068 0.047678 -0.021921 0.030978 -0.002516 0.008072 0.184976 -0.067587 0.061167 0.281472 -0.157766 -0.091665 0.024592 -0.012793 0.035870 -0.121858 -0.193679 -0.220706 0.101628 -0.083599 0.070949 -0.259435 -0.053918 0.087137 -0.006472 0.284666 0.119921 0.404386 -0.123873 -0.128630 -0.013473 -0.262855 -0.063330 -0.165711 -0.168050 0.155952 0.054158 0.091026 0.184111 0.102328 0.076234 -0.152639 -0.056918 -0.020832 -0.170410 0.089000 0.021343 0.054968 0.250085 -0.238171 -0.041491 -0.034011 0.121472 0.177280 0.139805 -0.160382 -0.196321 0.234221 -0.085838 -0.254143 -0.179529 -0.138521 0.167876 0.001883 0.229681 0.117354 -0.020690 -0.000310 -0.289786 0.353312 0.127240 0.041834 0.028021 -0.015881 0.195000 -0.084890 0.106372 0.362687 -0.008106 0.127986 -0.043605 0.283533 -0.143829 0.015633 -0.170450 -0.052637 0.053972 -0.059085 0.162358 -0.233145 -0.236466
appos 0.072580 -0.256805 -0.369810 0.178586 0.077940 0.054436 0.136291 -0.061592 -0.153661 0.116352 -0.144058 -0.015256 -0.231652 0.197128 -0.226420 -0.296735 0.092525 0.170162 0.061032 0.351576 0.093413 -0.043469 -0.141051 -0.011296 -0.236537 0.408001 0.121430 0.128368 -0.252785 -0.088632 0.113205 0.360753 0.041023 0.400157 -0.539798 0.014237 0.140496 0.225160 0.371893 -0.042066 0.025904 -0.086163 -0.008431 0.390902 -0.141540 -0.067645 -0.406928 -0.103590 -0.034570 0.058799 0.047860 -0.104343 0.533382 0.059756 0.061238 -0.118298 0.227667 0.427190 -0.017759 -0.007102 -0.040305 -0.007115 0.386210 0.303558 0.257285 -0.565916 -0.079534 0.677442 0.357576 -0.261587 -0.392809 -0.401097 0.136034 0.475393 0.217632 -0.293017 -0.469376 -0.276316 -0.031916 -0.444282 0.081671 -0.080573 0.361729 0.136080 0.342943 0.155498 0.441429 0.195048 0.146654 -0.558672 -0.428097 0.108969 0.278249 -0.058206 -0.117677 0.322411 0.068933 -0.427884 0.046598 0.476715
acl -0.178583 -0.196663 0.195467 -0.318911 -0.113740 -0.128545 0.050957 -0.252673 0.016260 -0.110291 0.179518 -0.129893 0.003895 0.100703 0.020836 0.045995 -0.244752 0.185888 0.196638 0.088560 -0.000513 -0.088061 -0.074291 -0.006374 -0.122393 -0.136518 -0.093883 -0.042782 0.060343 -0.121890 -0.164479 -0.172584 0.008053 0.097456 0.224585 -0.046587 0.458160 -0.044398 -0.170480 0.114260 -0.397855 -0.157792 0.032267 0.014885 0.197221 -0.012408 0.106587 0.107900 0.295096 0.071884 -0.045195 -0.131375 0.193612 -0.010322 0.118071 -0.060444 0.109563 0.123320 -0.295914 0.049043 0.038742 -0.153794 0.193643 0.013931 -0.343903 -0.208723 0.047707 -0.089321 -0.375748 -0.275946 -0.310178 0.047496 -0.062759 0.014404 0.034124 0.028975 0.051332 -0.197202 0.314271 0.007447 0.309318 0.196810 -0.146047 0.159276 -0.018350 0.204866 0.505313 -0.021468 -0.131941 0.035769 0.112852 -0.072193 0.164898 -0.002081 -0.203322 0.189203 -0.039593 0.142515 -0.206012 -0.152324
flat -0.151363 -0.140651 0.019211 0.014508 0.297640 -0.125236 -0.326294 -0.031750 -0.447354 0.223696 -0.278163 -0.160137 -0.166423 0.552026 0.199876 -0.337891 0.218160 0.477331 0.049539 0.536835 -0.035255 -0.005663 -0.120090 -0.065772 -0.228922 0.648074 0.222401 0.257816 -0.345601 -0.176697 -0.064758 0.345173 -0.184669 0.132695 -0.038775 0.178689 0.269283 0.121935 0.460897 0.083311 -0.159948 -0.246068 0.135330 -0.108479 -0.388001 0.089344 -0.253528 0.243156 -0.316179 0.189777 0.024447 0.112553 0.364612 0.148929 0.087429 -0.066789 -0.006536 0.232387 -0.182023 -0.217562 0.042684 -0.333134 0.090619 0.297786 0.041742 -0.356428 -0.125600 0.549939 0.240876 0.067229 -0.277648 -0.304986 0.285891 0.644969 -0.005238 -0.028752 -0.041668 -0.018612 -0.194427 -0.148383 0.213213 0.021175 0.424841 0.010789 0.313831 0.148750 0.422608 0.254276 -0.047413 -0.451512 -0.095505 -0.458383 0.269621 0.041635 -0.393109 -0.042042 0.127682 -0.073716 0.152490 0.335017
parataxis 0.100589 0.103960 0.156629 0.340541 -0.135143 0.065827 -0.332747 0.034421 0.187291 -0.082517 -0.091347 -0.108509 0.073210 -0.034785 0.103788 0.305454 0.024090 -0.116426 0.043175 -0.256536 0.109824 0.101611 -0.009126 -0.098785 -0.056888 -0.020155 -0.063483 0.094051 -0.325962 0.086554 -0.264688 -0.170692 0.097516 -0.102798 0.376128 0.099428 -0.073579 -0.056207 -0.133956 -0.008450 0.114705 -0.005897 -0.156245 -0.358113 -0.013630 0.233337 -0.064320 0.021444 -0.245553 -0.045790 -0.112580 0.047186 -0.067520 -0.237135 -0.095129 0.355023 -0.033144 0.061427 -0.066433 -0.134883 0.138341 0.387127 0.007781 0.105863 0.055686 0.289273 0.213214 -0.162301 0.135918 0.125319 0.241829 0.022016 0.049421 0.068296 0.076779 0.088297 0.108898 0.026266 0.125978 0.211595 -0.138119 -0.219186 0.040397 -0.178597 -0.087713 -0.095283 -0.241162 -0.024985 0.148145 0.071537 0.394776 0.018497 -0.161482 0.030020 0.190257 -0.358982 0.171225 0.064678 -0.090930 -0.178091
aux:pass -0.383300 -0.490739 0.765059 0.008288 -0.325658 0.161353 0.137694 0.045324 -0.200694 0.303580 -0.024319 -0.003828 -0.207538 -0.134804 0.155756 -0.007410 -0.114487 0.198500 0.688345 0.066031 -0.333422 0.099913 -0.152257 0.254086 -0.018897 -0.005159 -0.219932 -0.050959 0.250433 -0.036080 -0.127563 0.386091 -0.247142 -0.448531 0.482468 0.091351 0.331638 -0.282123 0.026720 -0.180764 -0.265309 -0.150147 -0.317169 -0.237402 0.137613 0.012816 0.208162 0.543273 0.045963 0.085809 -0.369541 0.185415 -0.018441 -0.041403 0.369257 -0.438407 -0.152803 0.066918 -0.268965 -0.176123 -0.488684 0.073640 -0.066147 0.002205 -0.164957 -0.265879 0.181688 -0.230578 -0.287002 0.041394 -0.442550 0.252129 0.022167 0.542361 -0.010450 0.126029 -0.140818 -0.508939 0.085074 0.296491 -0.365851 0.314500 0.071673 0.292310 0.124714 0.222337 0.237043 0.036179 0.324023 -0.128608 0.221072 -0.121372 0.304573 -0.150860 -0.151642 0.100147 0.085042 0.495377 -0.060476 0.037849
nsubj:pass -0.403584 -0.501223 0.655598 0.065683 -0.282196 0.123176 0.141491 0.050210 -0.231153 0.320413 -0.064460 0.000160 -0.209971 -0.098783 0.123954 -0.045872 -0.066493 0.215260 0.650487 0.082349 -0.333561 0.000590 -0.165919 0.258705 -0.070476 0.038510 -0.235484 -0.049809 0.198043 -0.088769 -0.088159 0.371126 -0.227789 -0.369504 0.358490 0.081439 0.385158 -0.245568 0.067277 -0.170352 -0.255093 -0.198378 -0.285594 -0.142752 0.062294 -0.026833 0.135366 0.550098 0.045820 0.099773 -0.379760 0.116209 0.089614 -0.027531 0.353471 -0.380537 -0.108543 0.096543 -0.278760 -0.181225 -0.469400 0.022401 -0.030413 0.061611 -0.146246 -0.284879 0.170365 -0.086344 -0.198737 0.046306 -0.502025 0.223860 0.058826 0.600431 -0.008806 0.086237 -0.170696 -0.558511 0.111934 0.252224 -0.341404 0.252599 0.090804 0.282428 0.147535 0.286358 0.303543 0.042281 0.321450 -0.209817 0.137991 -0.144685 0.290300 -0.132768 -0.201581 0.168677 0.070965 0.440338 -0.099236 0.052529
compound:prt -0.018762 -0.096026 0.290079 -0.130593 -0.221801 0.029716 -0.099469 -0.172222 0.248853 -0.134612 0.111652 -0.138799 0.112405 -0.044855 0.056524 0.064673 -0.214939 0.038189 0.145702 -0.111587 0.075928 0.198035 0.036598 -0.125810 -0.044085 -0.235633 -0.102614 -0.011057 0.015174 0.152797 -0.285677 -0.204385 0.092254 -0.069137 0.554338 0.061528 0.141741 -0.057828 -0.282903 0.106662 -0.269205 0.045385 -0.093016 -0.309123 0.213841 0.169447 0.143983 0.060433 0.053292 0.052015 0.035238 0.112102 -0.137000 -0.182176 0.043157 0.079119 -0.006626 0.068053 -0.268174 -0.020395 0.066845 0.227674 0.087691 0.038091 -0.221947 0.048165 0.149663 -0.415286 -0.332817 -0.132840 0.138213 0.143549 -0.127504 -0.142863 0.129101 0.163900 0.089824 -0.001170 0.280642 0.178009 0.012768 0.125710 -0.067077 0.006419 -0.086970 0.025357 0.062895 -0.081653 -0.025435 0.218998 0.462231 0.062600 0.136422 -0.029123 0.128562 -0.180448 0.036583 0.180903 -0.139324 -0.250240
discourse 0.242082 0.162243 -0.137339 0.207286 0.202818 -0.112406 -0.628590 0.117294 0.103746 0.094904 -0.295476 0.075261 0.373253 0.158711 -0.079749 -0.377188 0.233612 -0.031129 -0.235779 0.137927 0.292015 -0.027568 0.178138 -0.463943 -0.092619 0.298256 0.130927 0.261287 -0.323485 0.085066 -0.089464 -0.270811 0.207790 -0.176562 0.224775 0.274264 -0.253960 0.209607 0.071499 0.266904 0.035283 0.349107 0.038523 -0.382227 -0.672538 0.297897 -0.243279 0.159419 -0.554699 0.115948 0.295393 0.233161 -0.082161 -0.212985 0.021708 0.472561 -0.096042 0.145352 -0.145479 -0.126697 0.475116 0.274402 0.006117 0.220751 0.188548 0.444844 -0.228170 -0.177907 0.352797 0.423174 0.631834 -0.020738 -0.082086 0.010049 -0.016040 0.255634 0.150823 0.373599 -0.102059 0.103981 -0.313785 -0.141261 0.326894 -0.440527 0.025477 0.092489 -0.283502 -0.030591 0.002152 0.066336 0.562916 -0.111707 0.120880 0.217423 0.142668 -0.389035 -0.054094 -0.011573 0.118748 0.053717
expl 0.292626 -0.031617 0.290509 0.083851 -0.355248 -0.270441 -0.238026 -0.227392 0.235968 -0.254983 -0.159155 -0.122472 0.062033 -0.044489 0.071071 0.339477 -0.040379 -0.128021 0.340753 0.136585 0.112949 0.123927 0.072927 -0.280950 -0.089231 -0.040384 0.037981 0.244430 -0.251670 0.087206 -0.372763 -0.509321 0.211771 -0.343150 0.382448 0.009445 0.118595 0.058156 -0.376896 0.190933 -0.223491 0.270932 -0.296952 -0.547434 -0.029865 0.169421 -0.157446 0.254926 0.026647 -0.010274 -0.193613 -0.150847 -0.118790 -0.284251 0.166825 0.035570 0.038632 0.451308 -0.337269 0.209355 0.165164 0.184167 -0.008129 0.026564 0.001283 0.186021 0.019849 -0.484763 -0.454823 -0.077224 0.245530 0.015532 -0.071527 -0.082520 -0.125770 -0.164547 0.230160 -0.094404 0.319320 0.147434 -0.191970 -0.035524 -0.043570 -0.084159 -0.005417 0.176602 0.013637 -0.017971 0.052172 0.243711 0.615208 0.020675 -0.163867 0.091004 -0.246428 -0.364275 -0.227090 0.329815 -0.323056 -0.254936
obl:tmod 0.048070 -0.021497 0.140499 0.138916 0.061586 -0.043998 -0.023865 0.181938 0.106973 -0.043075 -0.040661 -0.117307 -0.023482 0.165487 0.057366 -0.059096 0.163039 0.024231 0.113287 -0.051830 -0.045983 0.153691 0.024878 0.007916 -0.036551 -0.030728 -0.083329 -0.088538 -0.071313 0.167260 -0.132808 -0.227948 0.041209 -0.039418 0.223223 0.351312 -0.099008 0.052837 -0.027531 0.090082 0.010978 0.361421 -0.085587 0.060906 0.053935 -0.197727 -0.146979 0.221788 -0.040554 0.107695 -0.014278 0.116782 -0.148288 -0.210120 0.067943 0.100078 0.173781 0.115801 -0.037014 0.011494 -0.150955 -0.089657 -0.085704 -0.013266 -0.178372 0.023462 0.006798 -0.162020 -0.250728 0.208018 0.158417 0.172487 0.138066 0.122069 0.008515 -0.097792 0.197854 -0.080742 0.051828 0.038141 0.028978 0.086218 0.030403 -0.042760 -0.188700 0.126999 -0.050924 0.076314 -0.031967 0.088632 0.181249 0.030008 0.018808 0.024375 -0.176068 -0.048801 -0.093876 0.022563 -0.316800 -0.064954
fixed -0.640836 -0.327000 0.078679 -0.043817 -0.456692 -0.361058 -0.392437 -0.348684 0.097705 0.110273 -0.189813 -0.003922 0.366226 -0.196204 -0.092204 -0.596338 -0.268732 0.326645 0.278129 0.170583 0.029914 -0.868433 0.018200 -0.578665 -0.367263 0.210747 -0.424663 -0.010941 -0.338452 -0.415696 -0.238790 -0.735960 -0.054037 0.038240 0.079154 -0.029599 0.379653 0.161868 -0.463148 0.284918 -0.559098 -0.021594 -0.065003 -0.114847 -0.631420 0.013421 0.024183 0.574072 0.355175 -0.066660 -0.109581 -0.291739 0.462438 -0.400269 0.030400 0.422463 0.046232 0.275206 -0.586718 0.268166 0.484964 0.077546 0.039916 0.219345 -0.438725 0.431890 -0.153494 -0.015565 0.022717 0.054357 -0.079021 0.270083 -0.220671 0.042207 -0.278339 0.561980 -0.137997 -0.228198 0.351793 0.412769 -0.063202 -0.054028 -0.052142 -0.080286 0.351760 0.540329 0.425667 -0.247461 0.176435 -0.116855 0.609512 -0.074529 0.150729 0.193357 0.087993 0.220950 -0.180498 0.411678 -0.480071 -0.350900
list 0.150363 -0.047455 -0.401904 0.263426 0.249055 0.344552 -0.261692 -0.225217 -0.250815 0.330158 -0.226558 -0.254453 -0.167712 0.462791 -0.079435 -0.482219 0.029546 0.384566 -0.286337 0.590261 0.373854 0.325115 -0.208148 -0.198879 -0.244996 0.809480 0.516395 0.292023 -0.515211 -0.105967 0.121306 0.847046 -0.132568 0.474347 -0.370789 -0.020200 -0.146267 0.334420 0.765623 -0.083388 0.217781 -0.358181 0.160133 0.006365 -0.317842 0.423272 -0.498048 -0.362021 -0.663048 0.056328 0.267057 0.339755 0.654439 0.167599 -0.131123 0.065049 0.005865 0.200428 0.057146 -0.313793 0.129768 0.304030 0.541457 0.501192 0.574384 -0.504246 -0.066216 0.920545 0.919597 -0.252158 -0.189502 -0.748013 0.161573 0.665043 0.380572 0.045024 -0.668568 0.164959 -0.394284 -0.515656 0.088687 -0.198650 0.697408 -0.177643 0.648779 -0.216481 0.138481 0.251858 0.083369 -0.776782 -0.343613 0.061732 0.524212 0.069326 0.210239 -0.127083 0.507678 -0.699684 0.565283 0.776846
obl:npmod -0.010789 -0.101397 -0.141814 0.251649 -0.339787 0.036254 0.005601 -0.032132 0.436075 -0.095521 0.136872 -0.092413 0.326275 -0.218601 -0.081279 -0.186218 -0.108359 -0.032510 0.041343 -0.378974 0.086753 -0.187614 0.078122 -0.103740 -0.193761 -0.322369 -0.294236 -0.096651 -0.174012 0.176163 -0.197093 -0.463395 0.318527 0.266519 0.083711 0.314308 0.014374 0.119379 -0.338920 0.099169 -0.152158 0.287397 -0.162541 0.146737 0.062126 -0.193097 -0.027392 0.018974 0.246140 -0.015272 0.079614 -0.106317 -0.046980 -0.391307 -0.114759 0.427548 0.202476 0.194463 -0.228237 0.184402 0.077603 0.319403 0.142158 0.213680 -0.157644 0.156656 0.234458 -0.026414 0.004279 -0.087288 0.195971 0.213713 -0.111287 -0.117143 0.236217 0.082329 -0.152231 -0.306814 0.444961 0.169386 -0.030196 -0.158338 -0.035547 0.112551 -0.137148 0.135113 0.020525 -0.062276 0.184720 -0.022131 0.303331 0.291329 -0.044194 -0.047498 0.380637 0.196183 -0.129690 -0.131496 -0.488436 -0.386090
iobj -0.016543 0.212570 0.185484 -0.259899 0.161473 -0.076309 -0.275181 -0.065549 0.116879 -0.201131 0.195767 -0.122024 0.256357 0.218334 0.072537 -0.008964 -0.109830 0.096142 -0.226134 -0.124349 0.152082 0.139837 0.080558 -0.158277 0.001010 -0.172758 0.005837 0.001829 -0.056107 0.091902 -0.217941 -0.271505 0.045120 0.110224 0.419614 0.160351 0.064240 -0.006124 -0.087730 0.171168 -0.181172 0.094601 0.185468 -0.172405 0.123223 0.131618 0.163878 -0.065356 -0.071344 0.092575 0.255492 0.184347 -0.187482 -0.117084 -0.105873 0.279920 0.031202 -0.117335 -0.074451 -0.045350 0.247983 -0.023404 0.118973 -0.042559 -0.295149 0.133203 0.038755 -0.250472 -0.243542 -0.018695 0.271124 0.174292 -0.066278 -0.172287 0.055206 0.270328 0.288398 0.331732 0.091442 0.085012 0.379602 0.129438 -0.108033 -0.139408 -0.220994 -0.112329 0.081117 -0.044698 -0.267133 0.226149 0.350781 -0.136374 0.063797 0.044314 0.057226 -0.169694 0.020352 0.014985 -0.062023 -0.273146
nmod:tmod 0.229832 -0.101668 -0.506855 -0.085917 0.487654 -0.102382 0.083136 0.349009 -0.182816 0.285519 -0.327015 0.356967 -0.037381 0.210150 -0.308192 -0.836098 0.474849 0.002449 -0.147665 0.536239 0.024006 -0.074123 0.158086 -0.181798 0.057319 0.492818 0.193209 0.054094 0.111123 0.074530 0.352326 0.061872 0.090722 -0.085102 -0.570940 0.257524 -0.408247 0.321112 0.403115 0.149576 0.155019 0.646543 0.120898 0.454427 -0.611294 -0.310231 -0.414701 0.122242 -0.191689 0.149871 0.383367 0.137705 0.030026 0.105810 0.244676 -0.239559 0.097670 0.182946 0.127210 0.131811 -0.004632 -0.324920 -0.144108 -0.006796 0.283413 -0.085119 -0.596799 0.147845 0.199478 0.501923 0.252482 -0.144735 0.018583 0.069568 -0.100518 -0.176359 -0.021045 0.192368 -0.459719 -0.378491 -0.300808 0.205547 0.410822 -0.145980 0.148403 0.277952 -0.093780 0.152737 -0.021893 -0.085158 -0.320557 0.018836 0.342628 0.100988 -0.299340 0.233353 -0.233331 -0.197964 0.209694 0.591072
csubj 0.228735 -0.013690 0.288689 -0.113953 -0.271415 -0.207211 -0.099650 -0.170787 0.296196 -0.274949 -0.065870 -0.068115 0.048558 -0.072346 0.003357 0.223129 -0.082278 -0.151164 0.259985 0.099090 0.093191 0.187373 0.115091 -0.277844 0.031288 -0.127809 -0.011772 0.072468 -0.073903 0.134258 -0.326563 -0.569645 0.150769 -0.343455 0.397760 -0.007262 -0.028424 0.048899 -0.419012 0.196349 -0.208378 0.410392 -0.214217 -0.393626 0.092705 0.083316 -0.068095 0.182922 0.127396 -0.027051 -0.070116 -0.056554 -0.230559 -0.262447 0.141571 -0.047924 0.057057 0.278970 -0.243681 0.267149 0.103488 0.117627 -0.098410 -0.144080 -0.126644 0.238541 -0.061793 -0.654447 -0.599078 -0.003103 0.318246 0.126927 -0.132904 -0.275276 -0.148833 -0.074220 0.312082 0.056184 0.229008 0.124421 -0.139267 0.135000 -0.141077 -0.115549 -0.095368 0.124977 -0.077018 -0.063061 -0.027979 0.413624 0.541604 0.121217 -0.076601 0.076235 -0.207459 -0.306514 -0.202686 0.362983 -0.301393 -0.260458
goeswith 0.720240 0.148987 -0.708230 -0.392632 0.199747 0.354708 0.504022 0.162205 0.000157 0.080914 0.003756 0.744713 -0.075306 -0.623001 -0.378743 -0.034995 0.065509 -0.665255 -0.441324 -0.040291 0.084708 0.323933 0.237954 0.208711 0.420213 -0.168705 0.506234 0.219489 0.561133 0.391454 0.528587 0.941179 0.300342 -0.195183 -0.639000 -0.567396 -0.603986 -0.086550 0.270242 -0.335153 0.468624 -0.019084 0.056160 0.159821 0.040743 0.172139 0.257072 -0.948451 -0.095037 -0.133513 0.458702 0.113181 -0.404537 0.522181 -0.003668 -0.722079 -0.432337 -0.209111 0.525771 -0.005905 -0.006885 0.284090 0.016876 -0.183247 0.937312 -0.315312 -0.208368 -0.017034 0.393969 -0.132610 0.278543 -0.489645 -0.455754 -0.695957 0.233459 -0.365887 -0.447442 0.368034 -0.510171 -0.453202 -0.506424 -0.026411 0.241535 0.194906 0.201491 -0.505740 -0.539642 -0.045281 0.156858 0.106527 -0.780466 0.298423 0.016249 -0.328271 0.463086 0.024408 0.101575 -0.463890 1.063274 0.586113
det:predet 0.031015 0.177162 0.198408 -0.108868 0.063395 -0.097015 0.066913 0.077456 0.152322 -0.342675 0.145282 -0.070601 -0.062130 0.023062 0.032952 0.510831 -0.004773 -0.162277 -0.028405 -0.347392 -0.063325 0.117194 0.047611 0.114579 0.099912 -0.351333 -0.167174 -0.147910 0.017625 0.080407 -0.192551 -0.342589 0.028247 -0.024065 0.286090 -0.060586 0.064159 -0.165787 -0.256663 0.003315 0.015149 0.016130 0.009524 0.007696 0.399636 -0.053382 0.127803 -0.084365 0.181196 -0.024602 -0.095871 -0.087615 -0.229418 -0.077799 -0.110338 0.077444 0.102842 -0.130191 0.088802 0.025972 -0.046018 -0.119128 -0.099683 -0.251583 -0.308123 0.126732 0.155273 -0.330572 -0.450867 -0.001330 0.067413 0.253978 0.058254 -0.209992 -0.058041 -0.088357 0.419052 0.092855 0.187660 0.078375 0.263634 0.046867 -0.340898 -0.037461 -0.400807 -0.087983 -0.014260 -0.088941 -0.165323 0.357005 0.087243 -0.040684 -0.247908 -0.079011 -0.152169 -0.111588 -0.000431 0.176200 -0.245370 -0.369645
nmod:npmod 0.047175 -0.132261 -0.398455 0.192759 0.017597 -0.111835 0.248643 0.198271 0.135817 -0.028700 -0.058085 0.163496 -0.002573 0.004105 -0.330651 -0.460880 0.183498 -0.049029 0.051621 0.109353 0.006848 -0.239952 0.063446 -0.125760 -0.083085 0.081824 -0.191726 -0.149803 -0.037426 0.048346 0.155373 -0.389161 0.152716 0.280745 -0.605562 0.302675 -0.170847 0.323816 -0.019018 0.151203 0.050207 0.639124 -0.058757 0.610703 -0.176631 -0.498699 -0.364464 0.139085 0.273357 -0.000982 0.118474 -0.206459 0.113118 -0.209306 0.082654 0.027806 0.398767 0.356625 0.066508 0.378603 -0.034344 -0.111858 -0.010271 0.048955 -0.019864 -0.094881 -0.266212 0.193344 -0.020686 0.109934 0.047206 0.033001 0.028774 -0.005068 -0.017837 -0.251079 -0.143954 -0.220434 0.058176 -0.238512 -0.011112 0.026759 0.054754 0.044683 -0.010672 0.324169 0.128990 0.085805 0.071698 -0.135137 -0.211860 0.333276 0.051307 0.007239 -0.083390 0.456292 -0.354902 -0.253941 -0.396201 0.136121
vocative 0.287218 0.281720 -0.239840 0.148826 0.523381 -0.099321 -0.301692 0.374196 -0.143320 0.108070 -0.312543 0.149876 0.022981 0.283538 -0.003332 -0.161550 0.488467 -0.099237 -0.319610 0.155018 0.061401 0.087214 0.148246 -0.124111 0.112238 0.352434 0.198497 0.119485 -0.127721 0.073988 0.129277 -0.034073 0.040003 -0.206937 -0.091271 0.190571 -0.418343 0.118114 0.294193 0.100730 0.339263 0.313437 0.141552 -0.045305 -0.467544 0.015656 -0.274684 0.039019 -0.502497 0.094690 0.191918 0.178535 -0.164944 0.074241 0.004188 0.136823 -0.059953 -0.089421 0.224644 -0.137102 0.126570 -0.164766 -0.271136 -0.035304 0.251696 0.298245 -0.290722 -0.014350 0.269323 0.590428 0.461095 -0.070486 0.158078 0.032541 -0.144247 -0.056080 0.337236 0.434783 -0.401013 -0.091792 -0.193145 -0.076442 0.239016 -0.388914 -0.102024 -0.033461 -0.416539 0.081581 -0.119770 0.115196 -0.007990 -0.218906 -0.058401 0.147816 -0.192387 -0.300450 -0.014309 -0.048122 0.247155 0.233570
cc:preconj -0.228336 -0.128970 0.255347 0.165106 -0.283803 -0.159972 -0.171846 -0.244235 -0.051142 -0.028556 0.024758 -0.240608 0.161092 0.048894 0.187099 0.099665 -0.146605 0.248586 0.218040 -0.048557 -0.057133 -0.189542 -0.067343 0.018233 -0.271803 -0.106309 -0.150861 0.144155 -0.207758 -0.105833 -0.210323 -0.093373 0.040642 0.116723 0.196230 0.085396 0.539303 -0.043076 -0.136340 0.049312 -0.376342 -0.317052 -0.089730 -0.244610 0.000020 0.069755 0.069386 0.286166 0.071355 0.081095 -0.226361 -0.165536 0.176183 -0.130273 0.014615 0.206451 0.028895 0.209310 -0.364424 -0.052208 0.053721 0.024373 0.210859 0.308671 -0.162992 -0.109986 0.289055 0.190934 -0.075266 -0.306856 -0.245236 0.104685 0.055321 0.294562 0.059319 0.068550 -0.099680 -0.369606 0.433581 0.222408 0.129983 -0.149438 -0.029703 0.178116 0.061879 0.177690 0.427259 -0.002459 0.062353 -0.235466 0.314584 -0.229356 -0.060609 -0.026767 -0.040978 0.049249 -0.112973 0.144505 -0.311691 -0.355133
reparandum 0.192765 0.468685 0.045962 -0.347932 0.370917 0.184187 0.416291 0.466119 -0.014860 -0.174841 0.199171 0.362004 -0.285080 -0.301533 -0.004655 0.585793 0.112622 -0.554843 -0.308968 -0.439804 -0.203495 0.309900 0.121123 0.353707 0.644247 -0.358758 0.054077 -0.345980 0.557333 0.183405 0.266465 0.129072 -0.223637 -0.368602 -0.057279 -0.319319 -0.711451 -0.333839 -0.022966 -0.285197 0.623116 0.169708 0.128436 0.211354 0.515683 -0.162802 0.401114 -0.467507 0.092031 -0.224751 0.035827 0.131590 -0.677702 0.277922 -0.171201 -0.401815 -0.205487 -0.737900 0.799225 0.025565 -0.280625 -0.234217 -0.580037 -0.802183 0.041596 0.325517 -0.121025 -0.561841 -0.278650 0.385246 0.312659 0.220177 -0.021342 -0.675054 -0.277089 -0.085839 0.488146 0.597055 -0.572399 -0.018935 -0.009100 0.201575 -0.443574 -0.125060 -0.440498 -0.549302 -0.803401 -0.109990 -0.182327 0.654253 -0.491225 0.104937 -0.404410 -0.128667 0.032745 -0.191557 0.134944 0.121933 0.413364 0.031922
orphan -0.084693 0.568735 -0.341358 -0.015197 0.116823 0.212045 0.541862 0.232527 -0.145965 -0.014565 0.289327 0.116699 -0.232034 -0.480836 0.262919 0.707477 -0.033543 -0.434391 -0.506831 -0.580504 -0.296199 -0.146529 -0.050315 0.636878 0.514189 -0.374406 0.101020 -0.417360 0.576446 -0.128996 0.600832 0.347945 -0.370346 0.002520 -0.579877 -0.573002 -0.559436 -0.317463 -0.025176 -0.417078 0.706350 -0.512482 0.257502 0.338849 0.436260 -0.244101 0.519481 -0.562399 0.230018 -0.348726 -0.231527 -0.187224 -0.393585 0.538452 -0.453565 -0.180943 -0.299561 -1.013314 0.899482 -0.024758 -0.314159 -0.355656 -0.614984 -0.601441 0.113675 0.375805 0.094263 0.130882 0.287227 0.042729 -0.108179 0.031352 0.091683 -0.698124 -0.339139 -0.103018 0.121122 0.335371 -0.551502 0.090475 0.115518 -0.277424 -0.620846 0.052730 -0.286779 -0.663028 -0.845660 -0.127865 -0.191109 0.269460 -0.915341 0.132175 -0.817393 0.008714 0.292959 -0.026059 0.092312 -0.122349 0.372385 -0.100509
_ -0.251558 0.529985 -0.311230 -0.039418 0.096404 0.221906 0.587684 0.183700 -0.194624 0.043430 0.342408 0.053423 -0.221324 -0.460867 0.324588 0.607100 -0.091644 -0.320011 -0.506230 -0.564462 -0.347180 -0.217021 -0.094178 0.679996 0.501148 -0.376520 0.071408 -0.500365 0.645655 -0.190733 0.644670 0.376505 -0.460340 0.081804 -0.616410 -0.551565 -0.505969 -0.312481 -0.009929 -0.417657 0.642752 -0.582097 0.318675 0.411099 0.465593 -0.311234 0.582316 -0.498359 0.292583 -0.340475 -0.247920 -0.177276 -0.340765 0.570190 -0.467468 -0.168391 -0.295880 -1.093877 0.890702 -0.031743 -0.369289 -0.447377 -0.615038 -0.597531 0.013191 0.354344 0.109658 0.220773 0.291271 -0.001390 -0.215911 0.075700 0.118435 -0.675409 -0.358004 -0.024629 0.072052 0.290418 -0.560555 0.125140 0.198984 -0.243082 -0.663455 0.099239 -0.257255 -0.645806 -0.789692 -0.129572 -0.228421 0.205158 -0.964314 0.125346 -0.783905 0.043124 0.300430 0.060111 0.083238 -0.112590 0.321950 -0.126357
flat:foreign 0.065352 0.470290 -0.651915 -0.454499 0.744898 0.390895 0.872675 0.450376 -0.367157 0.160502 0.336007 0.410474 -0.455089 -0.043722 -0.300089 0.089978 0.129827 -0.336613 -0.696776 0.003613 -0.172557 0.081435 -0.076642 0.554238 0.721917 -0.063591 0.249118 -0.577983 0.867837 -0.248456 0.998170 0.598851 -0.458212 0.057383 -1.125258 -0.509668 -0.816378 -0.093217 0.529916 -0.398675 0.907797 -0.038219 0.511776 1.076097 0.364728 -0.438420 0.153385 -0.751840 0.174057 -0.317723 0.211975 0.048589 -0.095101 0.800819 -0.231460 -0.615069 -0.080111 -1.054815 1.121010 0.105759 -0.474353 -0.569654 -0.476766 -0.815915 0.265395 0.014389 -0.478500 0.234969 0.353617 0.299731 -0.217104 -0.197432 0.046324 -0.581926 -0.280356 -0.183786 0.071303 0.571792 -0.952045 -0.575306 0.177365 0.246541 -0.400343 -0.124529 -0.202024 -0.554318 -0.684538 -0.012370 -0.374673 0.269021 -1.510330 0.286937 -0.201843 0.032449 -0.014928 0.471021 0.200053 -0.454445 0.753002 0.687948
dep 0.322603 0.138853 -0.393761 0.104601 0.160405 0.157402 0.222996 0.229227 -0.015638 0.081743 -0.091435 0.276639 -0.100495 -0.176405 -0.161548 -0.060847 0.192027 -0.285551 -0.233318 -0.025704 0.002106 0.119569 0.076704 0.126878 0.172650 0.080700 0.200445 0.012678 0.119783 0.147131 0.290516 0.354278 0.057800 -0.007047 -0.477247 -0.106722 -0.473301 0.063156 0.215742 -0.154544 0.393804 0.161641 0.014789 0.244256 -0.068022 -0.088351 -0.077729 -0.322878 -0.115768 -0.071411 0.154645 0.048279 -0.157317 0.172041 -0.066959 -0.222823 -0.075327 -0.081482 0.383118 0.027327 -0.118726 0.059289 -0.090817 -0.088485 0.419941 -0.063907 -0.130828 0.163219 0.292493 0.087384 0.151109 -0.202197 -0.033166 -0.149716 0.022477 -0.263694 -0.177410 0.134450 -0.360025 -0.240191 -0.229991 -0.100123 0.145015 -0.010042 0.045845 -0.223938 -0.378596 0.057464 0.108610 -0.055099 -0.453144 0.196000 -0.092974 -0.079938 0.146130 0.018568 0.018608 -0.280725 0.317144 0.309316
csubj:pass -0.225667 -0.026389 0.367569 -0.395990 0.035169 0.163082 0.254029 0.046681 -0.180069 0.109719 0.193560 0.052749 -0.225905 -0.072506 0.123984 0.115482 -0.159487 0.024872 0.117923 0.041983 -0.201863 0.159344 -0.088603 0.243394 0.289940 -0.071140 0.046024 -0.240197 0.426769 -0.083994 0.107922 0.286839 -0.360368 -0.266186 0.150676 -0.176799 -0.119079 -0.228374 0.042594 -0.162624 0.053418 -0.086619 0.051868 0.030563 0.317831 -0.058235 0.329919 0.000567 0.158819 -0.099336 -0.085735 0.188447 -0.174949 0.216946 0.076491 -0.456949 -0.183068 -0.394077 0.197938 -0.022131 -0.311186 -0.217030 -0.258651 -0.408246 -0.179140 -0.049537 -0.077358 -0.266909 -0.282796 0.070533 -0.216153 0.110929 -0.045817 -0.095629 -0.176485 0.109540 0.113392 0.099613 -0.300232 0.072384 0.061237 0.346872 -0.218260 0.113939 -0.026391 -0.167804 -0.123118 -0.021811 -0.089033 0.195995 -0.221787 -0.012199 0.072982 -0.038227 -0.082055 0.055216 0.141793 0.223535 0.213732 0.119471
dislocated 0.029187 0.117423 -0.118178 -0.138685 0.287494 0.310872 0.485117 0.329591 -0.285097 0.251583 0.066455 0.281760 -0.352661 -0.186964 -0.025234 0.074446 0.107830 -0.224777 -0.163217 -0.004702 -0.235291 0.172058 -0.070644 0.434817 0.399561 0.050232 0.181987 -0.240659 0.505382 -0.023602 0.487309 0.669868 -0.326028 -0.210754 -0.430824 -0.272038 -0.486616 -0.174945 0.370547 -0.348982 0.529931 -0.074768 0.105030 0.379731 0.185339 -0.174422 0.168985 -0.287891 -0.041690 -0.153000 -0.002818 0.175695 -0.186632 0.427393 -0.020126 -0.551641 -0.205176 -0.519383 0.613021 -0.081047 -0.448401 -0.222440 -0.344184 -0.408180 0.288945 -0.107842 -0.160524 0.103483 0.209446 0.210388 -0.176921 -0.100162 0.050521 -0.099085 -0.141742 -0.143009 -0.078600 0.177107 -0.630174 -0.190626 -0.168494 0.133636 -0.074334 0.046111 0.014655 -0.320483 -0.452379 0.043608 0.007466 0.027968 -0.787131 0.105835 -0.060960 -0.082801 0.012941 0.137451 0.182076 -0.117348 0.529639 0.454911
