NOUN -0.201011 0.062308 0.674411 -0.407266 0.165657 0.675793 0.236823 0.324083 -0.471974 -0.527278 0.604372 -0.013201 -0.909877 -0.079802 -0.419492 -0.131624 0.019211 -0.597097 0.416524 -0.983821 0.504374 0.217770 -0.170266 0.129267 0.209953
VERB -0.232797 0.085032 0.686654 -0.553817 0.246392 0.788203 0.094366 0.375711 -0.472998 -0.605483 0.635734 -0.016638 -0.967592 -0.068713 -0.399219 -0.056751 -0.143252 -0.605249 0.251538 -1.109911 0.475998 0.213567 -0.331489 0.144385 0.111104
PRON -0.225917 0.074829 0.679597 -0.603210 0.312615 0.796463 0.045413 0.430503 -0.462917 -0.576460 0.628978 -0.036327 -0.927603 -0.061839 -0.403350 -0.060003 -0.183985 -0.610232 0.207689 -1.081911 0.465036 0.169113 -0.358529 0.138282 0.107726
ADP -0.182094 0.097491 0.702292 -0.370601 0.145647 0.641630 0.233300 0.264688 -0.440691 -0.543232 0.606519 0.036403 -0.933337 -0.124862 -0.376996 -0.114992 0.051269 -0.555194 0.402703 -1.001716 0.507948 0.277827 -0.183644 0.117822 0.139808
DET -0.204893 0.104966 0.730891 -0.454486 0.192793 0.728596 0.211044 0.329131 -0.499265 -0.592340 0.668094 0.006690 -1.013551 -0.091152 -0.430916 -0.113194 0.007847 -0.627626 0.383655 -1.126002 0.545324 0.269676 -0.237851 0.144740 0.149006
PUNCT -0.132498 0.009484 0.357562 -0.294445 0.134989 0.399487 0.129921 0.273144 -0.305437 -0.286290 0.340241 -0.023430 -0.497602 -0.026142 -0.258143 -0.074254 -0.025223 -0.396683 0.244014 -0.538670 0.285680 0.085522 -0.090149 0.091517 0.169909
PROPN -0.150942 0.081711 0.416842 -0.204671 0.048457 0.379612 0.258650 0.181002 -0.368886 -0.372814 0.425055 0.040394 -0.648162 -0.083651 -0.257852 -0.083847 0.122626 -0.433327 0.356158 -0.708650 0.389263 0.182192 -0.056261 0.086878 0.180785
ADJ -0.198683 0.150087 0.728331 -0.476562 0.179692 0.759949 0.199601 0.305603 -0.506692 -0.611369 0.691316 -0.013520 -1.043217 -0.099335 -0.423843 -0.098684 -0.016614 -0.660864 0.349478 -1.132378 0.536355 0.281392 -0.252638 0.157859 0.080158
AUX -0.218184 0.092934 0.687936 -0.540172 0.261012 0.777436 0.099128 0.364305 -0.469019 -0.598163 0.638845 -0.051342 -0.945661 -0.047451 -0.408425 -0.074945 -0.130494 -0.587720 0.249248 -1.121942 0.476102 0.217717 -0.340676 0.155220 0.068314
ADV -0.199411 0.123442 0.675436 -0.531641 0.242926 0.778290 0.107751 0.347907 -0.454730 -0.561766 0.609467 0.003457 -0.944537 -0.108694 -0.380630 -0.094975 -0.111222 -0.584081 0.242431 -1.104302 0.469198 0.236909 -0.342222 0.115446 0.053295
CCONJ -0.197087 0.114981 0.687822 -0.468422 0.191440 0.691336 0.176339 0.326425 -0.468281 -0.573145 0.637373 0.001966 -0.942830 -0.098392 -0.382311 -0.092495 -0.019773 -0.590189 0.307893 -1.075388 0.505163 0.244492 -0.255746 0.137225 0.102191
PART -0.231112 0.096824 0.697701 -0.523609 0.232770 0.779895 0.099892 0.338431 -0.465573 -0.622331 0.647302 -0.039564 -0.971778 -0.050471 -0.410795 -0.054979 -0.130820 -0.585592 0.243415 -1.159954 0.485315 0.237905 -0.333093 0.157075 0.071779
NUM 0.035500 0.028104 0.145051 0.187639 -0.120591 -0.010825 0.164329 -0.137901 0.004730 -0.001033 -0.000251 0.089952 -0.105699 -0.089165 -0.043969 -0.056205 0.204697 0.012563 0.232754 -0.080839 0.086778 0.164107 0.077340 -0.032023 0.018937
SCONJ -0.226762 0.138627 0.650112 -0.580808 0.259743 0.832058 0.092486 0.344087 -0.469889 -0.605351 0.683385 -0.058321 -0.990582 -0.062178 -0.392734 -0.085101 -0.165016 -0.669838 0.201039 -1.115915 0.481221 0.188318 -0.344510 0.179957 0.096012
X 0.021583 -0.189204 -0.549933 0.162742 -0.162216 -0.249505 0.198449 0.049892 0.048602 0.261163 -0.127022 -0.328608 0.437778 0.237323 0.020824 -0.135588 0.002784 -0.105517 0.052488 0.654573 -0.199588 -0.415871 0.486756 0.217063 0.397654
INTJ -0.097060 -0.027986 0.211787 -0.354574 0.277467 0.209347 -0.207905 0.300495 -0.161107 -0.144943 0.089834 0.114687 -0.188547 -0.041086 -0.073374 0.113773 -0.207444 -0.075624 -0.066074 -0.247564 0.075391 0.005672 -0.299699 -0.093316 -0.011223
SYM 0.110626 0.046377 0.109036 0.305910 -0.134654 -0.195017 -0.008346 -0.265297 0.197592 0.139892 -0.245023 0.233324 0.141265 -0.158597 0.121793 0.047853 0.195771 0.355088 0.097641 0.111999 -0.065349 0.251148 -0.053104 -0.203621 -0.200629
<unk> -0.148867 0.064118 0.487737 -0.335764 0.145538 0.516632 0.125367 0.244248 -0.339208 -0.401232 0.443189 -0.003181 -0.673620 -0.062012 -0.289378 -0.068589 -0.031155 -0.430423 0.245447 -0.754258 0.354365 0.166321 -0.181517 0.096693 0.102634
