. -0.036583 -0.625398 0.614913 0.951228 -0.431118 0.959535 0.236313 -0.307495 0.304482 0.844037 0.238627 -0.524837 -0.165526 -0.797216 -1.170663 0.892999 -0.165795 1.615659 -1.323243 -0.193872 -0.028826 -0.261217 -0.541439 -0.363769 0.527174 0.498201 -0.393399 -0.527116 -0.165498 -0.436029 -0.480491 0.151326 -0.638653 0.589094 0.045010 -0.086630 0.105237 1.229963 0.859272 0.044603 -1.448123 -0.215722 0.000811 -0.470571 -0.686357 1.476763 -0.390985 -0.005304 -1.362973 0.679135
the 0.653413 0.121512 0.336908 1.748574 0.322298 0.177300 -0.754521 0.669921 -0.769004 -0.277659 0.379774 -0.495880 0.245260 1.142573 -0.089846 0.537574 -1.861945 0.562178 -0.979624 -0.366675 -0.063082 -0.324749 -0.875974 0.012802 1.126525 0.439812 -0.675306 -0.330906 -0.050944 -0.367854 -1.360441 0.865514 -2.100288 0.124753 0.678110 0.271955 0.147864 0.459852 0.290143 0.068895 -1.380792 -1.047616 -0.157166 0.238341 -0.189332 0.097650 -0.139866 -0.381396 -0.805803 -0.477759
" 0.693584 0.903135 -0.346021 1.010229 -0.067042 1.471910 1.210852 0.198558 -0.070156 0.810404 0.186139 -0.699578 1.931162 -0.205516 -0.529951 -0.039963 -1.554122 0.689812 -0.599055 0.316431 0.449356 0.094617 -0.028809 -1.133552 1.006919 0.591447 -0.452692 -0.208816 -0.050185 1.448166 -1.232384 -0.538637 -0.590664 0.682017 -0.187957 0.839268 -0.007894 1.111295 -0.199966 0.317218 -2.731628 -0.857091 0.407792 0.613315 -0.520232 0.163896 -0.053993 -0.941843 0.126303 0.815906
to 1.281278 0.383572 0.400018 1.609536 -0.760974 0.319710 -0.812566 0.185690 0.561761 -0.933519 -0.210848 -0.013990 0.129364 -0.415308 -0.927438 0.320755 -1.359376 0.318002 -1.878045 -0.391660 -0.223874 -1.617221 -0.163268 0.189175 0.694834 0.164149 -0.038511 -0.711775 -1.709379 0.481676 -0.637608 -0.555438 -0.862925 0.211929 -0.729410 -1.355351 -0.556628 1.098073 1.405600 -0.588791 -0.881450 -0.985459 -1.052859 0.658384 -0.418359 0.607321 -1.007613 -1.857779 0.358331 -0.017334
and -0.242409 0.528628 1.010160 0.787027 0.162323 0.922940 0.034904 0.517713 0.605897 -0.265857 0.969210 -0.699218 -0.544748 -1.147778 -0.841039 -0.279228 -1.666999 0.092536 -1.746494 0.223495 -1.211905 -0.474212 -1.026477 -0.028608 0.399697 0.701507 -0.005578 0.112817 0.489528 1.271155 -0.566253 0.086485 -1.362148 0.439105 -0.034462 0.133513 0.279273 1.196455 0.521928 0.381684 -1.367785 -0.655065 0.749496 0.329061 -0.994973 0.555829 -0.449629 0.383829 0.380774 -0.378708
a -0.015039 1.136999 -0.455310 1.718417 0.799681 -0.684231 -0.653395 0.221431 -0.674624 0.531385 -1.214845 -0.520152 -0.401684 -0.698207 0.181618 1.073260 -0.928785 0.758083 -0.961229 0.135860 -0.336889 -0.493119 0.329583 -0.035535 0.263702 0.680545 -0.162181 0.462504 -0.379644 0.376106 -0.350245 -0.690235 0.267540 1.155235 0.605854 0.535297 0.818083 1.830208 1.166146 -0.038737 -1.773898 -0.789750 0.117815 -1.220227 -0.335523 1.429204 -1.046552 -0.205535 0.926111 1.372428
of -0.983952 0.582117 1.612076 1.562414 -0.202931 -0.616260 0.095875 0.477292 -0.782089 0.344968 -0.128517 0.275337 0.806986 0.333022 0.387142 0.015934 -1.308767 1.005845 -0.376271 -0.632406 -0.101600 0.146056 -0.125173 -1.671811 1.072058 2.318690 -0.546502 -0.427530 0.070778 0.008461 -0.663193 0.378078 -0.988857 1.371420 0.630512 -0.475445 0.381480 1.264117 0.530221 0.998051 -1.076224 -0.913638 -0.428202 0.719177 -0.862576 1.557588 -0.292583 0.459479 0.521983 -0.929223
I -0.941046 0.943836 0.645714 0.581868 -0.404749 0.270191 -0.042978 0.509141 0.884099 0.928433 -0.101172 -0.750830 -0.298121 -0.622063 -0.297395 0.746539 -1.338386 0.184931 -1.569477 0.210824 0.212387 -0.540832 -1.394604 1.090886 1.012633 -0.532562 -0.506674 -0.942521 0.283885 0.757627 -1.557356 -0.722642 1.059846 -0.560657 0.577548 0.482323 0.978950 -0.030303 1.210902 0.084112 -0.074614 -0.918122 0.899060 0.365830 -1.442789 1.405239 -1.184396 -0.684142 -0.808377 0.497026
in 0.638550 0.052426 -1.122516 2.055205 0.589908 -0.291202 0.639641 -0.005196 -0.734859 0.392540 0.093371 -0.014807 0.314723 0.510209 -0.212162 -0.729146 -1.057100 0.137517 -1.822057 -0.764053 0.546050 -0.066753 -1.535218 -1.068158 -0.187865 0.431842 0.463298 -0.317655 0.882313 0.192711 -0.065137 -0.394509 -0.851329 0.868312 -0.837489 -0.607727 0.897976 -0.064014 1.001375 0.241038 -1.914201 -1.315552 -0.450998 -0.045002 -1.869600 1.383849 -0.304292 0.391072 -0.798941 0.337018
is 1.058380 0.332423 -0.429371 -0.140669 -0.620741 0.260575 0.213259 0.209194 -0.561298 -0.812115 -0.721255 -0.783929 0.044999 -0.096184 -0.021248 0.977594 -0.702464 1.252235 -1.151185 -0.586539 -0.782958 -0.772573 -0.945461 0.229264 1.292105 0.467014 0.308430 0.077070 0.659420 1.144231 -0.920468 0.431696 -0.208976 0.229793 0.123771 0.615319 -0.473344 1.386605 0.392174 0.326357 -1.372061 0.086278 -0.524243 -0.090972 -0.972523 0.940715 -1.233861 0.051943 -0.245068 0.715259
that -0.188727 0.859765 -0.012110 -0.234959 -0.175500 -0.582249 0.251469 0.199292 -0.487793 0.252006 0.106569 0.218688 0.015115 0.252812 0.099959 0.978766 -1.370464 1.410163 -0.882192 0.496176 -1.390509 0.239088 -0.800152 0.458612 1.291464 1.032587 0.809381 -0.196375 -0.243685 0.596113 -1.161800 -0.549036 -1.101088 0.987854 0.232903 -0.084515 -0.143388 0.165173 1.335262 -0.085605 -0.534240 0.412038 -0.506305 0.823334 -0.940421 1.107061 -1.266098 -0.359450 -0.457522 0.773511
you 0.976537 0.294414 0.755655 0.964238 0.350735 0.312190 -0.483568 -0.170817 -0.087694 0.548374 0.547932 -0.610443 0.048907 -0.027554 -0.182960 1.312716 -0.572685 1.130428 -1.248327 -0.225061 0.360187 0.029721 -0.227598 0.085035 0.847725 -0.011018 0.408794 -1.394073 0.103267 1.966926 0.282831 -0.322676 0.019538 -0.378821 1.596810 -0.488275 0.675576 -0.045734 0.927355 0.082189 -0.762891 -0.103219 0.436514 0.410138 -0.701298 1.837993 -0.768212 -1.082116 -0.333721 0.716913
for -0.126224 0.655255 0.005051 1.617842 0.250031 0.858887 0.560027 0.109053 -0.367795 -1.070973 0.534801 -1.595748 0.622751 -1.090818 -0.820751 0.928656 -1.265494 0.565679 -1.151676 -0.757197 0.117470 -0.437523 -0.877393 0.321324 0.526155 0.257457 0.234702 0.797288 -0.015675 0.395726 0.505665 -0.060798 0.441124 0.790454 1.380871 0.143081 1.273772 -0.132462 0.780513 -0.500279 -0.761602 -0.205463 -0.753312 -0.311550 -0.478278 0.322945 -1.273167 0.425178 0.222389 0.074768
it 0.777201 0.481844 0.617691 -0.344298 -0.025454 -0.025556 -0.304725 -0.167043 -0.176088 0.406252 0.169705 -1.211738 0.113170 0.166494 -0.052023 1.264101 -1.349567 0.756558 -1.277116 0.514727 -0.524064 -0.137765 -1.062188 0.897816 0.229254 0.400063 -0.210646 0.065472 -0.457978 0.798739 -0.991016 0.242605 -0.150502 -0.736515 0.227718 0.336674 0.604715 0.919446 -0.173689 0.663907 -1.920938 -0.247211 -0.018716 -0.384834 -0.374340 1.416640 -1.098820 -0.619445 -0.209718 0.300137
- 0.455362 1.015983 -0.486039 0.454940 -0.079041 1.555951 -0.296391 -1.446085 0.505751 1.197036 1.279956 1.540408 -0.399308 -1.038680 -0.687155 0.336844 -0.944164 0.949056 1.490735 -0.598929 -0.158783 -0.428743 -0.388525 -0.593315 0.509551 0.742743 -0.381022 -0.340892 0.423884 0.621991 -0.769877 0.028373 -1.627609 0.123076 1.059989 0.081317 0.299358 -0.251944 1.625002 0.768615 -1.736390 -2.013719 -0.786901 0.886620 -0.914927 1.381659 -1.381155 0.218129 0.311567 0.596551
have -0.058296 0.526386 0.194546 0.691005 0.568582 -0.830164 0.030584 0.711716 0.933960 0.242032 0.083690 -0.357851 -0.170793 -0.617165 -0.933099 0.055797 -0.676125 1.077784 -1.019756 0.500360 0.421134 -0.188228 -0.887976 0.188198 0.415132 0.380337 -0.556751 -0.792252 -0.292643 0.655967 -0.371839 0.048763 -0.787300 0.396500 0.664890 0.777168 0.777821 0.756281 1.082739 -0.413395 -0.682898 -0.673342 0.097964 -0.100563 -1.097786 0.725479 -1.062899 -1.256832 -0.470975 0.529617
"""" 0.363950 0.704507 -0.463883 0.866781 -0.043145 0.404530 -0.848487 0.092168 -0.238686 0.841201 -0.490282 -1.074519 0.939573 -1.143138 1.065477 0.009133 -0.895343 -0.718655 -0.934530 -1.599483 -0.326046 0.928460 0.184841 -1.057454 0.419531 1.341200 1.327138 0.108041 -0.252193 -0.002526 -0.271831 -0.185909 -1.662546 0.018365 0.951436 0.972993 -0.069711 -0.060670 1.198900 -0.152192 -1.558133 -0.402228 -1.240483 0.014094 0.121915 0.911763 -1.290868 -0.793352 -1.958165 -0.947259
was -0.018148 0.564215 0.035086 0.514620 0.529301 0.085536 -0.285438 0.292677 0.025038 0.565280 -0.915390 -0.412647 -0.063603 -0.531417 -0.362190 1.118335 -0.386989 -0.063500 -1.180452 0.055549 -0.084649 -0.143077 -1.749183 0.313038 0.459018 0.523016 -0.289977 0.339451 0.006763 0.212610 -2.069581 -0.331210 -0.275722 -0.059322 0.142274 -0.253478 -0.072088 -0.116695 1.208839 0.951365 -1.716907 -0.041450 -0.707906 -1.008614 -1.314038 0.015086 -0.354512 0.514360 -0.064723 -0.097502
on -0.392717 1.264468 0.673401 1.068954 1.278563 0.738826 0.402386 -0.919643 -0.592312 -0.699030 -0.376066 -0.823466 0.685896 0.027415 -1.410161 0.981797 -1.681050 0.257911 -0.205809 -1.265758 0.221632 -0.188081 -1.194004 -0.722663 0.811088 0.965185 0.771052 -0.038482 -0.015959 -0.565256 -0.881469 -0.218193 -0.960885 -0.799497 0.855519 -0.466580 -0.488637 -0.052247 0.587546 -1.218286 -0.831698 -0.375322 0.493537 -0.798929 -0.208686 1.137937 -1.012634 -1.211411 -0.094763 0.283999
with -0.021024 0.923438 0.671000 0.999885 0.493511 0.340426 -0.368886 -0.261050 0.355316 0.746218 -0.029032 -0.626482 -1.180014 0.110752 0.308786 0.260823 -1.111079 0.397902 -0.719386 0.241319 -0.221156 -0.147164 -1.603349 -0.400392 1.345766 -1.190622 -0.739842 0.744888 -1.347824 0.161849 -0.336828 -0.202488 -1.446936 0.689283 0.022433 0.137334 0.521153 0.934548 1.532317 -0.599276 -1.761439 -0.394268 0.263986 0.430235 -0.346641 0.421811 -0.335907 -0.300175 -0.130810 0.810772
be -0.390219 0.517939 0.320064 0.900496 0.768055 0.534138 -0.778148 -0.726725 0.093431 -0.136902 0.086297 -0.749543 0.493494 -0.173463 -0.633158 0.046968 0.200670 1.622049 -0.793909 0.044821 -0.812704 0.202980 -1.650507 1.038155 0.976581 0.709364 -0.247308 -1.052621 -0.032539 0.128606 -0.514499 0.521271 0.610772 -0.029074 -0.481108 -0.073111 0.073989 0.527194 0.695858 0.205331 -1.010961 0.067531 -1.632014 0.217976 -0.907006 1.001242 -1.279695 -0.749607 -0.791954 1.038844
are 0.160748 0.204137 0.605652 0.889200 0.203532 0.088075 0.282821 0.526148 0.280164 -0.527587 -0.026707 -0.613142 0.151182 -0.640459 -0.851298 -0.152419 -0.110563 2.185540 -1.182698 0.115618 -0.328407 -0.583652 -1.144432 -0.110451 1.559834 -0.010099 0.873172 -0.456843 0.236643 0.632718 -0.009907 -0.668290 -0.987660 -0.514450 1.117807 -0.052729 0.300386 1.090242 -0.083613 0.375139 -1.072844 0.005692 0.075404 -0.008305 -1.246151 0.590046 -0.529062 0.317011 -0.472419 -0.030991
not 0.241875 0.389963 0.719996 0.300744 -0.396009 -0.635566 -0.319482 0.204560 0.311189 -0.303079 -0.341729 -0.441141 1.219864 -0.537312 -0.798872 0.372355 -0.536733 0.893061 -1.010932 1.132982 -0.647045 0.426372 -1.064620 0.345881 0.475918 0.365182 -0.166833 -0.033784 0.256217 0.976257 -0.533879 0.399611 0.190360 -0.208929 -0.134044 -0.535237 0.260880 0.667065 0.226902 -0.058047 -1.922045 -0.229613 -0.719396 0.270349 -0.914450 1.079660 -1.537187 -0.505131 -0.425805 0.450234
this 0.004115 0.614889 -0.274149 0.588117 -0.627908 0.150981 0.173941 0.158362 0.175920 -0.006718 -0.521166 -1.141590 0.341473 0.440849 0.314775 0.961820 -0.723474 0.798698 -0.921274 0.292844 -0.430551 -1.226772 -1.022612 0.331368 0.840549 -0.473641 0.099281 -0.467767 -0.292330 0.356878 -1.228538 0.895085 0.378628 0.682625 1.137431 0.145719 0.162916 -0.099450 0.868739 -0.161484 -1.423142 0.017496 -0.249761 1.230045 -0.062300 1.243463 -1.248491 -0.975714 -0.962450 1.052849
's 0.550011 0.351291 -0.060500 -0.255748 -0.836397 0.016485 -1.014665 -0.415006 -0.251013 0.058220 -0.066876 0.193207 0.222882 -0.365398 -0.990053 0.330901 -0.679014 0.360946 -0.369422 -0.829978 -0.232147 -0.315161 -1.804566 -1.439032 0.362228 2.194265 0.738418 0.243491 -0.192923 0.639482 -0.800192 0.940816 -0.314669 0.004051 -0.110349 0.344874 0.766560 0.429849 1.809383 -0.842169 -1.861834 -0.192702 0.007956 -0.347174 -0.359591 1.270046 -0.356745 0.663902 -0.896439 0.219754
) -0.288467 0.975573 0.262177 0.780743 -1.000068 0.231267 -1.093196 -1.134345 0.589823 0.280299 0.696148 -0.760762 -0.459541 0.000542 -1.469747 0.520005 -0.456901 0.408882 -1.360790 -0.804815 0.893208 0.177345 0.282591 0.038355 2.015677 0.587126 -0.136980 0.176694 1.548080 -0.214807 -0.574647 -0.391604 -0.543342 0.402147 0.187286 -0.926914 -0.151466 0.314237 -0.008453 -0.451710 -1.340219 -0.821121 -0.222855 0.091153 -0.161416 0.190093 -1.095055 -0.589471 -0.524997 -0.162278
The -0.149501 -0.398371 -0.325473 1.051380 -0.419154 0.395836 -0.013397 0.088996 -0.500104 -0.068049 -0.290423 -0.724395 0.238736 -0.475262 -0.414951 0.325479 -0.332286 0.611070 -1.292671 -0.600442 -0.773638 -0.347954 -0.498152 -0.316184 1.187099 0.238434 0.026240 0.214072 0.616012 -0.642140 -1.245166 1.532739 -1.170744 0.664806 0.415511 0.151469 0.374610 0.836543 0.299416 0.196632 -1.056162 -0.777102 -0.809724 -0.820860 -0.510477 -0.436079 -0.661321 -0.010573 -0.806192 0.107755
as 0.240809 -0.241769 -0.054412 0.948683 0.659465 0.300995 -0.689768 0.040477 0.064351 -0.447868 -0.347579 -0.938369 0.698827 -0.601691 -0.463743 0.523317 -0.273617 0.436392 -1.015676 0.115051 -1.756068 0.597380 -0.967930 0.494708 0.760732 0.245138 -0.934356 -0.889635 0.147019 -0.082382 0.244457 -1.169432 -0.423750 1.460378 1.228996 0.752323 -0.665703 0.274806 0.954339 -0.482305 -2.020243 -0.437100 -0.307531 0.452640 -1.426200 0.739948 -0.448974 0.349703 0.166433 -0.041788
( -0.513273 1.096320 0.029656 0.991215 -0.751753 0.283714 -1.220171 -0.914141 0.539647 0.189227 0.666736 -0.668549 -0.055947 0.088410 -1.498729 0.290579 -0.631960 0.321581 -1.413457 -0.611555 1.000934 0.348654 0.454852 0.205783 2.234125 0.523183 -0.238492 0.273843 1.911685 -0.159206 -0.755451 -0.309995 -0.421297 0.566016 0.183637 -0.935888 -0.293504 0.123954 0.081383 -0.724068 -1.242091 -1.011422 0.026503 0.097030 -0.358671 0.036097 -1.348664 -0.672550 -0.501178 -0.244621
they 0.594542 -0.056057 0.329196 0.774746 0.141049 -0.346805 0.170941 0.232986 0.565714 0.798564 0.103779 -0.831559 0.504689 -0.549866 -0.077243 1.049268 -0.761113 1.642755 -1.722588 0.913152 -0.694644 0.383558 -0.203427 0.498662 0.718703 0.068530 0.650406 -0.622818 -0.242967 0.944196 -0.899862 -0.551071 -0.539356 -0.296135 0.622218 -0.608321 0.078540 0.079998 0.201808 0.805832 -0.947264 -0.579456 -0.007019 -0.481139 -1.134143 0.706710 -0.819374 -0.822658 -0.494479 -0.475115
will -0.030657 -0.138959 -0.317384 0.572185 -0.020301 0.662348 -0.258883 -0.791942 -0.081988 -0.309738 0.511476 -0.755415 0.194358 -0.070822 -0.624814 -0.171037 -0.151716 1.105972 -0.957301 0.211370 -1.686880 0.143066 -1.192446 0.465750 0.561291 0.706232 0.415108 -1.120152 -0.662374 1.134516 -0.365028 0.808759 0.378536 0.492466 -0.120119 -0.317357 0.492748 0.725100 0.373901 -0.922858 -0.442671 -0.511282 -0.605688 0.394697 -0.356506 1.152335 -1.339517 -1.454984 -0.152254 0.402650
? 0.587319 0.509434 -0.084187 1.219513 -0.994989 -0.061974 -0.243954 0.129949 -0.693292 0.319205 -0.311571 -1.006212 -0.505073 0.910267 -0.943982 0.909594 -0.883211 1.020209 -0.527725 -1.510853 1.613749 -0.630714 -0.065372 0.832564 0.462360 0.402163 0.201811 0.239395 0.292059 0.576631 0.891773 -0.491106 -0.236176 -1.152649 1.308451 0.792634 1.219725 0.806440 0.470734 -0.395472 -1.324185 -0.359826 0.803837 0.294323 -0.846520 1.433525 -0.526890 -0.560037 -0.684767 0.299590
my -0.202420 0.506061 0.317408 1.077163 -0.665975 0.865683 0.897510 -0.207669 0.345693 0.454797 -0.566491 -1.442654 -1.162037 -0.673338 -0.090839 0.959248 -1.305520 0.557994 -1.551283 0.297986 0.655262 0.175346 -1.440428 0.152668 0.830797 -0.024925 -0.263116 1.266105 -0.424820 1.042472 -1.379280 0.514542 1.386122 -0.330057 -0.242080 0.666417 0.129193 -0.242734 0.814321 0.253387 -0.370768 -0.904462 1.362365 -0.388089 -0.863924 1.663689 -0.446254 -0.677924 0.241517 -0.648181
at -0.592516 0.630301 -0.205007 1.015416 0.295722 0.510714 -0.245144 -0.275110 -0.721971 0.583831 -0.614947 -0.316182 0.506161 0.024076 -0.296580 0.181831 -0.998163 0.110254 -0.334140 -0.011354 0.032523 -1.239672 -0.591028 -0.154796 2.229398 -0.351711 0.377320 -0.228620 -0.544023 0.613246 -0.872025 0.575552 -0.353183 -0.264332 0.706901 -1.064186 0.059271 0.141598 0.668197 -0.138411 -0.388254 -0.951171 -0.253232 -0.777806 -1.294819 0.051710 -0.587137 -0.337564 -0.783118 0.922082
do 0.309204 -0.080025 0.819884 0.662564 -0.673507 -0.048601 0.105869 -0.153892 -0.240478 0.213410 -0.208774 -0.280388 0.709466 -0.447931 -1.057531 0.751528 -1.249004 1.194834 -1.178548 1.004182 -0.178492 -0.408679 -0.146862 0.329900 0.336008 0.185991 -0.187550 0.162631 0.076766 1.274610 -0.213241 -0.350567 -0.267273 -0.687045 1.123230 -0.178395 0.903604 0.735393 0.457157 -0.360007 -0.631782 -0.980341 0.458717 0.333058 -0.941855 1.548314 -0.686779 -0.958045 -0.656072 0.004662
or 0.327761 0.558902 0.660887 0.898260 -0.260334 -0.556717 -0.617880 -0.454191 0.589352 0.182817 0.306678 -0.516059 0.525488 -0.717162 -0.791269 -0.168539 -0.434539 0.246585 -0.517824 0.409516 0.341293 0.268402 -0.219337 -0.520533 0.987767 0.092496 -0.829032 0.182941 0.565106 1.186126 0.819731 0.749543 -0.092087 -0.139710 0.413362 -0.490491 -0.669012 0.828850 -0.403559 -0.902936 -1.882091 -1.115636 0.395691 -0.194677 -0.628898 1.114621 -1.295826 -0.350460 -0.224049 0.331531
n't 0.267312 0.170725 0.963578 0.299638 -0.576766 -0.446002 -0.070553 -0.643207 0.073792 0.796809 -0.970840 -0.167191 0.990657 -0.062305 -0.928945 1.291872 -1.252051 0.951369 -1.253252 1.115648 0.003230 -0.034503 -0.399349 0.429576 -0.062858 0.105181 -0.360380 -0.020502 0.411404 1.326265 -0.210257 -0.844286 -0.195538 -0.626031 0.874459 -0.646745 0.903419 0.188349 0.960536 -0.208311 -0.664252 -0.674953 -0.133443 -0.098951 -0.970046 1.417196 -0.779287 -1.580165 -0.286860 0.332252
from 0.569374 0.240998 0.300242 0.726123 0.613255 -0.270368 -0.514859 -0.136442 0.326964 -0.444860 -0.430153 -0.276523 0.802452 -0.165704 -1.253161 0.623516 -0.050209 0.571507 -0.570749 -0.445108 0.151007 -0.034280 -0.284546 -1.039337 0.603776 -0.079426 0.410737 -0.233874 -0.058904 0.487626 -1.643083 0.321963 -0.978780 0.757218 -0.100633 -0.450991 -0.201438 0.019431 0.508144 0.800866 -0.767120 -0.957834 0.479199 -0.374885 -1.004868 1.133713 -0.448350 -0.477410 -0.233246 0.111705
your 0.809279 0.230813 0.453842 1.321315 0.124799 1.221724 -0.176660 -1.576132 -0.660656 -0.421273 0.418735 -0.789080 -1.137497 0.021095 -0.309781 0.448256 -0.139676 0.745896 -1.638793 -0.255765 0.538302 0.683267 -1.148274 -0.782073 0.414241 0.451633 0.443851 0.114727 0.223546 1.526696 0.523316 0.735928 0.640593 0.300928 0.401483 -0.168530 0.274122 -0.060962 1.069673 -0.414262 -0.016389 -0.090305 1.174907 0.843069 -0.853627 2.047604 -0.279044 -1.302179 0.285107 0.348061
he -0.220738 0.623712 -0.128113 -0.386800 -0.297516 0.040381 -0.385670 0.056338 -0.392171 1.236526 -0.876639 -0.286547 0.666544 0.497624 -0.138163 0.674219 -1.435297 -0.224749 -1.091820 0.497497 -0.935762 0.942116 -0.704348 0.963955 0.281376 1.031260 -0.341935 0.086427 -0.775702 0.942056 -0.387688 -0.323614 -0.602308 -0.137518 -0.220391 -0.205978 -0.110440 -0.037134 0.972853 -0.467636 -1.401427 -0.193981 -0.079146 -0.950392 -1.835404 0.506676 -0.245377 -1.048577 -0.392595 -0.016742
but 0.245822 0.663604 0.420488 0.204020 0.330573 -0.081530 0.375193 0.102743 0.068197 0.392212 -0.591083 -0.641762 0.905256 -0.251076 -0.244956 0.417377 -1.439254 0.873412 -0.948437 1.180823 -0.389717 -0.036477 -1.224822 0.325419 0.698724 0.211900 -0.441320 -0.021637 0.073516 0.903675 -0.830817 -0.050683 0.172677 -0.308414 0.246736 0.076390 0.359752 0.313053 0.307651 0.237179 -1.526219 -0.510421 -0.072495 0.000908 -0.808216 0.592516 -0.584108 -0.522391 0.109390 0.239213
we -0.278541 0.450905 -0.087569 0.365109 0.474086 -0.207391 0.348532 0.854759 0.079133 0.642895 0.202430 -1.097786 0.012640 0.251352 -0.966448 0.152008 -0.670654 1.203961 -1.045786 0.123784 -0.160410 -0.804465 -0.378164 1.516727 1.086058 0.330940 0.806785 -1.057205 0.201303 0.558214 -0.848253 -0.278223 -0.561761 -0.156350 1.395567 -0.980003 0.526753 -0.260938 1.225056 -1.034502 -1.116204 -0.315464 0.561208 0.720769 -0.364404 0.015237 -0.587630 -1.383499 -0.486316 0.163976
by -0.074124 0.297405 -0.326558 1.096406 0.371391 -0.558190 -0.939878 0.154200 0.712703 -0.805769 0.344966 -0.553417 0.872220 0.146444 -0.565639 -0.380256 0.885163 0.018209 0.154559 -0.155757 -0.527832 0.311239 -1.471272 -0.665922 0.858930 0.304036 -0.561847 0.046591 -0.508937 1.003077 -0.867903 0.485103 -0.846112 0.328834 0.104624 0.382179 -0.316292 0.152466 -0.184975 0.264732 -2.203456 -0.851115 -1.119874 0.827667 -1.450594 0.641602 -0.891497 0.315107 -0.565620 -0.175053
: -0.230458 -0.406738 -0.870768 -0.001154 -0.840669 0.607210 0.136028 -1.021294 -0.961207 -0.139181 0.609494 -0.591723 -0.312179 -0.717360 -1.423938 0.706032 0.361634 -1.379803 -0.121782 -0.907483 -0.026108 0.397545 -0.688367 -0.430727 2.215873 1.056373 -0.086451 -0.748064 -0.641741 0.902557 -0.329602 -1.222106 -0.914949 -0.067178 1.922439 0.549124 -0.046855 1.138057 -0.428679 -0.791969 -0.818862 0.005602 -0.542155 1.097001 -0.240752 0.401197 -1.143621 -0.800602 -1.420049 0.864537
me -0.134341 0.051870 0.416844 0.460668 0.212385 0.501198 -0.646508 0.445138 0.337468 1.102967 0.451861 -1.426702 0.049691 -0.486325 -0.242700 2.151790 -0.559686 0.656010 -1.247744 -0.712757 0.039249 -0.432578 -0.781483 0.038805 0.691744 0.215760 -0.837677 0.124930 -0.871684 2.091469 -0.602739 0.047410 0.136604 -0.192043 0.005088 -0.539482 -0.273465 -0.577177 0.964196 -0.149332 -0.523905 -0.051489 0.382496 -0.137116 -0.998580 0.297099 -1.034803 -0.176816 -0.436549 0.060528
can 0.296608 -0.091198 0.070853 0.703570 -0.090866 0.383957 -0.474248 -0.262349 -0.321471 -0.075111 0.252354 -0.368928 0.135322 0.287121 -0.214193 0.347477 -1.044318 1.251593 -1.254342 0.118676 -0.796903 -0.048623 -0.970121 0.344614 0.572897 -0.329308 -0.243625 -0.868482 -0.304729 0.869888 -0.074793 -0.213367 -0.188015 -0.153293 0.467215 0.225210 0.611604 0.731599 -0.232483 -0.807275 -0.472985 -0.852685 -0.075693 0.093928 -0.602420 1.330577 -0.916682 -1.060329 0.001813 -0.107566
would -0.209932 0.806495 0.761754 0.863053 0.079269 -0.287141 -0.295156 -0.124375 -0.306013 0.360236 0.358784 -0.716587 0.610194 -0.747077 0.119040 0.738998 -1.134753 0.796379 -1.315481 0.291681 -0.334162 -0.208262 -1.139706 0.546241 0.200141 0.392082 -0.161494 -0.030268 -0.724894 0.161237 -0.120220 0.133843 0.001699 -0.210564 -0.131183 -0.634241 0.680013 0.289272 0.884319 -0.047615 -0.570044 -0.126500 -0.996629 0.681846 -0.595131 0.524017 -1.524142 -0.788609 -0.261063 0.971400
! -0.304700 -1.061957 0.247738 0.226290 -0.495816 0.774534 0.657418 0.091612 0.266326 0.384753 -0.023068 -1.030350 -1.041773 -1.211119 0.187459 0.898307 -0.171978 -0.017756 -1.398435 -0.620064 0.707290 0.105852 -1.814330 -0.298293 0.567212 0.549695 -0.921208 -0.606038 0.094363 1.047191 -0.168219 0.277060 0.406711 -0.783067 1.252635 -0.249979 1.227695 1.134341 1.045151 0.956755 -0.591143 -0.317260 0.147362 -0.680009 -0.120548 0.326959 0.027323 -0.958831 -0.674304 0.432712
has -0.208099 0.790983 -0.872697 -0.196631 0.399722 -0.594516 -0.518244 0.855766 0.332314 -0.666426 -0.072258 -0.189233 0.253123 0.165354 -0.807179 0.132685 -0.513909 0.683973 -1.107310 -0.486545 0.625437 0.059512 -1.172918 -0.446358 0.020843 0.861964 -0.636259 0.595538 -0.310126 0.499454 -0.645195 1.147317 -1.390170 0.989782 -0.321619 1.402192 0.620688 0.836118 1.573276 -0.108964 -0.984621 0.181358 -0.889693 -0.308413 -0.944272 0.182991 -0.882036 -0.721040 -0.246494 0.874341
had 0.002479 0.789429 0.165390 0.082510 0.855075 -0.790419 0.244649 0.667363 0.656604 1.217088 -0.543530 0.036644 -0.593086 -1.071846 -0.428498 0.383265 -0.629352 0.369128 -0.704620 0.388423 0.252616 0.104443 -0.684822 0.096712 0.344545 0.733013 -0.356370 -0.271036 -0.349635 0.027171 -1.419839 0.134896 -1.110999 0.664349 0.506676 0.296847 -0.043547 0.089523 1.639482 -0.149024 -1.001966 -0.700380 0.138324 -0.790108 -1.151022 0.071656 -0.799100 -0.571133 -0.090455 0.202178
an 1.087337 1.211026 -0.421133 1.586180 -0.306658 -0.506635 0.125780 -0.612895 0.148335 -0.220649 0.418501 -0.770650 0.549574 -0.256217 0.057997 1.035036 0.003854 0.498099 -1.016953 -0.721929 -0.054034 -0.478664 -0.361918 -0.384063 -0.274336 0.966680 0.498087 -0.408734 -0.136325 0.416412 -1.553293 -0.231713 0.522522 0.858978 0.252747 0.152630 -0.575803 -0.143881 1.306409 0.040420 -0.837516 -0.323761 -0.507531 0.477489 -1.048159 -0.114894 -1.294911 -0.534227 0.099520 -0.172172
all -0.460360 0.030077 0.961645 0.506042 -0.003986 0.224683 0.114344 0.115238 -0.045490 0.200555 0.260886 -0.831438 0.036082 0.072372 -0.310367 -0.253752 -0.482184 0.904576 -0.954378 -0.010116 -0.162857 -0.271904 -0.973483 -0.622675 1.236519 0.620482 0.200526 -0.199143 -0.303160 1.022690 -0.221015 0.364178 -0.893265 0.154594 1.110379 -0.864853 0.679436 0.748177 0.296352 0.194962 -0.654268 -0.393998 -0.210877 0.294911 -0.750793 0.703028 -0.420399 -0.489588 -0.028824 -0.430104
if 0.651038 0.138153 0.282923 0.317543 0.292902 -0.361848 -0.414251 0.239952 0.423705 0.605469 -0.187912 -0.706369 0.511417 0.112633 -0.205947 1.633193 -1.045322 0.898784 -1.456339 0.341544 -0.032791 0.315068 -0.733952 0.137149 0.774954 -0.194216 -0.157920 -0.874505 0.073091 1.333362 -0.227135 -0.471451 -0.075564 -0.307684 0.531407 -0.286544 -0.364224 -0.022191 0.226134 -0.366149 -1.025284 -0.146396 0.020642 0.099290 -0.794828 0.865942 -1.144087 -0.528306 -0.162878 0.638033
out -0.384031 0.314420 0.325803 0.322554 0.308969 0.124412 -0.410432 -0.576765 0.349023 0.324223 -0.102314 -1.112681 -0.135495 0.014051 0.352510 0.603899 -0.660827 0.221369 -0.751353 -0.274635 -0.837555 -0.144692 -1.778833 0.191743 0.170322 -0.079015 -0.314686 -0.467091 -0.601326 0.782970 -0.500917 -0.568405 0.075092 -0.373869 0.398931 -0.546408 0.676419 -0.112448 0.181735 -0.159927 -1.427603 -1.227468 0.443972 -1.065919 -0.698143 1.184920 -0.266458 -0.721931 0.690575 -0.340318
about 0.440045 0.394083 0.688405 -0.686517 0.233230 0.054735 -0.692090 -0.505637 0.353016 -0.124859 -0.604310 -1.082078 0.783365 0.026461 -1.458848 0.641667 -0.996720 0.299328 -0.258706 0.524907 0.144164 -1.290988 -0.543884 -0.079970 1.298045 0.437732 -0.118287 0.750038 -0.572610 1.723562 -0.392684 -0.265399 -0.654996 0.332278 0.848428 -0.031670 0.634400 -0.096971 0.980185 0.132343 -0.277744 -0.254922 -0.332923 0.160139 -0.835979 0.978555 0.069922 -0.233744 -0.592201 -0.327138
so 0.141310 0.523835 -0.153449 -0.432660 -0.028990 0.668537 -0.065826 0.005762 0.399736 0.026600 0.106780 -0.761350 0.326090 -0.163297 -0.068176 -0.414065 -0.569769 0.786864 -1.231979 0.226397 -0.243028 -0.151586 -1.544792 0.434191 0.484758 0.435998 -0.923578 -0.807278 0.559203 0.911804 0.008644 -0.583543 0.408742 -0.123166 0.389672 -0.108630 -0.059558 0.437617 0.833410 0.249334 -1.423878 -0.423221 0.388391 -0.105844 -1.283449 0.484091 0.011246 -1.074007 0.144728 -0.115679
one 0.129218 0.617682 0.008988 0.209510 0.279954 0.252292 0.285866 -0.734899 0.098900 1.073699 -0.441632 -0.795934 -0.003866 0.416940 -0.063237 0.445836 -0.965698 0.535891 -0.639129 0.218483 0.025278 -0.270234 -1.152056 -0.069716 0.699498 0.585067 -0.373127 -0.414367 0.317903 0.261303 -0.849847 0.578508 0.020069 0.140569 0.725817 0.131499 0.096120 0.630589 0.599738 -0.561914 -0.972355 -1.044803 -0.276097 -0.300596 -0.555808 0.620529 -0.789062 -0.677684 0.055068 -0.003235
there 0.520559 0.271785 -0.061081 0.116546 -0.253469 -0.709678 0.590762 0.297067 0.317219 0.584701 -0.322682 -0.783020 0.241676 0.212839 -0.191965 0.820168 -1.094294 0.986990 -1.615647 -0.260519 0.325786 -0.071923 -1.350971 -0.292108 0.699950 -0.110138 0.383116 -0.916981 0.149678 0.338893 0.115003 -0.793930 -0.421721 -0.149840 0.646996 -0.259967 0.692634 0.593944 0.179930 0.062365 -1.399796 -0.453883 -0.006286 -0.934085 -0.784488 0.673618 -0.262139 -0.103918 -0.454253 0.300817
were -0.011867 0.145053 0.589789 0.636462 0.476505 -0.297922 0.560969 0.407957 0.528315 0.714696 -0.166819 -0.546891 0.157889 -0.897562 -0.169577 -0.443875 0.432403 1.019740 -1.057961 0.384315 -0.025717 -0.330958 -1.236175 -0.253481 0.810402 0.008827 0.761798 -0.287348 -0.269960 0.379407 -1.180319 -0.627299 -1.290484 -0.207959 0.506177 -1.256972 -0.081049 -0.093960 0.662433 0.787617 -1.758043 -0.294807 -0.474059 -0.851798 -1.159824 -0.394873 0.359139 0.020038 -0.480941 -0.688710
like 0.336631 0.567054 0.574416 0.236164 0.053422 0.038866 0.143828 -0.254287 -1.137371 1.261166 -0.033823 -0.630447 0.714768 -0.544818 -0.118527 0.106107 -1.028662 0.939965 -0.944150 0.239000 -0.109372 -0.853685 -0.087390 -0.143146 0.899261 0.523678 -0.034058 0.577186 -0.237057 1.316824 0.052872 -0.269434 -0.180367 -1.061214 0.032274 -0.124064 0.853296 1.032985 0.436293 0.083509 -0.637391 -0.202044 -0.011153 -0.487368 -1.126011 0.454309 -0.271499 -0.425581 -0.283218 0.163501
up 0.041565 0.687837 0.718550 0.319648 0.013714 0.078834 -0.396538 -0.286058 -0.046855 0.407523 1.064154 -0.739554 0.047743 -0.058536 0.478092 0.663946 -0.457022 0.430568 -0.925164 -0.048949 -0.133710 0.594553 -0.677703 0.242999 0.369603 -0.016183 0.681973 0.264710 -0.278143 0.965538 -0.351534 0.202117 -0.626645 -0.669622 -0.239415 -1.028261 0.819035 -0.157909 -0.102564 0.400947 -1.493567 -1.174556 0.558578 -0.919165 -1.202675 1.138042 -0.659808 -0.775467 0.710457 0.150575
their -0.189916 -0.660005 0.753501 1.445426 0.022045 0.347127 0.595600 -0.249781 0.640980 -0.552195 -0.242967 -0.349551 0.154096 -0.833286 0.654370 0.425884 -0.021514 1.419499 -1.019349 0.667266 -0.622539 0.617951 -0.848608 -1.190563 0.279967 0.045076 0.383795 0.088398 -0.392959 0.929384 -0.655350 0.423234 -0.489410 0.281444 0.339735 -0.672411 -0.259564 0.179249 0.292656 0.590144 -0.714576 -1.005676 -0.250303 -0.136685 -0.602691 1.298554 -0.402460 -0.437683 -0.023296 -0.871431
time 0.054962 0.093056 -0.008018 0.735074 0.252503 0.982188 0.099243 -0.061569 0.185560 -0.063702 -0.080256 -0.531934 0.107645 0.288747 -0.623286 0.694332 -0.965033 0.287572 -0.812814 0.366848 0.012716 -0.699671 -0.819890 0.445007 0.898994 0.616611 -0.624472 -0.536814 -0.384946 0.672506 0.053796 0.243575 0.093337 0.382819 1.155803 -0.908660 0.056628 0.189804 1.162692 -0.262214 -0.999241 -0.397184 -0.350076 -0.497592 -0.803482 0.462757 0.077787 -1.152702 -0.336089 0.170951
get 0.415630 0.026881 0.514761 0.791536 0.174732 0.025558 -0.269079 -0.214382 0.063724 0.178498 -0.474779 -0.895972 -0.232685 -0.283244 -0.133397 0.621538 -0.712325 0.723842 -1.220172 0.453185 -0.086049 -0.042788 -0.992807 0.358564 0.419607 -0.218127 -0.210213 -0.279165 -0.481896 0.922427 0.083535 -0.075416 0.260393 -0.582058 0.621479 -0.447365 0.523312 0.796675 0.435931 0.036900 -0.830133 -0.622547 0.292702 -0.742476 -0.579530 1.176188 -0.515408 -1.134785 -0.223925 0.069728
his -0.133955 -0.185308 0.079517 1.304334 -0.612687 0.629900 0.081992 -0.358609 -0.582214 -0.050290 -0.631903 0.157204 0.213971 0.183438 -0.049078 0.430875 -0.805728 -0.431819 -0.283643 0.336278 -0.718943 1.061523 -0.542165 -0.288695 -0.000211 1.359507 -0.596119 0.727875 -1.055836 0.565463 -0.227223 0.623053 -0.653288 0.716385 -0.188748 -0.196770 -0.514773 0.218525 1.581305 0.017046 -1.208873 -0.417885 -0.001613 -0.173654 -1.620806 1.060729 0.317157 -0.430633 -0.518013 -0.573132
just 0.514428 0.395520 0.551371 0.126485 0.057016 -0.091489 -0.263738 -0.172349 -0.126483 0.904739 -0.431125 -0.927478 0.134452 -0.458502 -0.455183 0.532986 -1.149512 0.642667 -0.966182 0.259495 -0.330340 -0.214440 -0.784466 0.830909 0.164455 0.585604 -0.100606 0.052822 -0.012743 0.720008 -0.213582 -0.331734 0.308407 -0.557275 -0.033789 -0.180157 0.518276 0.662369 1.049150 0.439203 -0.908393 -0.650345 0.572967 -0.482104 -1.089358 0.877310 -0.493871 -0.904100 -0.328473 0.071639
It 0.411969 0.274880 0.471498 -0.190756 0.084370 -0.048321 -0.267360 -0.565152 -0.159914 -0.076414 -0.603877 -0.892772 0.187216 -0.438653 -0.596266 0.546921 -0.294022 0.742193 -0.946454 -0.307888 -0.166480 -0.202970 -1.151117 -0.217252 0.597162 1.198693 -0.261969 0.207868 0.523790 0.382230 -0.899567 0.510865 0.118942 -0.024484 0.000819 0.311257 0.402345 1.172126 0.664953 0.216497 -1.159560 0.100337 -0.570157 -0.668106 -0.249934 0.749267 -0.450689 -0.184979 -0.165479 -0.017520
them -0.069558 0.114425 1.109509 0.886994 -0.114320 0.532836 -0.144034 -0.235122 0.693051 0.659354 0.049775 -0.640233 0.204897 -0.996752 0.189667 0.587003 -0.928236 0.899109 -1.328798 0.512824 -0.466405 0.093170 -0.440710 0.185914 0.094803 -0.190861 0.037511 -0.282704 -0.713636 0.973209 -0.007711 -0.657801 -0.308046 -0.149065 0.111047 -0.458135 0.434936 0.543777 0.205502 0.235281 -0.676408 -0.935498 -0.373220 -0.304781 -0.652104 1.108689 -0.790979 -1.039496 0.459095 -0.480325
been -0.450504 0.789400 -0.244362 0.099109 1.099632 -0.821633 -0.371524 1.097274 1.101287 -0.387943 -0.480556 -0.363221 0.346988 -0.795559 -0.753284 -0.441841 -0.275739 0.705830 -0.682175 -0.119894 0.737555 -0.040158 -1.102746 -0.143279 0.242266 0.293711 -0.271689 -0.304325 -0.265124 0.310765 -0.586511 0.492768 -1.010026 0.564364 -0.111552 0.871132 0.298937 0.330556 1.255987 0.326347 -0.901654 -0.369786 -0.673741 -0.774330 -1.385955 0.046942 -0.797708 -0.472924 -0.280478 0.603003
know -0.321545 -0.359009 0.238111 0.153198 0.036719 0.045706 -0.302827 0.412191 -0.286470 0.761539 -0.002077 -0.624535 0.819965 0.030753 -0.975149 1.229974 -0.644376 0.963099 -0.894565 0.021496 0.075027 -0.564580 -0.858199 -0.207119 0.725117 0.334317 -0.603274 -0.268740 -0.122722 1.842036 -0.122186 -0.189669 -0.517448 -0.305749 0.783560 -0.396222 0.240964 -0.259326 0.740118 -0.907150 -0.758634 -0.123894 0.046058 0.558921 -0.876099 0.742377 -0.782840 -0.255893 -0.740656 0.233807
who -0.865018 -0.397145 -0.195167 0.813435 -0.516278 -0.456103 -0.144640 0.446179 -0.010285 0.320366 -0.344156 0.415612 1.058073 -0.895566 -0.445523 0.171157 -0.424855 1.584186 0.187974 -0.003875 -0.335208 -0.094819 -0.743454 -0.416671 0.259102 -0.012549 -0.204034 0.382592 -0.955608 0.682683 -0.305181 -0.495340 -1.932839 0.674943 -0.068987 -0.379898 0.457146 -0.667514 1.205376 -0.338645 -1.003904 -1.286521 -0.884547 0.048723 -1.703462 0.634363 -0.267700 0.076214 -0.043107 -0.592852
which -0.070671 1.041889 -0.209663 0.938101 0.733172 -0.431277 -0.176674 0.165726 -0.144470 0.122461 0.476330 -0.595983 0.791505 0.159627 0.158472 0.135807 -0.635771 0.488525 -0.507191 0.026827 -0.525742 0.212494 -0.363072 0.137665 0.955102 0.831278 -0.349224 -0.187007 0.706157 0.646374 -1.504041 0.271104 -0.401638 0.383500 0.056332 0.288285 -0.190547 0.209034 0.061726 -0.097434 -1.024356 -0.330593 -0.701509 0.375491 -0.516484 -0.269295 -1.482647 -0.425325 -0.351315 -0.137864
what 0.441088 0.003037 0.177342 -0.307977 -0.148431 -0.417316 -0.438351 0.355496 -0.371252 0.629639 -0.287449 -0.602586 0.538168 0.308465 -0.450973 1.120833 -1.120252 1.069973 -1.007052 0.000006 -0.660064 -0.757803 -0.616225 0.317615 0.797526 0.701517 -0.075460 -0.093792 -0.198544 1.536689 -0.340853 -0.236268 -0.283975 -0.498021 0.535428 0.191717 0.349014 0.370772 0.927521 -0.312987 -0.229085 -0.209507 -0.175196 -0.173244 -1.183719 0.661898 -0.808512 -0.152665 -0.702331 -0.239115
some -0.513776 0.652741 0.674385 0.487185 0.112660 -0.764846 0.120279 0.367912 -0.150688 0.119572 -0.719342 -0.868160 0.283057 -0.066124 0.726518 -0.249505 -1.053783 0.897768 -0.658260 0.433361 -0.156055 -0.223979 -1.061464 -0.202932 0.705573 0.387769 0.329530 -0.035840 -0.499800 0.222667 0.277094 0.645984 -0.289564 0.070601 0.871517 -0.326998 0.254558 0.360122 0.506661 -0.585352 -0.622528 -0.134358 -0.226144 -0.251776 -0.761722 1.004874 -0.626125 -0.828811 -0.694273 0.042489
our -0.232434 0.282829 0.409207 0.829074 0.798222 -0.221730 1.145420 0.243236 0.021535 -0.430846 0.082468 -1.041119 -0.622906 -0.012786 -0.556533 0.094724 -0.201808 0.218496 -0.566407 0.126699 -0.349807 -0.153168 -1.119196 0.166131 0.596913 0.334524 0.825719 -0.038668 -0.206457 0.479973 -0.786273 0.694908 0.064383 0.824087 0.894475 -1.192000 0.270918 -0.221135 0.725730 -1.014444 -1.301462 -0.144577 0.905062 0.699418 -0.222547 0.240235 -0.215106 -0.688798 0.616980 -0.020185
when -0.031138 0.349179 -0.340125 0.096268 0.156079 0.294695 0.034834 0.163827 -0.186685 1.088502 -0.094189 -0.271979 0.200749 0.118561 0.459167 0.256610 -0.737487 0.545844 -0.862423 0.457158 -1.076162 0.323592 -0.327973 0.619729 0.690659 0.311112 0.522546 -0.202132 -0.154371 1.429661 -0.771702 -0.276613 -0.627690 0.013869 0.107110 -0.593301 0.383817 -0.223564 1.058402 0.292849 -0.869708 -0.795061 0.043157 -0.561329 -1.219262 0.510198 -0.199504 -0.741836 0.148534 -0.164357
very -0.020126 0.330730 0.644125 0.234353 0.582118 1.389068 -0.321908 -0.000525 0.301105 -0.239404 -1.218959 -0.278634 -0.120262 -1.485233 -0.199326 -0.097813 -0.171944 0.978068 -1.070756 0.686207 -0.501049 -0.429645 -1.357122 -0.069576 1.241117 -0.319416 -0.806317 0.115232 0.219662 1.340561 -0.310790 -0.498906 0.036028 -0.168175 0.335390 0.130845 0.234807 0.837141 1.307329 1.018294 -1.451128 0.523071 -0.732411 -0.253640 -1.129357 0.156262 0.465259 -0.044596 0.482519 0.646586
We -0.565325 0.083440 0.566248 0.513377 0.923583 -0.011296 0.371320 0.504675 0.296502 0.768362 0.262796 -0.839618 -0.124663 -0.929373 -0.758058 -0.463098 -0.166240 0.424547 -0.657290 -0.171604 0.103328 -0.489107 -0.579861 0.557669 0.498792 0.323092 0.536630 -0.803273 -0.076874 0.104908 -0.447527 0.120767 -0.629612 -0.215834 1.025695 -0.792169 1.251396 0.092345 1.191978 -0.620049 -1.092064 -0.421108 0.519984 0.155472 -0.368357 -0.087472 -0.246068 -0.985793 -0.189019 0.518259
more 1.149273 0.303881 0.219628 -0.073105 1.180463 0.283702 -0.344972 -0.529256 0.430552 0.283635 0.039432 -0.938885 0.362758 -0.117309 0.070315 0.016230 -0.952243 1.384310 -0.758088 0.217635 -0.616860 -1.358657 -0.614005 -0.475293 1.028064 0.624848 -0.835564 -0.403820 -0.046124 0.898858 0.507015 -0.255957 0.323629 0.749832 0.520771 0.344349 -0.090251 1.149670 0.827078 -0.043621 0.084992 -0.498726 -0.345670 -0.307412 -0.599627 0.322771 -0.377052 -0.073931 -0.918166 -0.208745
any 0.249951 0.700707 0.601487 0.824632 0.267481 -0.972059 0.864592 -0.057339 0.624390 0.724929 0.136925 -0.199615 -0.055941 0.457913 -0.503744 1.209746 -0.840686 0.909939 -0.828651 0.382106 0.678545 0.416504 -0.831117 -1.497185 0.505240 -0.089955 -0.544233 -0.182104 0.044904 0.960825 0.759451 0.486915 -0.723303 0.371240 0.514219 -0.262989 -0.534000 0.447644 0.239141 -0.995590 -0.630825 0.246232 -0.432203 0.565207 -0.786736 0.736494 -1.436729 -0.566421 -0.559246 0.260585
him 0.325881 0.066287 0.296353 0.755242 -0.257562 0.066181 -0.871671 -0.272433 0.008572 1.118405 -0.416430 -0.810102 0.326816 -0.203691 0.276068 0.678231 -1.314031 -0.598528 -1.014062 0.075694 -0.892194 0.470971 -0.749541 0.602790 -0.600050 0.369004 -1.067102 -0.130835 -1.229909 1.187862 0.601716 -0.283659 -0.163692 -0.247493 -0.397876 -0.272140 0.126184 0.255578 0.724312 -0.113071 -1.011293 -0.859489 0.447826 -0.638543 -1.390161 0.889388 -0.277132 -0.893723 -0.125198 -0.536007
also -0.219344 0.410962 0.217764 0.653895 0.697052 0.085974 -0.278912 -0.195719 -0.049777 0.505053 -0.097500 -0.475825 0.247700 -0.842654 -0.489135 -0.434248 -0.128995 0.905029 -0.771769 0.252923 -0.595860 0.336598 -0.988338 0.213928 0.293173 0.452780 -0.283995 -0.490916 0.226615 0.153855 -1.023637 0.335456 -0.609191 -0.405326 -0.398069 0.267324 0.371564 0.828584 0.844994 -0.214588 -1.036820 -0.140592 -0.258870 -0.073119 -0.977892 0.201631 -0.739993 -1.004868 -0.407173 0.247074
could 0.023211 0.580104 0.332794 0.661442 0.042495 -0.297256 -0.365448 -0.248880 0.066448 0.592057 0.217923 -0.094938 0.350652 -0.142453 -0.289406 0.434011 -0.776803 0.375430 -0.814360 0.373690 -0.110099 0.435028 -0.516356 -0.033088 -0.324190 0.636499 -0.003606 -0.229901 -0.253792 0.495916 0.079513 0.487976 -0.462775 -0.211044 -0.149541 -0.331263 0.109703 0.534273 0.556198 -0.648880 -0.645000 -0.673614 -0.485082 -0.028547 -0.965238 0.901014 -1.372201 -0.948939 -0.018933 0.212605
did 0.012881 0.181190 0.464597 0.258326 -0.405279 -0.531377 0.582589 -0.041842 -0.241616 0.822537 -0.621627 -0.073193 0.587898 -0.354710 -0.790656 1.151737 -1.032595 -0.093899 -0.966984 0.836398 -0.307403 0.284515 -0.301465 0.394978 0.132490 0.646785 -0.151177 0.378951 0.054791 0.885479 -0.790820 -0.147714 -0.473779 -0.272653 0.621954 -1.024949 0.400523 -0.055903 1.333458 -0.159564 -0.929453 -0.184547 -0.189745 -0.584107 -0.813962 0.287812 -0.738623 -0.696044 -0.573029 -0.184340
other 0.339108 0.526398 0.318888 0.669533 -0.154639 -0.007937 0.838937 -0.547663 -0.195674 1.026258 0.071732 -0.560049 -0.161285 0.153302 0.172665 -0.448149 -0.841922 0.984851 -0.855627 0.586117 -0.317413 0.242191 -1.023726 -1.010842 1.496288 -0.257878 0.125681 0.128719 0.127462 0.333719 -0.018207 0.657539 -0.772336 -0.000544 0.561633 -0.086836 -0.211273 0.644075 -0.171990 -0.998264 -0.362529 -0.911391 -0.052717 -0.380467 -1.261013 0.082683 -0.529952 -0.576978 -0.005814 -1.166332
go 0.594721 -0.119699 0.131089 0.059838 -0.175540 0.326630 -0.003079 0.204040 0.345860 -0.111715 0.169885 -0.470367 0.231149 -0.316328 0.101815 0.189904 -1.292798 0.498169 -1.234629 -0.276205 -0.092881 0.074188 -1.043282 0.424741 -0.145721 0.006226 -0.213102 -0.894425 -0.198046 1.024197 -0.227546 0.191770 -0.445729 -0.759247 0.092786 -0.700411 0.926192 0.552514 0.420250 0.754435 -0.913711 -1.072245 -0.056930 -0.790236 -0.120633 0.963049 -0.636596 -1.478575 0.189459 -0.032106
good 0.381408 0.357376 0.324950 0.183712 0.154259 -0.031392 -0.036852 -0.187847 -0.621035 0.146296 -1.236412 -0.488614 -0.313266 -1.092389 0.137216 0.318351 -0.914892 0.522414 -1.163524 0.085917 -0.077644 -0.261805 -1.046780 -0.051300 1.038081 0.393045 -0.097157 0.166477 0.550390 0.675405 0.174541 -0.082794 0.471750 -0.533661 1.004629 -0.219081 0.398529 0.941182 1.101084 -0.365161 -1.011725 0.181925 -0.155682 -0.534085 -0.294874 0.367938 -0.515583 -0.337443 0.189350 0.690640
i -0.075492 0.364879 0.153600 -0.512663 -0.127529 -0.095577 -0.360016 0.204985 0.083197 0.774256 -0.243020 0.068980 -0.414020 -0.259609 -0.806150 1.172739 -2.109621 0.037918 -0.994746 0.845809 0.624307 0.389726 -0.876510 1.535388 0.400418 0.072113 -1.173310 0.052952 -0.285928 0.913139 0.158512 -0.789456 0.384898 -1.147249 0.112744 0.122842 0.396156 0.135988 0.652459 0.445337 0.290137 -1.054237 0.395558 -0.649735 -1.133637 0.730277 -1.002236 -0.610678 0.023104 0.337851
only 0.220054 0.441871 -0.167162 0.102510 -0.284193 -0.423461 0.409192 -0.151179 0.164790 0.266131 0.244208 -0.790407 -0.215363 -0.266935 -0.151970 0.325321 -0.696118 0.792930 -1.086416 0.119868 -0.570912 0.426051 -0.825712 0.997220 0.854395 0.493545 0.139289 0.058475 0.164346 0.136347 -0.482330 0.122479 -0.260529 0.411352 0.324752 -0.267645 0.329203 0.532208 0.054078 0.013313 -0.973998 -0.626503 -0.407169 -0.498123 -0.687385 0.149402 -1.088839 -0.563347 -0.042897 -0.473345
If 0.590425 0.119215 0.216125 0.505706 -0.314925 -0.318752 -0.470489 0.160393 0.449743 0.093458 0.567034 -0.654107 0.040609 0.012275 -0.402482 0.704137 -0.105853 1.076413 -0.787627 -0.308673 0.362773 -0.087061 -0.750973 -0.189734 0.490165 -0.147437 -0.080588 -0.486378 -0.225947 1.202167 0.591182 0.373096 -0.545191 -0.192211 0.302139 -0.411205 0.402361 0.398053 -0.120334 -0.151183 -1.478403 -0.034563 -0.213912 0.464101 -0.435612 1.066771 -1.082095 -0.369809 -0.202261 0.930945
They 0.104084 -0.233180 0.789352 1.031790 0.607034 0.272739 0.090404 -0.006705 0.721274 0.415401 -0.062936 -0.984991 0.056483 -1.545872 -0.213467 0.379125 0.116142 1.039168 -1.136026 0.285165 -0.317946 -0.069377 -0.641794 0.292173 0.160478 -0.248548 0.126825 -0.038524 -0.387128 0.632200 -0.738374 -0.365137 -0.229689 -0.441632 0.418803 -0.492184 0.812736 0.253967 0.607226 0.784520 -0.423975 -0.463849 -0.125938 -0.502387 -0.642370 0.293173 -0.522972 -0.752964 -0.387747 -0.268000
$ 1.009062 0.232014 -0.501763 0.069526 0.376702 -0.415945 -0.577258 -1.161325 -0.362878 0.232096 1.616161 -0.327917 0.068978 -0.567110 -1.192480 0.778646 -0.202846 -0.106904 0.595016 -0.970152 -0.204281 -1.047041 0.065800 0.404056 1.211079 1.140423 -0.627185 0.545516 -0.206950 0.360040 -0.415263 -0.016828 -0.239980 0.917554 0.768492 -0.652320 1.060788 0.331260 0.042926 0.889955 0.180963 -1.833937 -1.173673 -0.418261 -0.916557 -0.267190 -1.584841 0.812525 -0.394984 -0.612270
am -0.999897 1.354468 0.201240 0.083521 0.518788 0.688258 -0.871210 0.028403 0.410562 -0.382022 -0.420803 -0.488638 0.502456 -0.227337 -0.735575 -0.204733 -0.701912 0.047471 -0.302019 -0.288327 0.339194 -0.595359 -1.389805 0.638105 2.130760 -0.470456 0.295029 -0.140980 0.101849 1.018510 -0.551424 -0.717680 0.880000 -0.591906 0.088417 -0.363107 -0.182610 -0.240352 0.768030 0.470739 0.037987 -0.109409 -0.246889 0.182921 -1.185840 0.880391 -0.973871 0.019081 -0.578179 0.870096
no 0.780440 1.053720 -0.072493 -0.404815 -0.245344 -1.242171 0.518881 -0.244042 0.727631 1.114098 -0.401340 -0.170882 -0.810600 0.608488 0.402688 0.803335 -1.281077 0.767034 -1.219831 -0.043683 -0.060376 0.007155 -1.639466 -0.831575 0.467867 0.393334 0.190368 -0.300901 -0.070616 0.362489 -0.385876 -0.205723 -0.384393 0.470492 -0.016454 0.632462 0.100822 0.940318 0.453110 -0.969900 -0.644802 -0.114743 -0.702322 -0.294027 -0.579406 0.418514 -1.034166 -0.146539 -0.087273 -0.358960
' 0.533831 -0.247822 -0.231506 0.540629 -0.514805 -0.514615 -0.809167 -1.356492 -0.052982 0.095739 -0.696562 -1.365542 -0.136433 -0.735276 -0.048402 0.043189 0.950038 0.810947 0.578492 -0.638192 -1.087972 0.394750 0.601717 0.315243 1.180403 0.376438 -0.176616 0.887107 0.199383 0.429470 -0.977850 -0.056297 -0.637047 0.212573 0.519688 0.367190 -0.325907 -0.157842 0.201663 0.730002 -0.994171 -1.111175 0.739838 0.158870 -0.487092 0.674418 -0.182877 -0.716388 -0.577920 -1.021001
people -0.004328 -0.225398 0.158320 0.378441 -0.311356 -0.336612 0.410812 0.007522 -0.018756 0.429482 -0.529867 -0.502175 0.807612 -0.439366 0.079893 -0.798459 -0.181836 1.558046 -0.616174 0.634070 -0.240257 -0.482687 -0.599559 -0.539885 0.972496 -0.095867 0.112969 0.031593 -0.443876 0.733808 -0.186480 -0.492949 -1.057555 0.142206 0.409721 -0.188770 0.611563 0.550441 0.219209 0.198805 -0.538633 -0.907229 -0.593350 -0.323106 -1.290398 0.518446 -0.104197 -0.463762 -0.465891 -0.599383
said -0.053941 0.189629 -0.422583 -0.385495 -0.351270 0.595692 0.204613 0.075429 -0.084897 0.941788 -0.069766 -0.571546 1.019214 -0.598943 -0.207331 0.367685 -0.398377 -0.428592 -0.776862 -0.144304 -0.586852 0.374981 -0.270740 -0.203909 -0.163517 1.530093 0.445176 0.489439 -0.834622 0.439601 -0.802947 -0.139572 -1.175068 -0.190293 -0.057983 0.650815 -0.049005 0.357044 0.994518 0.180323 -1.148186 0.240465 -1.046822 -0.404224 -0.667917 -0.132420 -0.568502 -0.523536 -1.240385 -0.396297
back 0.318359 0.096277 0.497099 0.278156 0.215467 0.184422 -0.325018 -0.086124 0.411715 0.217372 0.093261 -1.101010 -0.001845 -0.129645 0.113833 0.643539 -0.950482 -0.307215 -1.374715 -0.607700 -0.045220 0.020854 -0.730742 0.034622 -0.149673 0.014456 0.169078 -0.445065 -0.762991 0.844197 -0.847466 0.120688 -0.003447 -0.297833 -0.320973 -0.914035 0.447072 0.323026 0.310805 0.627911 -0.688329 -0.933088 0.640282 -1.215040 -0.391592 0.940103 -0.424055 -1.474562 -0.042550 -0.035683
... -0.103283 0.199181 0.022958 -0.414029 -0.252304 -0.299632 -0.329195 0.109484 -0.202419 0.533875 -0.635949 -0.635216 -0.059557 -0.258562 0.013994 0.340460 -0.892812 -0.077013 -0.878998 -0.509048 0.581066 0.336013 -1.315471 -0.123465 1.039714 0.445520 0.114241 -0.226618 0.246469 0.870505 -0.222410 -0.222507 -0.001718 -1.116323 0.696586 0.572433 0.439357 0.363369 0.398719 -0.379610 -0.393801 -0.365389 0.037009 -0.082467 -0.206372 0.570466 -0.380964 -0.409986 -0.488357 -0.290239
work -0.266273 0.285013 0.518703 0.965714 -0.302696 0.187195 0.047859 -0.292519 0.048624 -0.343283 -0.328626 -0.187744 0.078200 -0.242251 -0.585790 0.588034 -0.569246 0.103408 -0.760912 0.272295 -0.113667 0.265734 -1.108730 0.110825 0.675167 0.128557 -0.473059 0.051448 -0.079971 0.504729 -0.173778 0.245513 -0.052477 -0.572361 0.542310 -1.082152 0.145498 -0.155107 0.496775 0.197846 -0.704905 -0.390514 -0.196842 -0.203227 -1.093268 0.518264 -0.640144 -0.674801 -0.077100 -0.231770
should -0.014784 0.224390 0.415501 0.455270 0.278554 -0.169380 -0.651423 -0.442776 -0.226492 0.286396 0.504727 -0.539342 0.344982 -0.199051 -0.949856 0.002712 -0.289411 0.878197 -0.587474 0.017595 -0.401850 0.244530 -0.309626 0.738734 0.160636 0.742110 -0.039973 -0.291618 -0.090010 0.526474 0.218283 0.657418 -0.261091 -0.391936 -0.042223 -0.129427 0.547557 0.661191 0.464517 -0.841820 -0.772120 -0.290622 -0.500766 0.437165 -0.483447 0.687177 -1.290758 -0.933635 -0.276648 0.489611
Bush -0.281006 -0.185896 -0.310308 -0.258231 -0.656022 -0.158840 0.617849 -0.413462 -0.016643 -0.175092 0.465824 0.573529 0.626211 0.531620 -0.978103 1.071358 -0.421885 -0.055434 0.713225 0.092310 0.096798 0.317201 -0.275823 -0.071832 -0.112768 1.601552 -1.001720 0.774123 -0.426966 0.300976 -0.288823 0.025449 -1.482952 0.835053 0.225256 -0.578787 0.079846 -0.617566 1.553208 0.567719 -0.950465 -0.131608 -1.186229 -0.177342 -1.164181 0.213983 -0.099480 0.150842 -1.240668 -0.288738
/ -0.326793 0.747832 -0.131160 0.417554 -0.112868 -0.667322 0.066993 -0.642854 0.262180 -0.420490 0.717706 -0.412347 -0.729281 -0.988279 -0.836346 -0.626031 0.182278 -0.699579 -0.286039 -0.131069 0.422897 0.476850 -1.273120 -0.133737 1.470614 0.682902 -0.613540 0.513743 0.201875 1.203402 0.170699 0.238529 0.474925 -0.172618 -0.052624 -0.078481 -0.240111 0.715607 -0.732674 -0.926858 -0.689904 -0.813528 -0.168062 0.356212 -1.014821 0.050083 -1.267104 -0.053850 0.514088 -0.140979
This 0.563708 -0.053849 -0.452172 0.332983 -0.093420 0.027694 0.071774 -0.325871 -0.329857 -0.468436 0.043278 -0.740452 -0.343284 -0.032625 0.022458 0.704720 0.341344 0.292332 -0.732842 -0.600944 -0.214289 -0.357255 -0.913912 -0.363389 0.785139 0.292612 -0.474906 -0.258085 0.661471 0.684255 -1.089686 0.748379 0.062874 0.336198 0.350444 0.306999 0.357117 0.822637 0.406741 0.464427 -0.826397 -0.332226 -0.565584 0.178162 -0.073077 0.497454 -1.205401 -0.606099 -0.238956 0.709026
want 0.805660 0.280557 0.666175 0.450366 -0.229950 -0.138989 -0.487405 -0.502763 0.043881 0.216406 -0.054664 -0.337042 0.481656 -0.368856 -0.395135 0.402375 -0.697751 0.704512 -0.857012 0.184350 0.202344 -0.136190 -0.200663 0.244687 0.286648 0.093678 -0.114520 -0.274983 0.030913 1.094554 0.236293 -0.385473 -0.013505 -0.696714 0.556210 -0.542578 0.372056 0.582571 0.738516 -0.130579 -0.370988 -0.676521 -0.049491 0.543033 -0.353650 1.033557 -0.906249 -1.632430 -0.263670 -0.064964
You 0.060445 -0.717637 0.115053 0.535743 0.307829 0.444301 -0.473408 -0.642391 -0.203334 0.474320 0.227254 -0.559036 -0.000334 -0.480611 -0.243111 0.158138 0.008887 0.933493 -0.969943 -0.010486 -0.284472 0.420886 -0.338628 0.142585 0.142110 0.563897 0.065713 -0.800890 -0.058904 0.614967 0.335425 0.312310 0.008503 -0.491924 0.765582 0.195118 1.221663 1.025841 0.931813 -0.327750 0.078851 -0.691610 -0.189396 -0.066620 -0.220833 1.195060 -0.538163 -1.727179 -1.102301 0.399530
even 0.490600 0.339669 0.360000 0.412461 0.287943 -0.112879 0.045692 -0.251497 0.575225 0.498866 -0.177997 -0.162482 0.860570 -0.303210 -0.125326 0.852381 -1.083601 0.576566 -1.188192 0.561400 -0.006394 0.300742 -0.283293 -0.106681 0.274172 0.530045 -0.414358 -0.242896 0.298910 0.672909 -0.336350 -0.070780 -0.288833 -0.138648 0.279976 -0.943692 -0.797292 0.062602 0.716178 -0.044581 -0.787772 -0.364524 -0.263391 -0.797014 -0.435751 0.148051 -0.908629 -0.877712 -0.566387 -0.328785
her -0.471662 0.285305 0.379394 0.182844 -0.234307 1.102915 -0.053835 -0.172201 -0.265976 0.523353 0.078058 -0.758522 -0.359561 -0.435219 0.662359 0.514215 -0.876778 0.293405 -0.914186 0.151231 -0.100049 -0.087238 -0.954144 0.553384 -0.205409 0.468142 -0.426133 0.416286 -1.001402 1.529674 -0.118781 0.760899 -0.305487 -0.312646 -0.853586 -0.594809 -0.802315 -0.229691 1.106876 0.212044 -0.166856 -0.185676 0.400860 0.090574 -0.979353 0.292404 -0.114641 -1.398094 0.369916 -0.538837
way 0.208337 -0.061995 0.163732 0.525944 -0.050405 0.209511 0.358536 -0.382977 -0.212426 -0.166049 0.184677 -0.271717 -0.100811 0.327795 -0.196074 0.983011 -0.978217 0.328668 -0.573645 0.106829 -0.142851 0.273698 -1.439095 -0.218269 0.741517 0.436698 -0.519108 -0.113673 -0.230360 0.713832 0.038265 0.267194 -0.362625 -0.582888 0.422100 -0.539420 0.087092 0.334168 0.472441 0.146561 -0.729804 -0.530853 -0.546739 -0.408996 -0.880321 0.706764 -0.608652 -0.536809 -0.298615 -0.280879
new 0.295370 0.578621 -0.275574 1.106281 0.029468 0.227704 -0.641645 -0.295740 -0.409794 -0.042500 -0.252968 -0.663659 -0.526582 -0.343472 0.544327 0.108777 -0.207857 0.392633 -0.675997 -0.008466 -0.226470 0.235099 -0.671993 -0.292618 -0.296348 0.357988 0.367163 0.575779 0.069737 0.194698 0.049577 1.514504 0.151939 0.715759 0.983963 0.544985 0.597018 0.241128 1.397845 -0.534575 -0.722789 -0.590182 0.401978 0.001467 -0.542876 0.688140 -0.117781 -0.872127 0.639452 -0.088955
than 1.126773 0.228490 -0.171006 -0.298264 1.159306 0.014981 0.413163 -0.704186 0.112719 0.881321 0.246269 -0.609518 0.474138 -0.286650 -0.116196 0.159399 -1.321506 1.173233 -0.799320 0.022012 0.131070 -1.265288 -0.765729 -0.969152 0.852488 1.284643 -1.033325 -0.353885 0.513738 0.480784 0.353070 -0.041439 0.045905 0.609607 0.560784 0.170736 -0.214513 1.100479 0.553525 -0.054172 0.524311 -0.715406 -1.135366 -1.497533 -0.746582 -0.308938 -0.655480 0.052306 -0.666479 -0.711868
'm -0.254947 1.189465 0.270598 -0.125497 0.127448 0.249862 -0.689801 0.222502 0.379798 -0.182510 -0.824796 -0.143934 0.672590 -0.309224 -0.620369 0.164564 -0.742109 0.662937 -0.428513 0.252527 0.352426 -0.381355 -1.436387 0.907635 1.265064 -0.621912 0.400145 -0.256503 0.104623 1.033848 -0.613774 -0.991687 1.089722 -1.416600 0.303617 0.453612 0.612426 -0.000930 0.726984 1.045603 -0.331211 -0.177228 0.005301 -0.017042 -1.141552 1.434078 -0.706556 0.300427 -0.359843 0.804533
into 0.810596 0.599413 0.145768 0.805387 0.661013 -0.092493 -0.862976 -0.116151 -0.025902 -0.861718 0.005568 -0.500559 0.091407 0.703560 0.560903 0.155438 -0.454974 0.691037 -0.543493 -0.212107 -0.789702 0.022397 -0.670768 -0.350119 -0.064224 0.043305 1.178567 0.388115 -0.628490 0.320805 -0.376682 0.337370 -0.744959 0.449645 -0.052887 0.052725 0.440437 0.271738 0.480504 0.515260 -0.710845 -0.678654 0.615250 -0.569466 -0.426505 1.254449 -0.082745 -0.398625 -0.062895 -0.205915
then 0.469948 0.078562 0.141629 -0.058738 0.228928 -0.012829 -0.257057 -0.111723 0.217969 0.777466 0.755624 -0.961657 0.125845 0.213884 0.216913 0.617326 -0.982096 0.470294 -1.256994 0.154461 -0.384434 0.207741 -0.586890 0.589507 -0.147879 0.369394 0.159808 -0.440047 -0.625856 0.840662 -0.379671 0.030668 -0.700710 -0.375118 -0.192055 -0.397416 0.190731 0.060354 -0.438059 0.459814 -1.293899 -0.612281 0.271307 -0.710646 -0.325545 0.619443 -0.294161 -0.691301 -0.370129 -0.077535
He -0.418382 0.198476 0.301664 -0.351404 -0.091960 -0.070225 -0.388417 -0.052553 -0.019266 1.202366 -0.698609 -0.597006 0.015760 -0.306909 -0.528121 0.612784 -0.281533 -0.160448 -0.867150 0.351713 -0.501289 0.515474 -0.741210 0.723219 0.061846 0.924649 -0.555239 0.168670 -0.595067 0.653306 -0.677182 0.073371 -0.469619 -0.228533 -0.079590 -0.003631 0.241093 0.512490 0.914981 -0.038488 -0.932377 0.145832 -0.539395 -0.982866 -1.278483 -0.098374 -0.400859 -0.476534 -0.446165 -0.236369
now -0.200847 0.437093 -0.305308 -0.162597 -0.366667 -0.313610 -0.054818 0.355068 0.617657 -0.205542 0.233419 -0.655028 0.332484 0.083857 -0.326263 0.105769 -0.976212 0.747423 -0.867016 -0.208748 -0.035732 -0.120747 -0.751573 0.122235 0.854561 0.739935 0.486434 0.044544 -0.650905 0.527458 -0.191002 0.126535 -0.668360 0.028755 -0.024097 0.260606 0.209826 0.722727 0.185509 0.285424 -0.082053 -0.459697 -0.308713 -0.392098 -0.772060 0.389254 -0.765930 -0.482688 -0.757949 -0.182106
she -0.273303 0.701039 -0.233099 -1.180857 -0.768708 0.400506 0.009313 0.325474 -0.381084 0.635733 -0.163762 -0.175868 -0.202669 0.322484 0.087534 0.632459 -0.873560 0.323153 -1.029555 0.287311 0.153805 0.588638 -1.101196 0.783579 0.413895 0.958453 -0.407897 0.070466 -0.468569 1.917041 -0.445411 0.260937 -0.642115 -0.591296 -0.480967 0.002718 -0.761466 0.477235 1.028146 0.215394 -0.518103 0.724480 -0.214434 -0.080639 -1.213754 0.201733 -0.487236 -1.638040 -0.087037 -0.273822
In -0.132200 0.409098 -1.045731 1.043897 -0.032747 0.210580 0.980975 0.068984 -0.471603 0.497966 0.069239 -0.533721 0.418036 0.119665 -0.157009 -0.067895 -1.204254 0.201146 -0.946165 -0.237506 0.593160 0.117426 -0.225159 -0.113011 0.850799 0.419129 0.376916 0.107139 0.022750 -0.552656 -0.543960 -0.089801 -0.421217 0.390473 -0.360846 0.205316 -0.198777 0.142128 0.147453 0.229206 -1.521108 -0.342134 -0.740113 0.051444 -0.254946 0.942806 -0.248318 -0.393981 -1.181594 0.627203
because -0.016090 0.658742 0.333647 0.318247 -0.244848 -0.513358 0.214828 -0.151826 -0.293135 0.285101 -0.513207 -0.287197 0.265259 -0.087248 0.205986 0.288415 -0.933773 0.472175 -0.617519 0.654801 -0.395199 0.121009 -0.888300 0.061295 0.314825 0.872915 -0.157461 0.126986 -0.358661 0.663803 -0.679207 0.328602 0.278313 -0.177460 0.265048 -0.276928 -0.247077 0.560945 0.649868 -0.351895 -0.555669 -0.545281 -0.089611 -0.297372 -0.734531 0.397949 -0.702371 -0.772527 0.138762 -0.524157
going 0.520118 0.618381 0.384365 0.066418 0.262432 0.016915 -0.772103 0.083806 0.141610 -0.421823 -0.483171 -0.619473 0.337576 -0.142732 -0.142295 0.404170 -0.687803 0.049622 -0.930309 -0.660171 -0.206939 -0.229617 -0.810315 0.418825 0.525381 0.385819 0.983223 -0.505974 -0.692041 0.654998 -0.113405 -0.494442 0.075364 -0.831906 0.507915 -0.606836 0.375416 0.311288 0.728126 0.497479 -0.608440 -0.261207 0.010185 -0.591119 -0.542401 1.272716 -0.462054 -0.911628 -0.128745 0.174523
see -0.494828 -0.407601 0.352590 0.344474 -0.199553 0.637266 -0.361154 0.196371 -0.489781 0.428615 -0.115563 -0.258920 -0.172354 0.254009 -0.790748 0.777029 -0.633453 0.860470 -1.313874 -0.173182 -0.090313 -0.321380 -0.736676 -0.361944 0.847024 0.151566 -0.241248 -0.733695 0.086106 1.272938 -0.102024 -0.409113 -0.685512 -0.541736 0.528356 -0.185771 0.390393 0.491773 0.240867 -0.963547 -0.103608 -0.148120 -0.024089 -0.179908 -0.781509 0.654101 -0.276869 -0.545854 0.127762 -0.318775
place 0.626108 -0.066305 -0.348688 0.183936 -0.207749 0.351956 0.387936 -0.361849 -0.214104 -0.464535 -0.536207 -0.750321 -0.387945 -0.406516 0.268732 0.307809 -0.679266 0.314365 -1.242704 0.066399 0.179277 -0.831566 -1.175264 0.186667 0.827675 -0.072486 -0.124370 -0.315410 0.267330 0.739053 -0.745913 0.265881 0.392738 -0.241581 0.461282 -0.360729 0.711617 0.589963 0.670960 0.639388 -0.735490 -0.836957 0.103401 -0.445660 -0.355793 0.453680 -0.287624 -1.136264 -0.017189 0.492216
need 0.267162 -0.051603 0.393024 0.630302 0.406316 -0.027935 -0.015098 -0.089947 0.009913 0.331034 0.406620 -0.822253 0.305358 -0.410559 -0.888198 0.049095 -0.610167 0.888661 -0.948192 0.028010 0.078584 -0.314097 -0.611314 0.238195 0.438986 0.304572 -0.007572 -0.752546 0.177536 0.929905 0.575965 -0.112171 0.241451 -0.188554 0.567438 -0.314813 0.490284 0.495073 0.349063 -1.222644 -0.251496 -0.520552 0.261632 0.628671 -0.412992 0.803127 -0.753310 -1.026217 -0.381132 0.174794
may 0.466884 0.281459 0.235947 0.331033 0.671709 -0.191321 -0.559440 -0.569066 0.327766 -0.306972 0.257452 -0.530958 0.554923 -0.254681 -0.313162 -0.563488 0.249329 1.027395 -0.589948 0.274603 -0.334280 0.344053 -0.721448 0.123546 0.238153 0.776326 0.313954 -0.873415 -0.024724 0.567527 0.314215 0.679500 0.305575 0.028843 -0.068723 -0.181650 0.090624 0.461911 0.812941 -0.567094 -0.418054 -0.049377 -0.740474 0.698135 -0.406856 0.844838 -0.930348 -1.600279 -0.832378 0.574507
take 0.298553 -0.354430 0.568160 0.323395 -0.031533 0.130816 -0.001615 -0.596592 -0.137658 0.136439 -0.089706 -0.491198 -0.008219 0.135094 -0.483662 0.924517 -0.936727 0.339872 -0.879328 0.546531 -0.643612 0.131495 -0.681095 0.036083 0.149337 0.375080 -0.355253 -0.220943 -0.796924 0.750608 0.082104 -0.036786 -0.258366 -0.109916 0.640085 -0.648775 0.360556 0.589244 0.123841 -0.004752 -0.600915 -0.529982 0.283734 -0.119664 -0.401360 1.091025 -0.209395 -1.043759 -0.032015 -0.010332
over 0.519905 0.222158 0.123996 0.144451 0.859935 -0.042257 0.021693 -0.016547 0.025054 -0.466805 0.981448 -0.772851 0.328434 -0.061381 -0.734448 -0.315639 -0.345623 -0.064576 -0.264254 -0.296630 -0.466115 -0.756658 -0.841292 -0.280983 -0.094254 0.756893 0.049989 0.078473 -1.106769 0.901211 -0.630870 0.325868 -0.743545 0.547198 0.264179 0.087361 1.152936 0.668573 0.309503 0.468332 -0.414387 -1.118669 0.038261 -0.446953 -0.860513 0.353708 -0.426945 -0.377740 0.127561 -0.234130
how 0.225544 0.440924 0.331755 -0.391257 -0.235356 0.428868 -0.620788 -0.237294 0.009809 -0.154320 -0.754469 -0.269107 0.591247 -0.075156 -0.428555 0.392471 -0.652781 1.017923 -0.624573 0.532209 -0.561009 -0.535828 -0.878568 0.230135 0.206399 0.459557 -0.696657 0.055010 -0.087953 1.688862 0.141248 -0.691041 -0.249448 -0.443080 0.826752 0.119690 -0.020581 0.081181 0.964487 -0.458359 -0.863058 -0.054224 -0.358532 0.226125 -1.152403 0.920507 -0.008009 -0.814471 0.238470 -0.671582
after -0.302373 0.594888 0.041784 0.220068 0.174128 0.302236 0.308379 -0.228531 0.722491 0.069099 0.091039 -0.875494 0.548408 0.332782 -0.167807 0.340049 -1.010738 0.051473 -0.725860 0.110503 0.308811 0.068588 -0.194405 0.167373 0.355859 0.815928 0.518170 -0.227767 -0.633674 0.091466 -0.528386 -0.050040 -0.124937 0.813413 0.219941 -0.452824 -0.813493 -0.323021 -0.298458 0.790430 -1.005751 -0.579038 -0.366795 -0.936665 -0.519276 1.381853 -0.372019 -0.218645 -0.470115 -0.246684
well 0.107468 0.112029 -0.022526 0.230684 0.160855 0.891281 -0.693314 -0.081646 0.119535 -0.425637 -0.394316 -0.412865 0.105776 -0.584773 -0.466006 0.159206 -0.136869 0.652405 -0.564883 -0.092101 -0.776914 0.151401 -1.170160 0.392243 0.716345 0.022725 -0.660663 -0.399665 0.389654 0.501606 0.000172 -0.508637 -0.538229 -0.112649 0.950575 0.489422 -0.159726 0.208132 0.854699 0.301005 -1.259780 -0.124749 -0.219921 -0.087444 -1.252009 0.584816 -0.263106 0.071028 0.070194 -0.061746
A -0.136512 -0.432689 0.171587 0.610997 -0.017478 0.552921 0.068789 -0.430982 0.210374 0.136484 -0.076223 0.151733 -0.243535 -1.525619 0.219139 0.859104 -0.465938 -0.341178 -0.806590 0.084849 0.181351 0.519559 -0.142339 -0.722040 0.465437 0.498893 -0.665321 -0.571667 0.103619 -0.747125 -1.124207 -0.767553 0.861540 0.519418 0.978775 1.389934 0.106443 1.537902 0.372157 0.695827 -0.074230 -0.923373 -0.352643 -0.250554 0.669896 1.229774 -0.718397 0.098940 -1.463146 0.780516
think -0.209082 0.174031 0.419041 -0.050998 -0.498659 -0.121679 -0.313564 -0.064178 -0.418743 0.556813 -0.143016 -0.371079 0.518473 0.096889 -0.544125 0.478246 -0.649184 0.842205 -0.700428 0.158227 0.012807 0.054478 -0.484891 0.531467 0.535719 0.501595 -0.205573 -0.256814 0.467832 0.825301 -0.387196 -0.266254 -0.032591 -0.609117 0.565728 -0.319093 0.705638 -0.005035 0.676484 -0.240714 -0.626619 -0.197385 -0.075092 0.832283 -0.599881 0.952520 -0.702132 -0.937162 -0.660532 0.139584
before -0.090767 0.310825 0.255002 0.328451 0.409598 0.230806 -0.201724 0.144755 0.672996 0.177095 0.187751 -0.816084 0.334464 0.184293 -0.134028 0.407619 -0.684811 0.104125 -0.767744 0.176180 0.226382 -0.026883 -0.364209 0.361485 0.257098 0.531280 0.249608 -0.434071 -1.008769 0.311699 0.037946 0.193689 -0.259080 0.576780 0.439233 -0.600638 -0.439619 -0.374632 0.597867 0.210769 -0.903434 -0.338359 -0.161846 -0.727748 -0.781550 0.807188 -0.088453 -0.570524 -0.641447 -0.047040
make 0.579283 0.432011 0.408440 0.539468 0.141414 0.189767 -0.406762 -0.402334 -0.648530 0.274627 0.299950 -0.786090 0.116769 0.050699 0.163202 0.694986 -0.746583 0.758170 -0.968754 0.017444 -0.638501 -0.271083 -0.346382 1.159107 0.703305 0.710987 0.439778 -0.221599 -0.058062 0.921726 0.131192 -0.297920 0.487020 -0.528185 0.497878 -0.743174 0.314849 0.541348 0.515933 0.225625 -0.603127 -0.179953 -0.071804 0.212275 -0.683450 0.421539 -0.709903 -0.429653 0.169017 0.300071
much 0.617273 0.327569 -0.173607 -0.355890 0.398009 0.823483 -0.545753 -0.547690 -0.132788 -0.281113 -0.130364 -0.403192 0.607052 -0.087034 -0.303911 -0.066800 -0.742288 1.199497 -0.973951 0.026645 0.041013 -0.609275 -0.802988 -0.051778 0.203028 0.875836 -0.801105 -0.364880 0.757228 0.751870 0.507875 -0.634203 0.144661 -0.245647 1.004180 0.216896 0.478752 0.741602 0.726560 0.364769 -0.250851 -0.167438 -0.983242 -0.653000 -0.928462 0.339032 0.103914 -0.634645 -0.341856 -0.433408
year 0.460252 0.507527 -0.484275 0.352569 0.065925 0.944825 0.097042 -0.307018 -0.038986 -0.329841 0.935519 -0.020355 0.087408 0.482541 -0.312457 0.242819 -0.366923 -0.234735 0.147289 0.287052 0.616984 -0.478269 -0.491644 -0.002789 0.548737 1.364314 -0.205680 -0.457952 0.108775 0.582200 0.078362 0.936256 0.460509 1.121387 1.233515 -0.067238 0.280935 -0.049013 1.132244 0.886113 -0.706591 -1.114871 -0.178889 -0.253591 -0.976443 1.302787 0.214793 -0.417974 -0.118220 0.483367
us -0.106073 0.141776 0.566527 0.359898 0.807534 -0.334112 0.166195 0.381839 -0.058263 0.860991 0.483151 -1.068774 0.114951 -0.252200 0.018914 0.792443 -0.254131 1.032876 -0.462474 -0.235605 -0.284923 -0.546887 -0.943896 -0.115693 0.056746 0.664212 0.129593 -0.192964 -1.360440 1.443728 -0.064771 0.309294 -0.564845 -0.038655 0.435782 -1.085305 0.172142 -0.332524 0.899994 -0.852880 -0.795048 0.210152 -0.165639 0.604173 -0.441053 -0.164987 -0.880356 -0.563254 0.419781 -0.154801
day 0.070060 0.149668 -0.298567 -0.099577 0.347061 0.921792 0.824625 -0.840584 -0.073188 0.645032 0.429197 -0.440348 -0.311482 0.428031 -0.654653 0.634644 -0.393490 -0.332526 -0.398032 0.557408 -0.047172 -0.382743 -0.896999 0.427424 0.904733 1.031739 0.022308 -0.483791 -0.130595 0.321119 -0.389800 0.499881 0.429666 -0.064872 1.286946 -1.342272 -0.128986 0.140766 0.264504 -0.274012 -1.317647 -0.865994 -0.256157 -0.806710 -0.493608 0.368406 -0.105759 -0.613447 0.316360 0.027657
US 0.388691 0.186336 -0.394111 0.937979 0.511142 -0.567384 -0.259304 -0.240568 -0.455989 -0.377385 0.780057 0.723858 0.242668 0.190780 -0.768484 -0.082411 -0.284067 0.605639 -0.092099 -0.278285 -0.686047 0.521825 -0.579128 -0.678785 -0.136914 0.591166 -0.206451 0.109861 -0.147486 -0.612377 -0.462396 0.165775 -1.886827 0.576539 -0.655938 0.103867 0.140491 0.857280 0.092442 -0.051742 -0.957199 -0.707058 -0.982560 0.167821 -0.590139 0.112269 -1.168436 0.262948 -0.553065 -0.044956
many -0.198734 0.413996 0.461995 -0.113688 -0.227134 0.241885 0.362779 0.259480 0.486485 -0.238863 -0.569819 -0.506218 0.642209 -0.239664 0.197186 -1.496283 -0.662252 1.297154 -1.027908 0.702290 -0.337512 -0.236071 -0.890088 -0.472543 0.492698 0.521815 0.079406 -0.585197 0.217341 0.393327 0.618408 -0.678539 -0.864364 0.121268 0.974209 0.262474 0.150036 0.779910 0.242399 -0.422809 -1.056098 -0.355593 -0.336355 -0.214340 -1.084642 0.268675 0.685712 -0.722907 0.215156 -1.117556
great -0.262597 -0.000870 0.374096 0.483604 0.240275 0.416615 0.738708 0.204697 -0.176568 -0.088305 -0.528189 -0.014789 -0.603670 -0.937237 0.060799 0.607214 -0.466124 0.520307 -0.891368 0.533494 0.162643 -0.299519 -1.097929 0.004829 0.687669 0.196787 -0.721529 -0.045882 0.700839 0.369794 -0.531187 0.222993 0.277341 -0.264067 1.335384 -0.850093 0.808561 0.842248 1.244824 0.567564 -0.861515 -0.160273 -0.347224 -0.692331 -0.172183 -0.280817 -0.169070 -0.558445 0.561852 0.735759
these -0.829464 -0.120099 0.901998 0.888059 -0.257790 -0.072524 0.709064 0.536416 0.030582 0.220505 0.196216 -0.773291 0.486566 -0.118738 -0.137685 -0.257096 -0.336382 1.592558 -0.974852 0.532110 0.305810 -0.762703 -0.482063 -0.403265 0.760710 0.073574 0.438494 0.096984 -0.818163 0.670247 0.417611 -0.279783 -0.505545 -0.015465 1.271147 -0.415934 0.739933 0.357119 -0.062391 -0.778993 0.063954 -0.513766 -0.404026 0.551207 -0.771171 0.424083 -0.140693 -0.472630 -0.189855 -0.923369
2 0.237546 0.604959 -0.214504 -0.204292 -0.170347 -0.044264 0.302265 -0.919152 0.476486 0.363770 0.506390 -0.894790 -0.942699 0.052367 -1.076614 0.235204 -0.410812 0.027495 -0.374403 -0.034256 0.557267 -0.212252 -0.627772 0.579395 1.208425 0.718297 0.557985 -0.164812 -0.499146 0.087401 0.015194 -0.260134 -0.282214 0.202689 0.995774 -0.204214 0.516902 0.339228 -0.574201 0.405163 -0.886826 -0.961664 -0.431100 -0.779110 -0.519557 1.054452 -0.433325 -0.203402 -0.065288 0.001147
Thanks -0.217114 -0.294407 -0.100678 0.278761 -0.143757 0.771714 0.020722 0.101275 0.062996 0.236298 0.726997 -0.891338 0.009834 -0.309995 -0.739010 1.239764 0.177964 0.548627 -0.530465 -1.037187 1.076046 -0.766760 -0.650160 -0.381358 0.706704 0.132807 -0.449122 -0.342256 0.024938 1.085684 -0.197467 0.034419 0.401998 -0.476582 0.877203 -0.036927 0.864131 -0.034489 0.482097 -0.749106 -0.590269 0.190022 0.034499 0.956933 0.415528 0.190287 -0.863361 -0.555895 -0.461302 1.204809
s 0.281963 0.167425 0.155159 -0.073881 -0.528828 0.055730 -0.227773 -0.405152 -0.270924 0.095324 -0.253294 -0.866755 -0.560998 -0.313420 -0.170352 0.564548 -0.464912 0.499295 -1.276169 -0.022783 0.166057 0.509917 -1.274638 0.114412 0.736665 0.523063 -0.326224 0.584331 0.707452 0.575702 -0.117296 0.768623 0.653808 -0.806945 -0.276150 -0.236306 0.278256 0.604320 0.014721 -0.110088 -0.868684 0.062485 0.305154 -0.829804 -0.442075 0.449193 -0.556786 -0.101178 0.110656 -0.258072
-- 0.223926 0.097205 0.006922 0.090816 -0.048901 -0.389731 0.047131 0.526338 0.141974 -0.256167 -0.565315 -0.729704 0.901622 -0.486818 0.042830 -0.353502 -0.302955 -0.181097 -0.254727 0.029503 0.058449 -0.521705 -0.297581 -0.119375 0.821186 0.237058 0.343046 0.330211 0.540228 0.325601 -0.599449 -0.137557 -0.136054 -0.036467 0.920692 -0.133458 0.367085 0.011225 0.459237 -0.251411 -1.414249 -0.318796 -0.168315 0.240760 0.238247 -0.362669 -0.081551 0.235074 -0.875949 -0.163130
food 0.492080 0.041694 0.400335 0.090788 -0.062896 -0.040784 0.274474 -0.244876 0.172704 0.099192 -0.769647 -0.505540 -0.782684 -1.126340 0.826921 0.099228 -0.692502 0.946909 -1.192833 0.438153 0.175592 0.011728 -0.726280 -0.153619 0.963688 -0.169818 -0.289954 0.084609 1.165481 0.515388 -0.350179 0.800717 -0.011244 -0.313985 0.652679 -0.124128 0.261889 0.898931 0.238018 0.518874 -0.472170 -0.456222 -0.222028 -0.792315 0.214872 -0.240721 -0.633567 -0.461799 0.437700 -0.316499
service -0.121389 -0.801032 0.300115 0.499732 -0.343803 0.402119 0.764093 0.283553 0.278472 -0.453780 -0.406444 0.255732 -0.651740 -0.845134 0.242515 1.370407 -0.539125 0.290006 -0.609507 0.171363 0.319741 0.036944 -1.059758 -0.564252 0.666165 0.124769 -1.140399 -0.137154 0.259159 0.451037 -0.983938 0.836366 -0.298370 0.436940 0.355214 -1.136499 0.447627 0.380505 1.151845 0.920976 -0.920345 -0.312671 -0.500638 -0.639259 -0.000103 -0.377773 -0.437194 -0.340068 0.056953 0.728219
two -0.394352 0.471262 0.433384 0.530351 0.058921 0.220210 0.684003 -0.102218 0.590206 0.333697 0.138493 -0.785885 -0.123788 -0.466281 -0.090857 -0.326184 -0.511930 0.887134 -0.192112 0.546121 0.379718 -0.279086 -0.233734 0.017585 0.785097 0.735440 0.979910 0.068426 -0.857769 0.336797 0.252842 -0.002923 -0.571507 0.298960 1.334446 -0.160059 -0.356499 0.457505 -0.221806 0.059745 -0.267169 -1.062355 -0.206463 -1.399831 -0.860656 0.660429 -0.156684 -0.551741 -0.213789 -0.882120
its 0.533507 0.497200 0.095659 1.035804 0.107259 -0.229204 0.013303 0.008944 -0.122634 -1.243851 0.195848 -0.222800 0.347309 -0.123713 -0.075637 -0.148629 -0.397330 0.219432 -0.669879 -0.050321 -0.404703 0.457753 -0.814804 -1.243581 -0.535801 0.496495 0.077306 0.560404 -0.242220 0.193174 -0.527160 1.755273 -0.343166 0.577214 -0.694068 0.639219 -0.785507 0.571721 -0.148030 -0.192273 -0.408405 -0.372601 -0.124128 -0.094972 -0.525264 1.151146 -1.091643 -0.161063 -0.198233 -0.560342
call -0.588385 -0.077357 0.244657 0.670983 0.458090 0.162659 -0.977276 -0.004182 0.054746 1.258425 0.350667 -1.287696 0.036875 -0.136195 -0.930437 0.998972 0.102458 -0.571223 -0.600142 -0.931415 -0.315996 -0.422058 0.062020 0.157733 0.768670 0.523899 -0.590637 -0.655698 -0.704746 1.278871 -0.111601 0.338003 0.439073 0.114821 0.514515 -0.401140 0.267649 0.569500 -0.115866 -1.026391 -0.483933 -0.526476 0.492360 -0.417730 -0.503908 0.197031 -0.881401 -0.600789 -0.169878 0.763974
'll 0.415846 -0.037273 0.251912 0.271433 0.558641 0.696717 -1.080952 -0.449838 0.049763 0.943992 0.683967 -0.535402 0.107607 0.018477 -0.189494 0.210328 -0.571678 0.695801 -1.120992 -0.326402 -0.349984 -0.172599 -0.911887 0.160230 -0.046381 0.298096 0.298035 -1.729782 -0.283840 1.054238 0.204445 0.231907 0.622809 -0.324799 0.037606 -0.003066 1.214450 0.215980 0.777645 -0.212166 -0.258470 -0.657874 0.492571 0.002317 -0.358974 1.753905 -0.068232 -1.012896 -0.434278 0.748441
best 0.524577 -0.291143 -0.000197 0.871102 0.081576 0.237279 0.165127 0.108843 -0.266004 -0.449713 -0.739652 -0.218562 -0.694717 -0.329812 0.491131 0.486487 -0.541703 1.129504 -0.932901 -0.404460 0.353660 -0.419627 -1.100107 -0.017315 0.800552 -0.145406 -0.107097 -0.721739 0.785159 0.294962 -0.573170 0.802477 0.043005 -0.603627 0.493369 -0.223887 0.828421 0.309451 0.859191 0.542550 -0.213102 -0.457227 -0.222552 -0.295925 -0.216612 0.162160 -0.263096 -0.833095 -0.074890 0.198321
years -0.261257 0.819919 -0.307479 -0.337039 -0.083252 0.375448 0.593027 0.068977 0.842467 -0.368770 0.501397 -0.371069 0.080459 -0.429934 -0.724569 -0.580025 -0.923845 0.247175 -0.206621 0.277478 1.250385 -0.640193 -0.201032 0.323358 0.784804 0.937232 0.005888 -0.081478 -0.298058 0.056524 0.358110 0.052710 -0.711539 1.233511 0.678687 0.653549 0.262315 0.310350 0.395962 1.060316 -0.312005 -0.902291 -0.391843 -1.237060 -1.250461 1.347915 -0.007234 -0.368133 -0.555733 0.005314
first -0.158816 -0.108684 -0.128995 1.126233 -0.108610 0.245343 0.192526 -0.018592 0.087917 -0.150602 -0.083721 -0.548469 -0.298640 0.467571 -0.118088 0.560406 -0.192867 0.032959 -0.571844 0.246538 0.045492 -0.305012 -0.740620 0.435320 0.553259 0.382874 -0.288867 -0.152978 -0.374531 0.389882 -0.550376 0.794695 -0.041619 0.906672 0.790576 -0.615719 -0.039168 -0.380098 0.930614 0.139345 -0.619494 -0.916855 -0.357030 -0.702223 -1.050511 0.508048 -0.054119 -0.516872 -0.307733 -0.353603
help -0.593834 -0.008677 0.319892 0.543808 -0.095274 0.675300 0.246541 -0.184677 -0.220932 0.022100 0.680763 -0.398457 -0.205788 -0.346520 -0.411944 0.611788 -0.767158 0.674799 -0.868635 -0.182446 0.206065 -0.215207 -1.281378 -0.256839 0.393138 0.077773 -0.840588 0.061594 -0.574152 1.014049 0.328093 -0.129576 -0.175412 -0.255342 -0.139934 -0.577902 0.160015 0.262084 0.634892 -0.905472 -0.074734 -0.015819 -0.169093 0.936550 -0.523001 -0.002171 -0.700918 -0.824563 0.466675 0.101885
being 0.096058 0.437755 0.115607 0.477562 0.107954 0.015895 -0.894254 -0.208024 0.626897 -0.217348 -0.529859 -0.497130 0.488838 -0.018495 -0.100414 0.188268 0.386766 0.619404 -0.706600 0.033561 -0.394378 0.411086 -0.679546 -0.124442 0.391522 -0.244230 0.269335 0.274816 -0.267560 0.310332 -0.512507 -0.340457 -0.773720 0.250320 0.128559 -0.193249 -0.421713 -0.171864 0.298914 0.819709 -1.118410 -0.183978 -0.772419 -0.430443 -1.400550 0.461458 -0.335947 0.031394 -0.381775 -0.566846
does 0.561608 0.477087 -0.007926 -0.017273 -0.995269 -0.303759 -0.237998 -0.471581 -0.646125 -0.117132 -0.824613 -0.061108 0.885032 -0.124654 -0.686226 0.561533 -0.773672 0.309596 -0.905590 0.434692 -0.084629 0.543532 -0.697349 0.178863 -0.062250 1.015623 -0.384706 0.697404 0.270327 1.007321 0.387420 -0.052307 -0.082074 -0.589953 -0.060717 -0.090561 -0.009828 0.671768 0.521834 -0.439489 -0.826157 0.423170 -0.735298 0.183536 -0.898496 0.747608 -1.047776 -0.994056 -0.228738 0.015799
Please -0.525871 -1.010111 -0.081276 0.760103 -0.346691 0.566514 -0.365724 0.065829 -0.252515 0.170108 0.850418 -0.977241 -0.500691 0.298959 -1.841110 1.640120 -0.085479 0.167082 -0.996801 -0.842031 0.245636 -0.777443 -0.467255 -0.371188 0.374453 -0.120548 -0.277796 -0.121180 -0.630999 1.195648 -0.124831 -0.043944 0.211788 -0.272476 -0.180692 -0.449421 0.110486 -0.277598 -0.204250 -2.067933 -0.324428 0.157198 0.492136 1.281163 0.065916 0.777945 -0.935554 0.054688 0.095299 0.585427
really 0.056062 0.110486 0.456995 -0.339034 -0.271609 -0.056003 -0.034598 -0.097953 -0.361697 0.222071 -0.605806 -0.649829 -0.017437 -0.720593 -0.305583 0.565574 -0.473319 0.644840 -1.069398 0.290746 -0.005108 -0.303699 -1.334187 0.326993 0.635451 0.276512 -0.100762 0.184763 0.314165 1.247367 -0.096109 -0.525124 0.326632 -1.180828 0.523038 -0.422909 1.052631 0.405157 0.784845 0.234630 -0.561177 0.248565 -0.005483 -0.156205 -0.819103 0.295038 -0.236466 -0.378884 0.038225 0.111542
made -0.277471 0.240025 -0.345040 0.254406 0.784040 -0.136163 0.247248 0.296757 -0.040454 0.568203 0.159689 -0.697396 0.342380 -0.180248 -0.029916 -0.058233 0.162618 0.140215 -0.079904 -0.365134 -0.293698 0.052797 -0.777185 -0.012198 0.183238 0.956197 -0.011938 0.011496 -0.115335 0.614942 -0.648271 0.324377 -0.199855 -0.045215 0.524352 0.236961 0.044146 0.000904 0.804407 -0.227347 -0.696405 -0.109686 -0.525151 -0.038206 -0.990203 -0.148712 -0.615467 -0.147237 -0.485192 -0.331119
use -0.083735 0.490778 0.521862 0.796734 -0.406202 -0.352617 -0.102390 0.121300 0.169732 -0.270028 0.355049 -0.514983 0.205110 -0.525194 0.082185 0.503764 -0.459648 0.356408 -0.653133 0.064234 -0.239070 0.745642 -0.451894 0.229649 -0.271926 0.395795 0.161142 0.186918 0.023517 0.537242 -0.272776 0.359645 0.001958 -0.443327 0.182820 -0.008450 0.269352 0.637022 0.066852 -0.455740 -1.045437 -0.233958 -0.532489 0.393479 0.083658 0.588718 -1.393295 -0.624462 0.598803 -0.358478
still 0.123676 0.607146 0.221433 -0.201693 0.201685 -0.377251 -0.544985 0.112963 -0.117117 0.295055 -0.298126 -0.227651 0.743574 0.275461 -0.072886 -0.052507 -0.882853 0.682972 -0.533934 0.020903 -0.413125 0.052118 -0.948019 0.557525 0.735737 0.174847 0.516693 -0.734460 -0.027699 0.315086 -0.080414 -0.781629 -0.163887 -0.697472 0.172038 0.132856 0.774512 0.320215 0.277884 0.380571 -0.461270 -0.367776 -0.225531 -0.000159 -0.892991 0.868798 -0.475948 -0.057937 -0.524151 0.119436
most 0.382860 0.364733 0.283758 0.016868 0.070745 0.115550 0.516640 -0.458716 -0.349154 -0.143281 -0.419463 -0.110310 0.087870 0.028352 0.510135 -0.562756 -0.521861 0.869483 -0.538632 0.526375 -0.263654 -0.487835 -0.781639 -0.510220 1.295431 0.768021 -0.258667 -0.499152 0.276834 0.445954 -0.419256 0.397886 -0.039643 0.545027 0.226728 0.107564 -0.185730 1.042386 0.427915 0.548551 0.091309 -0.138106 -0.890315 -0.021383 -0.548442 0.208088 -0.089585 -0.351847 -0.299932 -0.229169
here -0.012716 -0.001145 -0.067924 -0.004367 -0.083785 0.259107 0.629887 0.260077 0.371769 -0.177749 -0.610182 -0.294640 -0.019698 -0.531030 -0.253449 0.385257 -0.903924 0.389950 -1.283424 0.124771 0.719923 -0.196612 -0.862333 0.108038 0.237050 -0.437405 0.182179 -0.230143 0.315392 0.621627 -0.296189 -0.160258 -0.119193 -0.111245 0.486871 -0.349450 0.586171 -0.107412 0.724954 0.363242 -0.639230 -0.456889 0.196104 -0.748710 -0.333536 0.869335 -0.094992 -0.908543 -0.054859 0.489641
same 0.438226 -0.088617 -0.366883 0.947220 0.003242 0.174618 0.765982 -0.064975 -0.572791 0.312736 -0.148293 -0.057376 0.034452 0.565535 0.288706 0.331224 -1.012289 0.089065 -0.239177 0.630158 -0.738125 0.137937 -0.737665 0.370326 0.622681 0.645321 -0.006137 0.098575 0.417869 -0.166207 -0.207631 0.604040 -0.318339 -0.002085 1.360736 -0.427663 -0.206373 -0.094826 0.832588 -0.691090 -1.204654 -0.591717 -0.453540 -0.142514 -0.567106 -0.125772 -0.041135 -0.206200 -0.353312 -0.782615
My 0.102308 -0.257668 -0.394935 0.216259 -0.759482 0.317002 0.833543 0.271153 -0.079604 -0.312674 -0.695894 -0.466127 -1.070797 -0.120877 -0.058139 0.716503 -0.267611 0.167705 -1.007873 -0.021665 0.433904 0.069227 -1.059725 0.318546 -0.144040 0.705034 -0.017338 0.563237 0.039045 0.667795 -0.207834 0.849904 0.287804 0.205569 0.210408 0.138549 -0.090389 0.044762 1.239125 0.131201 -0.372536 0.233112 1.008192 -0.669305 -0.774631 0.861665 0.152457 -0.424269 -0.062751 0.004392
say -0.176782 0.306825 0.270860 -0.516269 -0.310975 -0.330485 -0.119570 0.091531 -0.176709 0.573181 0.002833 0.037784 0.418153 -0.374963 0.003146 0.024473 -0.922332 0.299844 -0.919127 -0.018732 -0.455483 0.515774 -0.716679 0.164206 0.436681 0.414723 0.323073 -0.245726 -0.167144 0.956456 -0.317522 -0.959954 -0.928466 -0.926266 -0.285839 0.360400 0.708729 0.618000 0.346578 0.152323 -0.278678 -0.353539 -0.278614 0.023455 -0.702470 0.498623 -0.720048 -0.472105 -0.351251 -0.035351
never -0.296679 0.362465 -0.113581 -0.302258 0.487013 -0.678730 -0.166290 0.691814 1.054986 0.994643 -0.345803 -0.458220 0.089782 -0.389973 -0.176910 -0.062115 -0.462863 0.717039 -1.046953 0.401696 0.305249 0.202784 -0.890149 0.440271 -0.430286 0.293133 -0.675713 -0.823584 0.199933 0.845937 -0.494039 0.724112 -0.042093 0.035097 -0.183593 0.109062 0.781808 -0.205859 1.204419 -0.100097 -0.483789 -0.621857 0.047211 -0.861795 -0.942304 0.272652 -0.461218 -1.282613 -0.019171 0.227346
3 -0.345230 0.823895 -0.241266 -0.570254 -0.346863 0.203660 0.362200 -0.969939 0.924311 0.554675 0.413991 -0.579710 -0.756875 -0.174447 -1.043535 -0.026951 -0.516860 -0.150629 -0.055451 0.044381 1.140951 -0.169045 -0.362845 0.372527 1.225912 0.579604 0.081388 0.411944 -0.525654 0.124960 0.005471 0.017498 -0.421446 0.350482 0.730093 -0.223465 0.191061 0.189977 -0.241041 0.324446 -0.612645 -1.078430 -0.500074 -0.921264 -0.586921 0.742796 -0.384329 -0.690684 0.037133 -0.077674
got -0.182206 0.256975 0.287522 -0.079506 0.007473 0.017489 -0.202606 0.246917 0.334289 0.992726 -0.126683 -1.090800 -0.324428 -0.334989 -0.090158 0.153340 -0.528819 0.111226 -1.037236 -0.219127 0.044840 0.239452 -0.691235 0.553418 0.271030 0.833644 -0.348642 -0.093793 0.122082 0.675119 -0.503263 0.344936 0.222716 -0.420901 0.004699 -0.389509 0.295880 0.203506 0.834781 0.120370 -0.846798 -0.514368 1.043067 -0.934588 -0.848977 0.005454 0.030315 -0.678883 -0.036870 -0.540715
've -0.344253 0.530166 0.095321 -0.217743 0.898869 -0.665353 -0.229778 0.873464 0.981966 0.954196 -0.646518 -0.307085 -0.658424 -0.662242 0.015180 -0.276485 -0.426566 0.714367 -0.996167 0.135997 1.064546 0.026418 -0.751255 0.431636 0.183964 0.150070 -0.567733 -1.190767 0.508409 0.534343 -0.735315 0.683423 -0.203214 -0.169702 0.468425 0.448177 0.855704 -0.206884 1.533503 0.524187 -0.198706 -0.818652 0.446732 -0.719590 -1.041811 0.396595 -0.465273 -1.069889 -0.042778 0.405805
There 0.250531 0.422059 0.079083 0.032991 -0.060600 -0.513793 0.476567 -0.244421 0.465277 0.163265 -0.155149 -0.342733 -0.348992 -0.280876 -0.130118 -0.299531 -0.093045 0.966570 -0.968121 -0.235876 0.255101 -0.194942 -1.254645 -0.815316 0.801903 0.558659 0.541146 -0.342823 0.333948 0.052889 0.109976 -0.429301 -0.598309 0.126814 0.747746 -0.000265 0.506715 0.958605 0.244373 -0.345986 -0.811951 -0.109038 -0.714963 -0.430868 -0.426961 0.215311 -0.197168 0.058907 -0.230382 -0.236259
give -0.019425 -0.007629 0.457567 0.504569 0.305783 -0.110804 -0.504516 0.067143 0.038546 0.892267 0.516664 -0.981027 0.385604 -0.403786 -0.068772 1.084020 -0.562564 0.276397 -0.821927 -0.270474 -0.339157 -0.307341 -0.188584 0.116367 0.050433 0.773189 -0.755680 -0.221061 -0.655818 1.134168 0.194061 -0.019943 0.298644 0.073179 0.282484 -0.442572 0.236310 0.575336 0.368219 -0.604137 -0.279084 -0.427494 -0.351942 0.060111 -0.654249 0.072459 -1.039586 -0.543817 -0.053109 -0.171064
let -0.323799 -0.612509 0.022707 0.352744 0.195198 0.234980 -0.282989 0.454430 -0.046145 1.042647 0.660161 -0.932968 0.437262 0.264833 -1.047093 1.538949 -0.342549 0.572971 -0.608161 -0.054502 -0.058995 -0.686109 -0.690103 -0.325819 0.136612 0.295785 -0.724429 -0.123360 -0.732601 1.907402 0.167529 0.188543 -0.010633 0.037744 0.111230 -0.977405 0.206460 -0.538181 0.084331 -1.093577 -0.999121 -0.171785 0.327995 0.397917 -0.583232 0.554836 -0.671286 0.046340 -0.021628 0.428313
around 0.080645 0.548693 -0.146212 0.194697 0.365461 0.375769 -0.624278 -0.475174 -0.299057 0.076387 0.328938 -0.361546 -0.366462 0.351568 -0.286473 -0.338891 -0.803655 0.277492 -0.641934 -0.174146 0.085649 -0.477884 -0.751768 0.404381 1.044522 -0.007471 0.084358 -0.035988 -0.025722 0.485455 0.370408 -0.055779 -0.202412 -0.611024 -0.274465 -0.661239 0.490767 0.432421 -0.147484 0.369990 -0.266294 -0.734759 0.082816 -1.119229 -0.919983 0.350494 0.081709 -0.433911 0.017761 0.150618
right 0.421644 -0.116838 -0.373837 -0.160832 -0.242505 0.078416 -0.190698 -0.148969 -0.240584 -0.249777 0.036323 -0.397697 -0.026797 0.406370 0.010161 0.306387 -0.907902 0.486310 -0.858694 0.013376 -0.340769 -0.019209 -0.752781 0.192258 0.756097 0.182717 0.409034 -0.029843 -0.166586 0.835635 -0.243752 0.305255 -0.639428 -0.657202 0.232910 -0.450615 -0.079253 0.258914 -0.111451 0.354777 -0.377033 -0.819591 0.274361 -0.596702 -0.613838 0.374145 -0.201571 -0.751407 -0.074473 -0.428012
Iraq 0.972976 0.392959 -0.175739 0.444896 0.244790 -0.387355 0.457397 -0.373117 0.088492 -0.373992 0.719050 0.561979 0.481771 -0.097281 -0.609626 -0.353904 -0.194878 0.605089 -0.031894 -0.348456 0.010190 -0.135003 -0.283310 -1.280302 -0.309775 0.917541 0.341431 0.049290 0.030350 -0.223895 -0.394648 0.240830 -1.329066 0.841182 -0.615756 0.135220 -0.072360 0.850529 -0.101395 0.196179 -0.749753 -0.680376 -0.934725 -0.057173 -0.247043 0.223775 -0.687739 0.503949 -0.351133 -0.461503
find 0.300227 -0.320845 0.014476 0.496798 0.493769 0.092387 -0.345986 0.000709 -0.339387 0.275847 -0.115303 0.022352 0.239914 -0.041023 -0.861306 0.604778 -0.584172 1.181101 -0.585327 -0.328197 -0.540679 -0.811156 -1.182118 -0.567388 0.342558 -0.197518 -0.061907 -0.591268 0.373621 0.535136 -0.076084 -0.254789 -0.116259 -0.454250 0.599741 0.143696 1.006800 0.244258 0.632504 -1.386017 -0.522626 -0.350031 -0.200776 0.213080 -0.162423 0.661804 -0.444429 0.160685 -0.108319 0.139149
off 0.135800 -0.021777 0.202708 0.233655 0.049654 -0.063483 -0.177449 -0.364425 -0.115545 -0.190019 0.064757 -0.639303 -0.258375 0.276206 0.319118 0.710326 -0.589108 -0.226660 -0.379561 -0.070071 -0.487711 0.562429 -1.080045 0.110247 -0.011577 0.185127 -0.161912 -0.038280 -0.779156 0.140716 -0.516113 0.339591 -0.563931 -0.475536 0.306932 -0.394182 -0.137482 0.336534 -0.322391 0.178843 -0.946702 -0.667343 0.493677 -0.696988 -0.320330 0.659461 -0.477709 -0.912987 0.026283 -0.380619
1 0.324492 0.365120 -0.410221 0.032084 -0.399011 -0.075187 0.296541 -1.102194 -0.220681 -0.145294 0.934780 -0.353059 -1.225120 0.414617 -1.056623 0.668865 -0.085117 -0.323380 0.002039 -0.530424 0.622718 0.224337 -0.704776 0.490851 1.377998 0.870823 -0.028240 -0.158367 -0.197802 0.182284 0.066744 -0.118551 -0.194414 0.245396 0.864168 -0.633142 0.429753 0.507178 -0.735252 0.347522 -1.220399 -0.737892 -0.497002 0.132733 -0.371063 0.975971 -0.754521 -0.127928 0.171582 0.682972
But 0.365387 0.076297 0.018883 0.109948 -0.006101 -0.134126 -0.018021 0.010171 0.058152 0.334426 -0.331205 -0.346781 0.272638 0.156610 0.141568 0.245075 -0.792181 1.065583 -0.916087 0.205233 -0.131797 0.216802 -0.747225 0.043175 0.118372 0.416492 -0.030669 -0.083606 -0.068319 0.208071 -0.406160 0.437437 -0.593294 -0.225645 -0.081252 0.184492 -0.115456 0.287384 0.477586 0.175127 -1.010470 -0.269010 -0.118249 -0.470725 -0.490009 0.651266 -0.316802 -0.269450 -0.709318 -0.221268
And 0.068534 -0.696495 -0.091768 -0.240534 -0.690460 0.173297 0.227590 -0.260349 -0.216110 0.628630 0.246659 -0.420805 0.468411 0.245160 -0.245671 0.353588 -0.252648 0.360410 -0.493779 0.200887 -0.186010 0.282395 -0.307301 0.249962 0.258285 0.774143 -0.084825 -0.073736 -0.100527 0.316063 -0.274161 0.204263 -0.708174 -0.295766 0.730238 0.118141 1.065723 0.659011 0.346692 0.558036 -0.857224 -0.635781 -0.401238 -0.628605 -0.241314 0.549481 -0.037675 -0.418390 -1.197404 0.117499
sure 0.512387 0.725064 0.460571 -0.280539 -0.153830 0.414840 -0.978098 -0.271808 -0.634505 0.110626 -0.226125 -0.192221 0.235956 0.112537 0.457181 0.669927 -0.707452 0.906048 -0.820501 -0.046903 -0.442558 0.242797 -0.613126 1.313462 1.070561 0.342091 0.353045 -0.292379 0.250258 1.088795 -0.101311 -0.488532 0.666011 -1.271099 0.092086 -0.245083 0.501425 0.222589 0.777192 0.979797 -0.412210 0.355895 -0.191973 0.035921 -0.427715 1.243500 -0.276958 -0.332770 0.108108 0.720094
too 0.460879 0.157095 -0.039130 -0.337242 -0.004885 0.448612 -0.421627 -0.645190 0.504455 -0.178994 -0.885554 -0.591093 0.320055 -0.592265 -0.080215 -0.484542 -0.170396 1.090306 -1.008664 0.297123 -0.195134 0.228771 -1.098000 0.241103 0.131708 0.082164 -0.776918 -0.387370 0.761438 0.373851 0.631394 -0.693339 -0.058225 -0.777300 0.662855 0.412783 0.540149 0.994552 0.364852 0.224131 -1.000391 -0.030429 -0.591413 -0.739121 -0.610695 0.239920 0.142981 -1.062016 -0.109999 -0.310221
last -0.617339 0.543486 -0.453271 0.527092 0.287939 0.592086 0.459813 0.341204 0.129186 -0.112854 -0.027895 -0.541162 0.191106 0.198973 -0.318190 0.169675 -0.803148 -0.918224 -0.405402 0.266835 0.454323 -0.625497 -0.518364 0.221324 0.244314 0.769834 0.134676 -0.112529 -0.618811 0.295477 -0.366886 0.615830 0.140416 0.981249 0.991627 -0.038582 -0.256817 0.027557 0.638905 0.226609 -0.950930 -0.743944 0.008108 -1.243650 -0.955393 0.766848 0.068707 -0.140262 -0.428418 0.515148
world 0.889575 -0.225325 -0.231768 0.452875 0.074691 -0.067880 -0.008027 -0.039920 -0.531740 -0.491458 0.000490 -0.192274 -0.048458 0.946909 0.131109 -0.355406 -0.231797 1.140789 -0.300285 0.095865 -0.669551 -0.330789 -0.639138 -0.854373 0.588329 0.838682 0.334640 -0.478212 0.407084 0.091404 -0.184775 0.659032 -0.705100 0.576466 0.396271 0.699423 0.233705 0.908855 0.025504 0.129910 -0.699361 -0.350462 -0.373476 0.203567 -0.373377 0.788209 0.229446 0.480306 -0.405587 -0.377654
& -0.318075 0.621554 0.164119 -0.063387 -0.431634 0.622056 0.013333 -0.802969 0.285828 -0.116710 0.177752 0.094882 -0.151802 -0.915602 0.173290 -0.299929 0.121970 -0.524282 -0.463344 -0.458471 0.863253 0.653185 -0.492327 -0.396703 1.098373 0.031205 0.019074 -0.068714 0.771311 0.072466 0.091107 -0.751387 0.224260 -0.856682 0.576249 -0.342386 0.791079 0.955713 -0.331112 0.327312 -0.693394 -0.256268 -0.965079 -0.533917 0.457534 -0.134447 -0.468487 -0.547242 0.386959 0.487314
down 0.408800 -0.091856 0.208205 0.102169 0.275087 0.372260 -0.470897 -0.599618 0.375161 0.182987 0.013010 -0.917914 -0.267629 -0.304170 0.081124 0.008563 -0.452675 -0.025387 -0.753130 -0.209359 -0.507884 0.181904 -0.792283 0.202183 -0.055184 0.027280 0.327601 -0.269778 -1.044313 0.200451 -0.052218 -0.007638 -0.499395 -0.123092 -0.088998 -0.432048 0.157122 0.097193 0.048670 0.349804 -0.553121 -0.923386 0.462187 -1.051584 -0.475903 0.794839 0.021581 -0.920732 -0.039612 -0.554881
please 0.220693 -0.376447 0.184711 0.891653 0.601879 0.156423 0.001121 0.498936 -0.001494 0.882545 1.086150 -0.939539 0.107193 0.280756 -0.481018 1.593368 -0.001191 0.678206 -0.345269 -0.292334 0.057123 -0.871265 -0.284383 -0.887745 0.230715 -0.317623 -0.741071 -0.340930 -0.686193 2.100372 0.333560 0.264179 0.349390 0.098861 0.574075 -0.474626 -0.224238 -0.205051 -0.274379 -1.439797 -0.611023 0.131581 0.562694 1.480877 0.018509 0.329669 -1.152490 0.031106 -0.102302 0.809906
PM -0.733462 -0.181328 -0.503780 -0.755255 -0.208328 0.549313 0.099191 -0.160368 -0.395004 0.917817 0.346050 -0.660987 -0.124154 -0.341635 -1.321313 0.711243 0.341638 -1.193521 0.185541 -1.484583 1.077526 -0.446460 -0.291202 -0.310449 1.049248 0.337922 0.529594 -0.524866 -0.675109 0.941326 -0.149710 -0.576030 0.438865 -0.730570 0.168256 0.292209 0.725432 0.243630 -0.481674 -0.817926 -0.257374 0.590821 0.323653 0.726742 0.552001 0.754510 -0.677305 -0.091940 -1.084021 1.743573
again -0.205278 -0.042630 -0.019868 0.124227 -0.018364 0.519563 0.304236 0.110708 -0.008874 0.470843 0.389209 -0.824176 0.471752 -0.254966 0.224953 0.571941 -0.663465 0.163052 -1.049768 -0.172804 0.005785 -0.051201 -0.863576 0.143746 -0.148096 0.144578 0.224725 -0.525653 -0.727096 0.702405 -0.560256 0.480456 0.146014 -0.026571 0.178176 -0.549589 0.685790 -0.054486 0.239511 -0.032310 -0.999714 -0.429343 -0.051555 -0.513165 0.020444 0.534236 -0.370782 -0.916755 -0.023838 0.534338
another 0.733131 0.569457 -0.295738 0.446193 0.176257 -0.815683 -0.008387 -0.312143 -0.209914 0.008427 0.067925 -0.609190 0.149174 0.360792 -0.363139 0.412816 -0.608776 0.139460 -0.447445 0.081240 -0.560335 -0.357381 -0.390558 0.510598 -0.014858 0.268326 0.366800 0.201228 -0.139983 0.077162 -0.545926 0.317323 -0.130456 0.391541 0.459761 0.062327 0.470627 0.090539 0.486304 -0.476013 -0.766679 -0.784147 -0.046226 -0.137712 -0.661131 0.571394 -0.805587 -0.381163 -0.038819 -0.069633
better 0.612784 0.208172 0.384688 0.114822 0.913868 -0.344245 0.322726 -0.065131 0.003093 0.220159 -0.247212 -0.188323 -0.004319 -0.331943 0.160041 0.558490 -0.923777 0.880613 -0.790455 0.188423 0.315885 -0.167503 -0.928621 -0.177022 0.444471 0.513888 -0.842090 -0.396793 0.784375 0.338578 0.006298 0.480194 0.303338 -0.463607 0.808204 0.176935 -0.010724 0.781500 0.429284 -0.132704 0.097875 -0.181811 -0.345503 -0.555609 -0.076242 -0.064940 -0.860851 -0.356442 -0.208088 -0.079953
put 0.266568 0.354682 0.344386 0.921750 0.367169 -0.252412 -0.143487 -0.587256 -0.337081 0.272595 -0.015140 -0.847978 -0.045746 0.391131 -0.006929 0.083584 -0.915776 0.234522 -0.810763 -0.018594 -0.543302 0.422523 -0.906128 0.269116 -0.134461 0.117652 0.104265 0.135042 -0.485490 0.153165 0.243145 0.299083 -0.391016 -0.306510 -0.163700 -0.524252 0.333087 0.201083 -0.138483 -0.289782 -0.880625 -0.774435 0.376284 -0.603067 -0.645662 0.958562 -0.423980 -0.993665 0.039655 -0.198194
those -0.448616 -0.089158 0.271222 0.514896 -0.320243 -0.148440 0.035458 -0.024604 -0.141014 0.299370 -0.142423 -0.058788 0.789149 -0.306694 0.160955 -0.657176 -0.503353 1.408013 -0.251646 0.349489 0.154936 -0.243491 -0.293582 -0.295067 0.401910 -0.017890 0.156379 0.173148 -0.576470 0.300207 0.658871 -0.649105 -0.816418 0.243015 0.490701 -0.296065 0.483140 0.313860 -0.100027 -0.231887 -0.649700 -0.807204 -0.688936 0.285204 -0.570671 0.542796 -0.212717 -0.112269 -0.072378 -0.691442
told -0.441007 0.094972 0.188176 0.178894 0.079618 -0.076854 -0.316047 0.455288 0.106948 1.211070 -0.176967 -0.710020 0.127677 -0.468014 -0.013219 1.042889 -0.549995 -0.462657 -0.780965 -0.460274 0.064210 0.211495 -0.157089 0.275656 -0.256257 0.877665 -0.332764 0.424212 -0.999575 0.939708 -0.618159 -0.300227 -0.441578 -0.227635 -0.388108 -0.383420 -0.489849 -0.269189 1.045324 -0.270230 -0.399966 0.013049 -0.019300 -0.313447 -0.815352 -0.512714 -0.479185 -0.404425 -0.409119 -0.616541
little 0.323491 0.829009 0.002256 0.310980 0.560426 0.053371 -0.580140 -0.259262 0.089567 0.504986 -0.794552 -0.306070 -0.065419 -0.286480 0.396157 0.441867 -1.203097 1.350269 -0.521788 0.534891 -0.225285 -0.855882 -0.451171 -0.272518 0.399743 0.373538 -0.688022 0.396261 0.115065 0.239355 0.071583 -0.300106 0.266344 0.226796 0.734289 0.571989 0.081007 0.742819 1.057164 -0.149879 -0.192816 -0.441625 -0.171943 -0.915702 -0.646578 0.261670 0.078690 -0.295382 0.108594 -0.379204
long 0.327891 0.139133 -0.408455 0.346487 0.066269 0.370915 -0.153150 0.174828 0.006611 -0.780896 -0.710153 -0.283484 0.097288 -0.014118 -0.712601 0.028093 -0.654483 0.290695 -0.544832 0.539340 -0.197121 -0.274345 -0.704802 0.699122 -0.045586 0.436541 -0.470922 -0.103168 0.037878 0.242139 0.451170 -0.070433 0.062633 0.675549 1.295399 0.591497 0.202006 0.443280 0.591785 0.017470 -1.158989 -0.508448 -0.187421 -0.832236 -1.195298 1.158311 0.368075 -0.594540 0.393122 -0.033388
through -0.206287 0.611862 0.058499 0.023910 0.468485 0.150002 -0.320013 0.155568 0.204863 -0.262321 -0.054037 -0.183755 0.047144 0.221493 -0.028278 -0.421888 -0.644847 -0.172983 -0.252324 -0.190218 -0.014042 0.072641 -0.644868 -0.395460 0.328577 0.123869 0.227829 -0.269929 -0.617737 0.521455 -0.443746 0.281058 -0.651706 -0.114377 -0.300058 0.005378 -0.318571 0.313921 -0.008761 0.303940 -0.778831 -0.619166 0.088890 -0.349983 -0.511878 0.989676 -0.404972 -0.591057 0.367011 0.226421
called -0.525131 0.155686 -0.189381 0.079603 -0.049931 0.382028 -0.075184 0.068510 0.335540 0.571297 -0.072356 -0.875888 0.061233 -0.766010 0.174860 0.164064 -0.372624 -0.104143 -0.547073 -0.363523 -0.252237 -0.035954 -0.099635 0.437905 -0.024193 0.510326 -0.129537 0.225407 -0.396809 0.365724 -1.103892 0.237000 -0.516784 0.486053 0.033040 0.236367 -0.000359 -0.215954 0.989339 0.252803 -0.868652 -0.633640 0.193224 -0.217202 -0.536109 0.150562 -0.241240 -0.686394 -0.399096 -0.520389
Do 0.482861 -0.573284 0.341536 0.286181 -0.259829 -0.027799 -0.213330 -0.418973 -0.334834 0.149538 -0.243244 -0.245985 0.208245 0.074204 -0.839632 0.753876 -0.114994 0.689573 -0.549491 0.174222 0.167338 -0.374889 0.181077 0.263380 -0.157413 0.086789 -0.016912 -0.242785 0.300663 0.980816 0.559683 -0.394569 -0.143785 -0.715539 1.230824 -0.791977 1.012176 0.483925 0.509430 -0.728251 -0.706586 -0.325579 0.069648 0.230208 0.247827 0.778863 -0.213370 -1.193661 -0.090387 0.367571
few -0.529075 0.270724 0.488183 0.127823 0.557093 -0.035989 0.473046 0.005479 0.856131 0.356338 -0.248140 -0.972386 -0.557092 -0.255383 -0.055937 0.018480 -0.881136 0.375348 -0.879038 0.527803 0.731468 -0.044542 -0.208263 0.222373 0.614992 0.700519 0.009625 -0.497751 -0.821440 0.071400 0.656170 -0.494546 0.071712 0.859577 1.089910 0.126537 0.057066 0.757052 -0.031889 0.269736 -0.284980 -0.593035 0.081709 -1.299670 -0.504869 1.257917 0.228758 -0.652069 -0.229453 0.100005
4 -0.087964 0.657554 -0.235426 -0.502655 -0.112079 0.580457 0.035946 -1.054350 0.952479 0.512520 0.518011 -0.525752 -0.571218 -0.508528 -0.919796 -0.171239 -0.394943 -0.066515 0.218085 0.170708 0.447181 -0.091245 -0.480332 0.470312 1.313615 0.543374 -0.367535 0.199383 -0.340552 0.100882 0.260013 0.018312 -0.001044 0.195269 0.700688 -0.174717 -0.136582 0.298128 -0.676925 0.730007 -0.849411 -1.153952 -0.654883 -0.755981 -0.555599 0.689843 -0.507200 -0.232266 0.159991 -0.088872
where 0.541683 0.060116 -0.020783 0.597056 0.171821 -0.109088 -0.093496 0.153398 -0.061612 -0.016491 -0.053878 -0.129545 0.338812 -0.118078 0.218842 -0.311427 -0.232841 0.956609 -0.805858 0.025728 -0.231705 0.024448 -0.279024 -0.172446 -0.032183 -0.080236 0.701400 -0.426476 0.394007 0.577419 -0.147233 0.164628 -0.573765 0.100927 0.129550 -0.265974 0.419545 -0.140516 0.543589 0.039297 -1.047839 -0.516097 0.234509 0.114579 -0.330919 0.586434 -0.097383 -0.437009 -0.042212 0.051655
next 0.087772 -0.123492 -0.594305 0.599100 0.230634 0.947950 0.511455 0.115778 -0.363492 0.215415 0.437337 -0.608309 0.200502 0.838120 -0.491255 0.642273 -0.903766 -0.186276 -0.821859 0.218563 0.067478 -1.045240 -0.342879 0.533385 -0.096011 0.685476 -0.134151 -0.640968 -0.593269 -0.147971 -0.129247 1.223698 0.554452 0.957321 0.747899 -0.377454 -0.113923 -0.114109 0.551051 -0.371652 -0.516939 -0.886346 0.152173 -0.708489 -0.379883 1.036196 0.095395 -0.774387 -0.090923 0.508350
number -0.186849 0.447297 0.311682 0.954476 0.418853 -0.255597 -0.153317 -0.716177 -0.732746 0.718774 0.077724 -0.381655 -0.571616 -0.256139 -0.175965 0.477896 0.012977 -0.149877 0.551969 -0.492092 -0.344635 0.148206 -0.073169 -0.182324 0.894261 0.699296 -0.259970 0.408890 0.178196 0.166074 -0.137771 0.204893 -0.209271 0.148585 1.342082 -0.072369 0.456893 0.541739 0.202243 -0.601245 -0.442217 -0.835535 -0.119246 0.439969 -0.316869 0.373489 -0.832511 0.062643 0.504880 -0.422592
price 0.622603 -0.006148 0.105935 0.683549 0.373204 0.050416 0.575438 0.102978 -0.660243 0.182016 0.263385 -0.309428 0.242718 -0.681271 0.301197 1.130095 -0.685356 -0.337227 -0.044258 -0.478836 -0.751554 -0.230684 -0.450114 0.109485 0.398578 0.843900 -0.977589 0.550403 0.579658 0.373617 -1.144964 0.536014 -0.034468 -0.242161 0.797805 -0.224774 -0.208213 0.257536 0.279752 -0.011034 -0.281479 -0.270857 -0.612845 0.079367 -0.128600 -1.397287 -1.301654 0.533300 -0.006809 -0.820270
