noun 0.043949 0.149869 0.936097 -0.544661 -0.025632 -0.592288 1.358991 0.341117 -0.328273 0.013400 -0.040120 0.383896 -1.014958 -0.797123 -0.242575 -0.580889 -0.511856 -0.145934 -0.251404 -0.365411 0.145160 0.592501 -0.251844 0.265343 -0.251376
punct 0.042525 0.105104 0.741148 -0.385242 -0.066045 -0.478474 1.031841 0.230537 -0.197072 0.024777 -0.038625 0.268966 -0.760833 -0.605835 -0.215823 -0.404403 -0.356148 -0.099774 -0.228949 -0.309679 0.109527 0.483306 -0.162687 0.186452 -0.228504
det 0.060854 0.161823 0.960425 -0.552782 -0.046303 -0.612851 1.405109 0.314206 -0.312606 0.037067 -0.052886 0.380299 -1.043579 -0.800499 -0.285538 -0.593233 -0.525264 -0.141684 -0.248602 -0.360518 0.173635 0.606963 -0.253015 0.258415 -0.247073
adp 0.080600 0.143820 0.931833 -0.570221 -0.042866 -0.558020 1.316204 0.309821 -0.271078 0.052655 -0.035631 0.389968 -1.037123 -0.783722 -0.247099 -0.584950 -0.581237 -0.147334 -0.217527 -0.365713 0.164804 0.551191 -0.254293 0.305356 -0.188212
propn 0.169972 0.133493 1.126456 -0.655292 -0.165401 -0.584543 1.228199 0.234352 -0.034912 0.251638 -0.089885 0.502388 -1.221386 -0.947902 -0.229190 -0.601447 -0.759359 -0.195533 -0.238557 -0.495102 0.280130 0.491208 -0.203645 0.618303 -0.235437
verb -0.050448 0.143847 0.687316 -0.370234 0.007809 -0.559488 1.424583 0.297198 -0.459205 -0.152933 -0.021532 0.161246 -0.674254 -0.536926 -0.369078 -0.432342 -0.169717 -0.036828 -0.239420 -0.136314 0.082707 0.700500 -0.248984 -0.164319 -0.218393
adj -0.008724 0.165255 0.848542 -0.465353 -0.019363 -0.586655 1.391401 0.311829 -0.392566 -0.027300 -0.053569 0.288734 -0.888088 -0.701851 -0.308655 -0.518202 -0.351465 -0.085760 -0.241307 -0.272156 0.144055 0.629589 -0.252610 0.103614 -0.266649
<root> 0.016339 0.123579 0.725320 -0.396543 -0.033347 -0.506381 1.187140 0.264474 -0.311342 -0.043271 -0.028059 0.242863 -0.746308 -0.583475 -0.268590 -0.431481 -0.316489 -0.076054 -0.226788 -0.248121 0.099251 0.553051 -0.206335 0.067924 -0.210251
adv -0.103272 0.152689 0.576719 -0.300455 0.042052 -0.542153 1.490320 0.319441 -0.593714 -0.259530 -0.000747 0.080096 -0.516113 -0.408494 -0.404621 -0.388707 -0.009374 0.015504 -0.236447 -0.043897 0.002487 0.760102 -0.262925 -0.382875 -0.193486
pron -0.093154 0.151435 0.600431 -0.266730 0.020095 -0.585294 1.487279 0.278860 -0.568757 -0.249311 0.003145 0.005458 -0.540702 -0.391108 -0.471842 -0.383892 0.011792 0.011960 -0.247343 -0.054070 0.053336 0.781018 -0.237712 -0.445111 -0.181259
cconj 0.015870 0.154898 0.847413 -0.509592 -0.028181 -0.555581 1.374444 0.285607 -0.345630 -0.001689 -0.051677 0.310141 -0.908837 -0.703525 -0.299006 -0.529940 -0.418327 -0.109312 -0.209129 -0.253175 0.167468 0.603732 -0.251970 0.153031 -0.198041
num 0.156367 0.082747 0.725206 -0.536693 -0.056363 -0.288788 0.682369 0.210937 0.007745 0.179773 -0.015885 0.448500 -0.883185 -0.662655 -0.015190 -0.465599 -0.709164 -0.182664 -0.111064 -0.394513 0.102094 0.215737 -0.168499 0.572512 -0.052444
aux -0.067739 0.146705 0.629235 -0.338211 0.013629 -0.547052 1.414480 0.304844 -0.497749 -0.184988 -0.020128 0.139166 -0.602015 -0.472037 -0.378784 -0.415630 -0.129274 -0.020958 -0.230625 -0.080745 0.047727 0.690531 -0.248063 -0.232332 -0.191359
part -0.197385 0.139421 0.434296 -0.176454 0.097696 -0.569889 1.568287 0.309259 -0.703709 -0.355670 -0.018486 -0.052385 -0.335129 -0.288550 -0.493038 -0.326470 0.218420 0.072895 -0.217112 0.130106 0.039983 0.822477 -0.264183 -0.622230 -0.240531
sconj -0.090926 0.123224 0.511675 -0.199085 0.019283 -0.516712 1.267111 0.233166 -0.483668 -0.210790 -0.012449 -0.004794 -0.446287 -0.330932 -0.413621 -0.325532 0.048102 0.011121 -0.216050 -0.041302 0.064982 0.670150 -0.189875 -0.386641 -0.196341
x 0.231404 -0.095479 -0.077905 -0.008054 -0.139089 0.374707 -1.240130 -0.169826 0.671843 0.391964 0.009977 0.272434 -0.032000 -0.063944 0.534471 0.173394 -0.421206 -0.138024 0.055277 -0.378932 -0.062574 -0.654702 0.207913 0.866611 0.050929
