punct 0.274447 0.223414 0.218397 0.149680 -0.405681 -0.148943 -0.313611 -0.176035 -0.261080 0.048197 -0.178258 0.216402 0.076532 -0.269715 0.216590 -0.256115 -0.205901 -0.344043 0.361129 0.043637 0.168789 -0.382438 0.505123 0.259105 0.120562
det 0.140292 0.152047 0.265885 0.427405 -0.324456 -0.167598 -0.425711 -0.298584 -0.320816 0.147593 0.090052 0.172245 -0.119809 -0.068810 0.294089 -0.209901 0.071882 -0.303837 0.289096 -0.018981 0.010495 -0.399230 0.609867 -0.122983 0.035979
case 0.107388 0.119790 0.165327 0.368124 -0.481712 -0.079956 -0.618057 -0.209091 -0.610860 0.137449 0.081044 0.193451 -0.288550 0.000818 0.300292 -0.207179 0.163254 -0.122769 0.169474 -0.054798 -0.080029 -0.372754 0.792941 -0.234168 0.032002
nmod 0.185753 0.222213 0.237426 0.468564 -0.511875 -0.125410 -0.570219 -0.195643 -0.682886 0.152723 -0.006232 0.177406 -0.152963 -0.084591 0.260926 -0.321960 0.031756 -0.261485 0.358240 -0.061776 -0.069271 -0.506592 0.995897 -0.067236 0.108720
advmod -0.102171 -0.101414 0.201522 0.288672 0.154355 -0.028648 0.093608 0.044310 0.007421 0.078490 0.212526 -0.013444 -0.053481 -0.066110 -0.000316 -0.051181 0.072582 -0.034491 0.162399 -0.070705 -0.197820 -0.190799 0.128467 -0.213382 -0.051834
nsubj 0.160386 -0.013532 0.324717 0.399733 -0.025516 -0.277295 0.110357 -0.054544 0.097578 0.140701 0.127872 0.072314 0.093892 -0.236672 0.084794 -0.171431 -0.204863 -0.445974 0.352220 0.094680 -0.132761 -0.345645 0.475055 0.009261 0.053266
obl 0.059736 0.058928 0.108944 0.208885 -0.420276 -0.067583 -0.528615 -0.199552 -0.374051 0.104501 0.068678 0.192479 -0.287974 0.054591 0.263920 -0.120605 0.150362 -0.115055 -0.006343 0.031549 -0.043005 -0.289795 0.563669 -0.241947 0.020843
amod 0.214483 0.179131 0.271686 0.485879 -0.417225 -0.169934 -0.396760 -0.278893 -0.345695 0.129463 0.061208 0.153357 -0.110804 -0.071518 0.289324 -0.275811 0.069644 -0.331369 0.237943 0.033322 -0.047471 -0.398179 0.735485 -0.102375 0.109431
root 0.101813 0.109455 0.264162 0.376181 -0.115949 -0.111158 -0.176851 -0.136911 -0.344727 0.145167 0.061687 0.092465 0.012585 -0.138547 0.167335 -0.255286 0.015301 -0.220985 0.349686 -0.113939 -0.037650 -0.304475 0.504074 -0.038680 0.079078
conj 0.273114 0.270794 0.099886 0.374231 -0.528387 0.009966 -0.219930 -0.041441 -0.700336 0.034253 -0.192600 -0.031472 0.116593 -0.254492 0.085825 -0.503029 -0.017258 -0.205947 0.183502 0.038461 -0.009993 -0.450771 0.999356 0.033003 0.267681
cc 0.186425 0.184078 0.026235 0.264055 -0.356973 0.028465 -0.136001 -0.014540 -0.524029 0.006489 -0.128301 -0.058109 0.088020 -0.165859 0.039736 -0.356663 0.017981 -0.118108 0.080936 0.009321 -0.039026 -0.291931 0.718401 0.000934 0.194876
obj 0.143448 -0.149275 0.360893 0.331674 -0.086233 -0.308214 0.195147 0.137145 0.303631 0.090489 0.121255 0.112354 -0.004616 -0.207007 -0.040057 -0.127437 -0.284664 -0.497506 0.174318 0.250498 -0.308176 -0.368763 0.557318 -0.143465 0.107776
flat 0.519913 0.426271 0.128067 0.216220 -0.651462 -0.154040 -0.783100 -0.522771 -0.902491 0.242508 -0.325767 0.203765 0.246838 -0.243965 0.436041 -0.425011 -0.072766 -0.512050 0.405125 -0.107246 0.397104 -0.535131 1.044257 0.445069 0.231381
appos 0.420452 0.420886 0.194008 0.311839 -0.763709 -0.141390 -0.832127 -0.440452 -0.990814 0.198417 -0.269945 0.274404 0.045609 -0.272106 0.418753 -0.478275 -0.043080 -0.375850 0.468821 -0.077609 0.244479 -0.573766 1.141182 0.305630 0.220239
cop 0.139616 0.186712 0.211493 0.435313 -0.049036 -0.103902 -0.034776 -0.185671 -0.267965 0.133112 0.058769 -0.040457 0.161001 -0.176848 0.168007 -0.259842 -0.022237 -0.233183 0.428011 -0.117691 0.041542 -0.274758 0.381883 0.130920 0.037241
aux:pass -0.007776 0.287369 -0.200718 -0.140499 -0.232769 0.242501 -0.853324 -0.636201 -0.425193 0.076648 -0.094973 0.120948 -0.187677 0.247232 0.467885 0.156217 0.507335 0.219723 -0.147521 -0.219377 0.499593 0.031705 -0.352421 0.023589 -0.185110
aux 0.020124 -0.104931 0.112657 0.058343 0.140887 -0.192773 0.084615 -0.128386 0.645787 0.040349 0.188654 0.083230 0.017068 -0.032279 0.143447 0.232798 -0.060113 -0.305130 -0.044066 0.212034 0.051870 -0.073923 -0.279563 -0.039196 -0.194027
mark 0.114677 -0.091692 0.187832 -0.227632 0.239006 -0.154582 0.271334 -0.066411 0.924484 -0.045562 -0.185567 0.144356 0.157876 -0.030784 -0.143529 0.298378 -0.352835 -0.509132 -0.024491 0.205060 0.030843 -0.165016 -0.523851 0.250040 0.012742
nsubj:pass 0.025008 0.298947 -0.105686 -0.032786 -0.412963 0.188448 -0.904670 -0.595409 -0.507928 0.072673 -0.085415 0.173869 -0.258794 0.203539 0.488703 0.057585 0.438216 0.131455 -0.103085 -0.157056 0.390893 -0.098141 -0.059772 -0.013732 -0.123659
nummod -0.254950 -0.140930 0.166092 0.345059 -0.457721 0.025805 -0.371906 0.432259 -0.996633 0.042524 0.279786 0.144146 -0.518198 -0.065351 -0.012684 -0.286180 0.072359 0.413497 0.269994 -0.154301 -0.474099 -0.266826 1.122102 -0.485793 0.011490
acl 0.062654 0.100259 0.037473 0.163326 -0.332392 -0.007662 -0.419821 -0.240897 -0.225519 0.108423 -0.017887 0.158352 -0.173011 -0.019711 0.221042 -0.047291 0.115481 -0.174686 -0.006976 0.090896 0.004576 -0.285098 0.302146 -0.067547 0.002150
det:poss 0.209607 -0.015182 0.329138 0.365393 -0.199718 -0.281513 -0.088339 -0.054752 0.079639 0.151530 0.088182 0.115548 -0.003262 -0.116706 0.103770 -0.139226 -0.135263 -0.518514 0.130120 0.176893 -0.178641 -0.372420 0.650202 -0.108768 0.080946
compound:prt 0.193887 0.031406 0.329064 0.253154 -0.203900 -0.147065 -0.095510 0.036586 -0.240629 0.093679 -0.116929 0.162505 0.039615 -0.256229 -0.001973 -0.305440 -0.203594 -0.410731 0.275536 0.053139 -0.163820 -0.440343 0.690555 -0.000612 0.232453
advcl 0.072309 -0.012974 0.262698 0.033052 -0.048399 -0.156433 -0.200685 -0.194682 0.381127 0.091501 -0.003413 0.257714 -0.086190 -0.029976 0.128406 0.191177 -0.120977 -0.400927 0.088169 0.124222 0.035788 -0.319647 -0.072808 0.013383 -0.074594
compound 0.205858 0.080331 0.299504 0.343622 -0.944102 -0.401288 -0.348895 0.228010 -0.285290 -0.176130 0.267247 0.342297 -0.302598 -0.270216 0.322004 -0.318079 -0.367116 -0.093051 0.373550 0.230227 -0.069524 -0.221079 1.135566 -0.047047 -0.061236
iobj 0.180133 0.026426 0.086803 0.184727 0.123453 -0.160779 0.227682 -0.159904 0.374576 0.012612 0.036581 -0.090967 0.229073 -0.082875 0.088229 -0.094348 -0.067221 -0.333996 0.008823 0.132241 0.051165 -0.052885 -0.002528 0.076968 0.030880
xcomp 0.182060 -0.161123 0.364784 0.103538 0.070399 -0.311999 0.407181 0.117083 0.836470 -0.013359 -0.076927 0.151835 0.144051 -0.203305 -0.186716 0.066471 -0.499761 -0.702735 0.108150 0.354473 -0.250474 -0.435264 0.130341 0.111194 0.129141
ccomp -0.017986 -0.214528 0.133457 0.174146 0.248756 -0.247064 0.300586 0.031351 0.733724 0.014288 0.296174 -0.035815 0.021951 -0.070901 0.058054 0.146456 -0.088373 -0.344829 -0.053283 0.280638 -0.119309 -0.105319 -0.121660 -0.162331 -0.165925
dep 0.074553 0.230758 0.505387 -0.093656 -0.323886 0.112497 -0.822185 -0.056001 -0.924496 0.271840 -0.548033 0.695017 -0.202354 -0.337562 -0.062389 -0.106257 -0.212763 -0.267232 0.727872 -0.309823 -0.019627 -0.607081 0.379370 0.277690 0.288393
parataxis 0.084929 0.096619 0.112528 0.276137 0.129919 -0.020556 0.208562 -0.104156 -0.157672 0.065959 0.064931 -0.141743 0.196215 -0.133843 0.051551 -0.240269 0.004447 0.042150 0.310692 -0.161769 0.052009 0.021503 0.071839 0.092490 0.066964
expl 0.030105 0.146078 -0.162745 -0.000682 0.308312 0.138704 0.280439 -0.160067 -0.048138 -0.044207 -0.065042 -0.276393 0.309683 0.027338 0.036856 -0.154392 0.125804 0.241070 0.058984 -0.216875 0.268866 0.290381 -0.415774 0.182644 0.034700
csubj 0.062504 0.056504 -0.122081 -0.128509 0.275712 0.047454 0.379459 -0.027391 0.412933 -0.123705 -0.102318 -0.194475 0.255163 0.060266 -0.071685 0.024683 -0.040643 0.033584 -0.088419 -0.011812 0.161462 0.242912 -0.537303 0.188482 0.019166
fixed -0.795878 -0.520459 -0.541399 -0.276355 0.050452 0.384209 0.218616 1.266206 -1.230749 -0.147825 0.340340 -0.227384 -0.658149 0.297964 -0.750951 -0.081988 0.308002 1.378853 -0.349371 -0.328216 -0.818164 0.545446 0.615644 -0.878044 0.027178
nmod:poss 0.098158 0.200605 -0.189527 0.043551 -0.356666 0.139033 -0.304364 -0.207241 -0.445504 -0.022869 -0.137980 -0.034335 -0.083178 0.016819 0.173467 -0.197773 0.184498 0.101188 -0.124764 0.011013 0.099229 -0.021464 0.225696 0.026754 0.096245
csubj:pass 0.010514 0.123911 -0.324210 -0.424983 0.068951 0.175136 -0.240710 -0.269237 -0.061254 -0.049471 -0.211940 -0.021575 0.089228 0.191371 0.058524 0.225108 0.162821 0.214833 -0.200217 -0.169469 0.387798 0.297414 -0.558575 0.243885 -0.078453
